{"learner":{"attributes":{"best_iteration":"99","best_ntree_limit":"100","scikit_learn":"{\"n_estimators\": 100, \"objective\": \"reg:squarederror\", \"max_depth\": 60, \"learning_rate\": null, \"verbosity\": null, \"booster\": null, \"tree_method\": null, \"gamma\": null, \"min_child_weight\": null, \"max_delta_step\": null, \"subsample\": null, \"colsample_bytree\": null, \"colsample_bylevel\": null, \"colsample_bynode\": null, \"reg_alpha\": null, \"reg_lambda\": null, \"scale_pos_weight\": null, \"base_score\": null, \"missing\": NaN, \"num_parallel_tree\": null, \"random_state\": null, \"n_jobs\": null, \"monotone_constraints\": null, \"interaction_constraints\": null, \"importance_type\": null, \"gpu_id\": null, \"validate_parameters\": null, \"predictor\": null, \"enable_categorical\": false, \"kwargs\": {\"nthread\": 1}, \"_estimator_type\": \"regressor\"}"},"feature_names":[],"feature_types":[],"gradient_booster":{"model":{"gbtree_model_param":{"num_trees":"100","size_leaf_vector":"0"},"tree_info":[0,0,0,0,0,0,0,0,0,0,0,0,0,0,0,0,0,0,0,0,0,0,0,0,0,0,0,0,0,0,0,0,0,0,0,0,0,0,0,0,0,0,0,0,0,0,0,0,0,0,0,0,0,0,0,0,0,0,0,0,0,0,0,0,0,0,0,0,0,0,0,0,0,0,0,0,0,0,0,0,0,0,0,0,0,0,0,0,0,0,0,0,0,0,0,0,0,0,0,0],"trees":[{"base_weights":[7.341685E1,7.575997E1,9.892507E0,7.739299E1,2.4378414E1,2.574566E-1,1.4581303E1,7.949797E1,3.4363728E1,8.04752E1,1.825E1],"categories":[],"categories_nodes":[],"categories_segments":[],"categories_sizes":[],"default_left":[true,true,true,true,false,false,false,true,false,false,false],"id":0,"left_children":[1,3,5,7,-1,-1,-1,9,-1,-1,-1],"loss_changes":[6.9905E3,2.3085938E3,1.317763E2,1.6158125E3,0E0,0E0,0E0,1.2247188E3,0E0,0E0,0E0],"parents":[2147483647,0,0,1,1,2,2,3,3,7,7],"right_children":[2,4,6,8,-1,-1,-1,10,-1,-1,-1],"split_conditions":[7.2772536E0,5.549801E0,2.325475E2,4.2076974E0,7.3135247E0,7.723698E-2,4.374391E0,4.449014E0,1.0309118E1,2.4142561E1,5.4750004E0],"split_indices":[11,31,2,41,0,0,0,61,0,0,0],"split_type":[0,0,0,0,0,0,0,0,0,0,0],"sum_hessian":[5.1E1,4.9E1,2E0,4.7E1,2E0,1E0,1E0,4.4E1,3E0,4.3E1,1E0],"tree_param":{"num_deleted":"0","num_feature":"70","num_nodes":"11","size_leaf_vector":"0"}},{"base_weights":[5.2385864E1,5.5914997E1,2.5986273E1,5.659987E1,1.2890271E1,2.9636072E1,2.188381E-1,5.814309E1,2.6631887E1,5.942203E1,2.2135815E1,6.0602768E1,2.5052298E1],"categories":[],"categories_nodes":[],"categories_segments":[],"categories_sizes":[],"default_left":[true,true,true,true,false,false,false,true,false,true,false,false,false],"id":1,"left_children":[1,3,5,7,-1,-1,-1,9,-1,11,-1,-1,-1],"loss_changes":[3.3917031E3,5.9640625E2,7.4588184E2,4.8640625E2,0E0,0E0,0E0,5.7275E2,0E0,6.4453125E1,0E0,0E0,0E0],"parents":[2147483647,0,0,1,1,2,2,3,3,7,7,9,9],"right_children":[2,4,6,8,-1,-1,-1,10,-1,12,-1,-1,-1],"split_conditions":[9.70056E-1,6.056006E0,1.49327545E1,4.2076974E0,3.8670814E0,8.890822E0,6.565143E-2,3.9004698E0,7.9895663E0,2.0464346E0,6.6407447E0,1.8180832E1,7.5156894E0],"split_indices":[11,31,11,41,0,0,0,21,0,51,0,0,0],"split_type":[0,0,0,0,0,0,0,0,0,0,0,0,0],"sum_hessian":[5.1E1,4.4E1,7E0,4.3E1,1E0,6E0,1E0,4E1,3E0,3.8E1,2E0,3.6E1,2E0],"tree_param":{"num_deleted":"0","num_feature":"70","num_nodes":"13","size_leaf_vector":"0"}},{"base_weights":[3.7692226E1,3.8874527E1,5.423139E0,4.1253304E1,2.6690386E1,1.8601239E-1,7.948696E0,4.282185E1,2.170913E1,4.377825E1,1.770865E1,4.432834E1,1.2812698E1],"categories":[],"categories_nodes":[],"categories_segments":[],"categories_sizes":[],"default_left":[true,true,true,true,false,false,false,true,false,true,false,false,false],"id":2,"left_children":[1,3,5,7,-1,-1,-1,9,-1,11,-1,-1,-1],"loss_changes":[1.7730703E3,3.4810156E2,3.820143E1,2.9660938E2,0E0,0E0,0E0,8.940625E1,0E0,1.1183594E1,0E0,0E0,0E0],"parents":[2147483647,0,0,1,1,2,2,3,3,7,7,9,9],"right_children":[2,4,6,8,-1,-1,-1,10,-1,12,-1,-1,-1],"split_conditions":[7.2772536E0,8.6271167E-1,2.325475E2,2.1787467E0,8.007116E0,5.580372E-2,2.384609E0,3.1126163E0,6.512739E0,6.4843E1,5.3125954E0,1.3298502E1,3.8438096E0],"split_indices":[11,31,2,41,0,0,0,21,0,7,0,0,0],"split_type":[0,0,0,0,0,0,0,0,0,0,0,0,0],"sum_hessian":[5.1E1,4.9E1,2E0,3.9E1,1E1,1E0,1E0,3.5E1,4E0,3.3E1,2E0,3.2E1,1E0],"tree_param":{"num_deleted":"0","num_feature":"70","num_nodes":"13","size_leaf_vector":"0"}},{"base_weights":[2.7142544E1,2.7951666E1,4.6096683E0,2.9034887E1,1.5168889E1,1.5811053E-1,6.7563915E0,3.014838E1,1.6772451E1],"categories":[],"categories_nodes":[],"categories_segments":[],"categories_sizes":[],"default_left":[true,true,true,true,false,false,false,false,false],"id":3,"left_children":[1,3,5,7,-1,-1,-1,-1,-1],"loss_changes":[8.1920703E2,2.5190234E2,2.7600529E1,1.0877344E2,0E0,0E0,0E0,0E0,0E0],"parents":[2147483647,0,0,1,1,2,2,3,3],"right_children":[2,4,6,8,-1,-1,-1,-1,-1],"split_conditions":[7.2772536E0,2.1543646E0,2.325475E2,1.1589937E0,4.550667E0,4.743316E-2,2.0269175E0,9.044515E0,5.0317354E0],"split_indices":[11,31,2,21,0,0,0,0,0],"split_type":[0,0,0,0,0,0,0,0,0],"sum_hessian":[5.1E1,4.9E1,2E0,4.4E1,5E0,1E0,1E0,3.9E1,5E0],"tree_param":{"num_deleted":"0","num_feature":"70","num_nodes":"9","size_leaf_vector":"0"}},{"base_weights":[1.939788E1,2.0713572E1,9.572386E0,2.2931845E1,1.5259709E1,1.0901471E1,1.3439396E-1,2.3399988E1,4.6778393E0,1.6222235E1,5.681352E0],"categories":[],"categories_nodes":[],"categories_segments":[],"categories_sizes":[],"default_left":[true,true,true,true,true,false,false,false,false,false,false],"id":4,"left_children":[1,3,5,7,9,-1,-1,-1,-1,-1,-1],"loss_changes":[4.7394336E2,1.9448242E2,9.888611E1,1.469043E2,5.5346436E1,0E0,0E0,0E0,0E0,0E0,0E0],"parents":[2147483647,0,0,1,1,2,2,3,3,4,4],"right_children":[2,4,6,8,10,-1,-1,-1,-1,-1,-1],"split_conditions":[9.70056E-1,1.4474803E-1,1.49327545E1,6.056006E0,2.0464346E0,3.2704415E0,4.031819E-2,7.0199966E0,1.4033518E0,4.8666706E0,1.7044057E0],"split_indices":[11,41,11,31,51,0,0,0,0,0,0],"split_type":[0,0,0,0,0,0,0,0,0,0,0],"sum_hessian":[5.1E1,4.4E1,7E0,2.9E1,1.5E1,6E0,1E0,2.8E1,1E0,1.3E1,2E0],"tree_param":{"num_deleted":"0","num_feature":"70","num_nodes":"11","size_leaf_vector":"0"}},{"base_weights":[1.3930539E1,1.4683714E1,5.7089095E0,1.6218998E1,9.420743E0,1.14234865E-1,6.8049974E0,1.6893974E1,6.764428E0],"categories":[],"categories_nodes":[],"categories_segments":[],"categories_sizes":[],"default_left":[true,true,true,true,false,false,false,false,false],"id":5,"left_children":[1,3,5,7,-1,-1,-1,-1,-1],"loss_changes":[2.3817383E2,2.2697168E2,3.6016144E1,1.090791E2,0E0,0E0,0E0,0E0,0E0],"parents":[2147483647,0,0,1,1,2,2,3,3],"right_children":[2,4,6,8,-1,-1,-1,-1,-1],"split_conditions":[2.1787467E0,3.1692782E-1,5E-1,1.9089543E0,2.826223E0,3.427046E-2,2.0414994E0,5.0681925E0,2.0293286E0],"split_indices":[41,51,0,61,0,0,0,0,0],"split_type":[0,0,0,0,0,0,0,0,0],"sum_hessian":[5.1E1,4.6E1,5E0,3.4E1,1.2E1,1E0,4E0,3.1E1,3E0],"tree_param":{"num_deleted":"0","num_feature":"70","num_nodes":"9","size_leaf_vector":"0"}},{"base_weights":[9.982138E0,1.132999E1,6.5406775E0,1.1974123E1,4.941542E0,7.1661096E0,1.2332906E0,1.2371371E1,4.01026E0,7.430214E0,1.7343235E0,9.709963E-2,1.7528362E0,1.2619268E1,2.5911903E0],"categories":[],"categories_nodes":[],"categories_segments":[],"categories_sizes":[],"default_left":[true,true,true,true,false,true,true,true,false,false,false,false,false,false,false],"id":6,"left_children":[1,3,5,7,-1,9,11,13,-1,-1,-1,-1,-1,-1,-1],"loss_changes":[1.671001E2,8.896973E1,4.759204E1,5.1623535E1,0E0,8.632019E0,1.6007094E0,4.0035645E1,0E0,0E0,0E0,0E0,0E0,0E0,0E0],"parents":[2147483647,0,0,1,1,2,2,3,3,5,5,6,6,7,7],"right_children":[2,4,6,8,-1,10,12,14,-1,-1,-1,-1,-1,-1,-1],"split_conditions":[3.563553E-1,1.0655007E0,9.8699E1,2.0548813E0,1.4824626E0,2.0045693E0,6E0,5.549801E0,1.203078E0,2.2290642E0,5.2029705E-1,2.912989E-2,5.258509E-1,3.7857807E0,7.7735716E-1],"split_indices":[61,51,69,41,0,51,0,31,0,0,0,0,0,0,0],"split_type":[0,0,0,0,0,0,0,0,0,0,0,0,0,0,0],"sum_hessian":[5.1E1,3.5E1,1.6E1,3.1E1,4E0,1.4E1,2E0,2.9E1,2E0,1.3E1,1E0,1E0,1E0,2.8E1,1E0],"tree_param":{"num_deleted":"0","num_feature":"70","num_nodes":"15","size_leaf_vector":"0"}},{"base_weights":[7.1904383E0,8.132344E0,4.7728467E0,8.578354E0,3.6514144E0,5.2141194E0,9.7553504E-1,9.348039E0,5.100793E0,5.5602784E0,1.9760565E0,8.25347E-2,1.3807678E0],"categories":[],"categories_nodes":[],"categories_segments":[],"categories_sizes":[],"default_left":[true,true,true,true,false,true,true,false,false,false,false,false,false],"id":7,"left_children":[1,3,5,7,-1,9,11,-1,-1,-1,-1,-1,-1],"loss_changes":[7.959717E1,4.0624268E1,2.3399475E1,3.7969727E1,0E0,5.825836E0,9.7165775E-1,0E0,0E0,0E0,0E0,0E0,0E0],"parents":[2147483647,0,0,1,1,2,2,3,3,5,5,6,6],"right_children":[2,4,6,8,-1,10,12,-1,-1,-1,-1,-1,-1],"split_conditions":[3.563553E-1,1.1722538E0,3.4620538E0,1.9648717E-1,1.0954244E0,2.0045693E0,3.5E0,2.8044116E0,1.5302379E0,1.6680835E0,5.9281695E-1,2.4760412E-2,4.1423038E-1],"split_indices":[61,41,61,51,0,51,0,0,0,0,0,0,0],"split_type":[0,0,0,0,0,0,0,0,0,0,0,0,0],"sum_hessian":[5.1E1,3.5E1,1.6E1,3.1E1,4E0,1.4E1,2E0,2.4E1,7E0,1.2E1,2E0,1E0,1E0],"tree_param":{"num_deleted":"0","num_feature":"70","num_nodes":"13","size_leaf_vector":"0"}},{"base_weights":[5.189652E0,5.626329E0,2.7929742E0,6.0988555E0,2.79667E0,7.015449E-2,3.087715E0,6.2103047E0,1.0990658E0,1.8281444E0,3.7297425E0,6.3084083E0,1.4373913E0,6.5307713E0,3.0079918E0],"categories":[],"categories_nodes":[],"categories_segments":[],"categories_sizes":[],"default_left":[true,true,true,true,false,false,true,true,false,false,false,true,false,false,false],"id":8,"left_children":[1,3,5,7,-1,-1,9,11,-1,-1,-1,13,-1,-1,-1],"loss_changes":[3.8707764E1,4.0438232E1,7.8086395E0,1.3234497E1,0E0,0E0,4.5960236E-1,7.320801E0,0E0,0E0,0E0,5.3077393E0,0E0,0E0,0E0],"parents":[2147483647,0,0,1,1,2,2,3,3,6,6,7,7,11,11],"right_children":[2,4,6,8,-1,-1,10,12,-1,-1,-1,14,-1,-1,-1],"split_conditions":[1.0188758E0,8.45063E-1,2.5E0,8.734482E0,8.39001E-1,2.1046348E-2,4.2254834E3,5.549801E0,3.2971975E-1,5.484434E-1,1.1189228E0,8.9525574E-1,4.312174E-1,1.9592315E0,9.023976E-1],"split_indices":[61,51,0,41,0,0,42,31,0,0,0,21,0,0,0],"split_type":[0,0,0,0,0,0,0,0,0,0,0,0,0,0,0],"sum_hessian":[5.1E1,4.2E1,9E0,3.5E1,7E0,1E0,8E0,3.4E1,1E0,4E0,4E0,3.3E1,1E0,3E1,3E0],"tree_param":{"num_deleted":"0","num_feature":"70","num_nodes":"15","size_leaf_vector":"0"}},{"base_weights":[3.7510266E0,4.2700353E0,2.4313016E0,4.4995484E0,1.9471436E0,2.8846586E0,1.1193708E0,4.5844235E0,9.34206E-1,5.9631318E-2,1.3193924E0,4.9036136E0,2.789542E0],"categories":[],"categories_nodes":[],"categories_segments":[],"categories_sizes":[],"default_left":[true,true,true,true,false,false,true,true,false,false,false,false,false],"id":9,"left_children":[1,3,5,7,-1,-1,9,11,-1,-1,-1,-1,-1],"loss_changes":[2.5235535E1,1.043158E1,6.8821335E0,5.400696E0,0E0,0E0,1.1931477E0,4.08136E0,0E0,0E0,0E0,0E0,0E0],"parents":[2147483647,0,0,1,1,2,2,3,3,6,6,7,7],"right_children":[2,4,6,8,-1,-1,10,12,-1,-1,-1,-1,-1],"split_conditions":[3.563553E-1,1.0655007E0,9.855E-1,5.950877E0,5.841431E-1,8.6539763E-1,2.5E0,2.8128105E-1,2.802618E-1,1.7889395E-2,3.9581776E-1,1.4710841E0,8.368626E-1],"split_indices":[61,51,68,41,0,0,0,31,0,0,0,0,0],"split_type":[0,0,0,0,0,0,0,0,0,0,0,0,0],"sum_hessian":[5.1E1,3.5E1,1.6E1,3.1E1,4E0,1.1E1,5E0,3E1,1E0,1E0,4E0,2.4E1,6E0],"tree_param":{"num_deleted":"0","num_feature":"70","num_nodes":"13","size_leaf_vector":"0"}},{"base_weights":[2.7113237E0,3.0368538E0,1.6108241E0,3.2292962E0,1.4402043E0,1.7923727E0,3.4768853E-1,3.3560886E0,8.004125E-1,2.0487952E0,1.0236222E0,5.0686628E-2,4.7084618E-1,3.6071203E0,1.9442444E0],"categories":[],"categories_nodes":[],"categories_segments":[],"categories_sizes":[],"default_left":[true,true,true,true,false,true,true,true,false,false,false,false,false,false,false],"id":10,"left_children":[1,3,5,7,-1,9,11,13,-1,-1,-1,-1,-1,-1,-1],"loss_changes":[1.3736938E1,7.332428E0,2.5872993E0,7.7845154E0,0E0,2.6830673E-1,8.586857E-2,4.3282166E0,0E0,0E0,0E0,0E0,0E0,0E0,0E0],"parents":[2147483647,0,0,1,1,2,2,3,3,5,5,6,6,7,7],"right_children":[2,4,6,8,-1,10,12,14,-1,-1,-1,-1,-1,-1,-1],"split_conditions":[6.738575E-1,2.4134724E0,1.216181E0,3.1126163E0,4.3206128E-1,2.7915025E-1,3E0,2.7910247E-1,2.4012375E-1,6.1463857E-1,3.0708665E-1,1.5205989E-2,1.4125386E-1,1.0821362E0,5.8327335E-1],"split_indices":[41,31,61,21,0,51,0,11,0,0,0,0,0,0,0],"split_type":[0,0,0,0,0,0,0,0,0,0,0,0,0,0,0],"sum_hessian":[5.1E1,3.8E1,1.3E1,3.3E1,5E0,1.1E1,2E0,3.1E1,2E0,7E0,4E0,1E0,1E0,2.5E1,6E0],"tree_param":{"num_deleted":"0","num_feature":"70","num_nodes":"15","size_leaf_vector":"0"}},{"base_weights":[1.9636136E0,2.2748516E0,1.3033136E0,7.964767E-1,2.4454188E0,1.4488852E0,3.9519906E-1,2.5499394E0,6.5475464E-1,1.5719159E0,6.868143E-1,4.3083638E-2,4.9820963E-1,2.6751869E0,1.1296577E0,1.6362057E0,4.0021896E-1],"categories":[],"categories_nodes":[],"categories_segments":[],"categories_sizes":[],"default_left":[true,true,true,false,true,true,true,true,false,true,false,false,false,false,false,false,false],"id":11,"left_children":[1,3,5,-1,7,9,11,13,-1,15,-1,-1,-1,-1,-1,-1,-1],"loss_changes":[7.72171E0,6.6257935E0,1.9391212E0,0E0,3.9452667E0,4.2051315E-1,1.2362176E-1,1.9587708E0,0E0,3.2442474E-1,0E0,0E0,0E0,0E0,0E0,0E0,0E0],"parents":[2147483647,0,0,1,1,2,2,4,4,5,5,6,6,7,7,9,9],"right_children":[2,4,6,-1,8,10,12,14,-1,16,-1,-1,-1,-1,-1,-1,-1],"split_conditions":[9.334685E-2,1.70968E5,9.865E-1,2.3894303E-1,4.2076974E0,1.1542975E0,4.5E0,6.6738164E-1,1.964264E-1,1.7162151E0,2.060443E-1,1.2925092E-2,1.494629E-1,8.025561E-1,3.3889735E-1,4.908617E-1,1.200657E-1],"split_indices":[61,3,68,0,41,1,0,21,0,31,0,0,0,0,0,0,0],"split_type":[0,0,0,0,0,0,0,0,0,0,0,0,0,0,0,0,0],"sum_hessian":[5.1E1,3.3E1,1.8E1,4E0,2.9E1,1.5E1,3E0,2.7E1,2E0,1.2E1,3E0,1E0,2E0,2.4E1,3E0,1.1E1,1E0],"tree_param":{"num_deleted":"0","num_feature":"70","num_nodes":"17","size_leaf_vector":"0"}},{"base_weights":[1.4236859E0,1.6387713E0,9.638654E-1,1.7588043E0,5.908192E-1,5.920418E-1,1.2393024E0,1.9354918E0,1.0309772E0,1.4117718E-1,6.679354E-1,3.6621094E-2,6.4968616E-1,1.3692727E0,4.7961426E-1,4.6784973E-1,1.9809369E0,4.9185753E-1,1.2560775E0,3.4018517E-1,1.4676874E0,2.0263233E0,5.139122E-1],"categories":[],"categories_nodes":[],"categories_segments":[],"categories_sizes":[],"default_left":[true,true,true,true,true,true,true,true,true,false,false,false,false,true,false,false,true,false,false,false,false,false,false],"id":12,"left_children":[1,3,5,7,9,11,13,15,17,-1,-1,-1,-1,19,-1,-1,21,-1,-1,-1,-1,-1,-1],"loss_changes":[3.5632858E0,3.2376862E0,1.2121468E0,1.8624878E0,7.907629E-2,2.963767E-1,3.3064556E-1,6.07254E-1,3.5303688E-1,0E0,0E0,0E0,0E0,3.109331E-1,0E0,0E0,4.2346954E-1,0E0,0E0,0E0,0E0,0E0,0E0],"parents":[2147483647,0,0,1,1,2,2,3,3,4,4,5,5,6,6,7,7,8,8,13,13,16,16],"right_children":[2,4,6,8,10,12,14,16,18,-1,-1,-1,-1,20,-1,-1,22,-1,-1,-1,-1,-1,-1],"split_conditions":[9.334685E-2,8.998941E-1,9.76195E1,4.2358213E3,5E-1,3.5E0,9.895E-1,2.32562E2,8.5E0,4.2353153E-2,2.0038062E-1,1.0986328E-2,1.9490586E-1,9.7505E1,1.4388429E-1,1.4035493E-1,5.711E1,1.4755726E-1,3.7682328E-1,1.0205556E-1,4.4030622E-1,6.0789704E-1,1.5417367E-1],"split_indices":[61,51,19,62,0,0,8,2,60,0,0,0,0,9,0,0,7,0,0,0,0,0,0],"split_type":[0,0,0,0,0,0,0,0,0,0,0,0,0,0,0,0,0,0,0,0,0,0,0],"sum_hessian":[5.1E1,3.3E1,1.8E1,2.9E1,4E0,9E0,9E0,2.2E1,7E0,1E0,3E0,1E0,8E0,7E0,2E0,1E0,2.1E1,3E0,4E0,1E0,6E0,2E1,1E0],"tree_param":{"num_deleted":"0","num_feature":"70","num_nodes":"23","size_leaf_vector":"0"}},{"base_weights":[1.0458436E0,7.873202E-1,1.256057E0,9.391678E-1,5.319007E-1,1.3747057E0,2.3015118E-1,3.5707983E-1,1.001252E0,5.525135E-1,1.5258026E-1,1.459438E0,2.9509988E-1,3.112793E-2,2.8611627E-1,1.119622E0,4.5501423E-1,1.5001682E0,3.0205154E-1,5.340741E-1,1.5737531E0],"categories":[],"categories_nodes":[],"categories_segments":[],"categories_sizes":[],"default_left":[true,true,true,true,true,true,true,false,true,false,false,true,false,false,false,false,false,true,false,false,false],"id":13,"left_children":[1,3,5,7,9,11,13,-1,15,-1,-1,17,-1,-1,-1,-1,-1,19,-1,-1,-1],"loss_changes":[1.8370285E0,5.0886154E-1,2.9701157E0,1.8455029E-1,9.523392E-3,1.764782E0,3.564723E-2,0E0,3.311119E-1,0E0,0E0,5.839615E-1,0E0,0E0,0E0,0E0,0E0,6.523895E-1,0E0,0E0,0E0],"parents":[2147483647,0,0,1,1,2,2,3,3,4,4,5,5,6,6,8,8,11,11,17,17],"right_children":[2,4,6,8,10,12,14,-1,16,-1,-1,18,-1,-1,-1,-1,-1,20,-1,-1,-1],"split_conditions":[9.80305E1,2.020899E6,4.777357E0,3.886E1,6.056006E0,3.1126163E0,2.325475E2,1.07123956E-1,9.1144174E-1,1.6575405E-1,4.577408E-2,1.1E1,8.852997E-2,9.338379E-3,8.583488E-2,3.358866E-1,1.3650428E-1,2.326335E2,9.0615466E-2,1.6022225E-1,4.7212595E-1],"split_indices":[59,3,11,27,31,21,2,0,61,0,0,0,0,0,0,0,0,2,0,0,0],"split_type":[0,0,0,0,0,0,0,0,0,0,0,0,0,0,0,0,0,0,0,0,0],"sum_hessian":[5.1E1,2.5E1,2.6E1,1.4E1,1.1E1,2.3E1,3E0,2E0,1.2E1,1E1,1E0,2.1E1,2E0,1E0,2E0,9E0,3E0,2E1,1E0,2E0,1.8E1],"tree_param":{"num_deleted":"0","num_feature":"70","num_nodes":"21","size_leaf_vector":"0"}},{"base_weights":[7.6474005E-1,5.717693E-1,9.222401E-1,4.5054936E-1,9.0074414E-1,1.0269622E0,3.8455263E-1,4.96965E-1,1.2904167E-1,6.453541E-1,1.2415097E0,7.708359E-2,4.3062973E-1,2.645874E-2,1.544164E-1,6.890407E-1,1.2608719E-1],"categories":[],"categories_nodes":[],"categories_segments":[],"categories_sizes":[],"default_left":[true,true,true,true,false,true,true,false,true,true,false,false,false,false,false,false,false],"id":14,"left_children":[1,3,5,7,-1,9,11,-1,13,15,-1,-1,-1,-1,-1,-1,-1],"loss_changes":[1.0531235E0,6.310053E-1,1.1253891E0,2.4925375E-1,0E0,9.999943E-1,5.1809132E-2,0E0,6.3263923E-3,1.3997126E-1,0E0,0E0,0E0,0E0,0E0,0E0,0E0],"parents":[2147483647,0,0,1,1,2,2,3,3,5,5,6,6,8,8,9,9],"right_children":[2,4,6,8,-1,10,12,-1,14,16,-1,-1,-1,-1,-1,-1,-1],"split_conditions":[9.8179504E1,9.8675E1,4.66525E1,1.6438199E0,2.7022326E-1,9.80305E1,2.328985E2,1.490895E-1,3.5E0,8.5E0,3.724529E-1,2.3125077E-2,1.2918893E-1,7.937622E-3,4.632492E-2,2.0671223E-1,3.7826158E-2],"split_indices":[19,49,17,61,0,59,2,0,0,0,0,0,0,0,0,0,0],"split_type":[0,0,0,0,0,0,0,0,0,0,0,0,0,0,0,0,0],"sum_hessian":[5.1E1,2.5E1,2.6E1,2E1,5E0,2.1E1,5E0,1.7E1,3E0,9E0,1.2E1,1E0,4E0,1E0,2E0,8E0,1E0],"tree_param":{"num_deleted":"0","num_feature":"70","num_nodes":"17","size_leaf_vector":"0"}},{"base_weights":[5.592207E-1,6.0824144E-1,2.5742805E-1,4.5205486E-1,7.5777656E-1,6.552124E-2,2.7322626E-1,3.2523075E-1,7.1359473E-1,8.4611845E-1,3.058586E-1,3.6257172E-1,1.0389443E-1,7.6217526E-1,2.1105576E-1,8.755517E-1,1.8759346E-1,4.4653484E-1,2.569813E-1,2.2489935E-2,1.23532616E-1],"categories":[],"categories_nodes":[],"categories_segments":[],"categories_sizes":[],"default_left":[true,true,true,true,true,false,false,true,true,true,false,true,true,false,false,false,false,false,false,false,false],"id":15,"left_children":[1,3,5,7,9,-1,-1,11,13,15,-1,17,19,-1,-1,-1,-1,-1,-1,-1,-1],"loss_changes":[6.1271477E-1,6.850796E-1,9.383917E-3,5.639863E-1,5.795965E-1,0E0,0E0,1.1109924E-1,1.0033846E-2,1.6525555E-1,0E0,1.8234253E-2,3.616307E-3,0E0,0E0,0E0,0E0,0E0,0E0,0E0,0E0],"parents":[2147483647,0,0,1,1,2,2,3,3,4,4,7,7,8,8,9,9,11,11,12,12],"right_children":[2,4,6,8,10,-1,-1,12,14,16,-1,18,20,-1,-1,-1,-1,-1,-1,-1,-1],"split_conditions":[8.45063E-1,9.84065E1,5E-1,9.85505E1,9.9606E1,1.9656373E-2,8.196788E-2,1.5704912E0,7.955463E3,5.9845497E1,9.175759E-2,4.35425E1,3.5E0,2.2865258E-1,6.331673E-2,2.626655E-1,5.627804E-2,1.3396046E-1,7.70944E-2,6.746981E-3,3.7059788E-2],"split_indices":[51,19,0,49,9,0,0,61,2,17,0,47,0,0,0,0,0,0,0,0,0],"split_type":[0,0,0,0,0,0,0,0,0,0,0,0,0,0,0,0,0,0,0,0,0],"sum_hessian":[5.1E1,4.3E1,8E0,2.3E1,2E1,1E0,7E0,1.7E1,6E0,1.6E1,4E0,1.4E1,3E0,5E0,1E0,1.5E1,1E0,6E0,8E0,1E0,2E0],"tree_param":{"num_deleted":"0","num_feature":"70","num_nodes":"21","size_leaf_vector":"0"}},{"base_weights":[4.1182315E-1,3.34595E-1,5.511403E-1,2.3688968E-1,4.555898E-1,6.114382E-1,2.0231247E-1,5.2902877E-2,2.526432E-1,5.2421474E-1,1.3581753E-1,6.7906326E-1,2.726097E-1,2.676699E-1,7.8268684E-2,5.5362356E-1,1.0035896E-1,2.7534148E-1,6.8626404E-2,7.199478E-2,2.8355098E-1],"categories":[],"categories_nodes":[],"categories_segments":[],"categories_sizes":[],"default_left":[true,true,true,true,true,true,false,false,true,true,false,false,false,true,false,false,false,true,false,false,false],"id":16,"left_children":[1,3,5,7,9,11,-1,-1,13,15,-1,-1,-1,17,-1,-1,-1,19,-1,-1,-1],"loss_changes":[3.7507057E-1,3.176613E-1,2.3386955E-1,5.0400138E-2,2.579677E-1,1.3566685E-1,0E0,0E0,3.145528E-2,9.401989E-2,0E0,0E0,0E0,8.589983E-3,0E0,0E0,0E0,7.965207E-3,0E0,0E0,0E0],"parents":[2147483647,0,0,1,1,2,2,3,3,4,4,5,5,8,8,9,9,13,13,17,17],"right_children":[2,4,6,8,10,12,-1,-1,14,16,-1,-1,-1,18,-1,-1,-1,20,-1,-1,-1],"split_conditions":[9.85585E1,9.84065E1,9.9598E1,2.5E0,1.152036E0,9.93005E1,6.0693745E-2,1.5870864E-2,4.4802002E1,6.0466E1,4.074526E-2,2.0371899E-1,8.1782915E-2,9.82555E1,2.3480607E-2,1.6608708E-1,3.010769E-2,2.32562E2,2.0587921E-2,2.1598436E-2,8.50653E-2],"split_indices":[49,19,9,30,51,29,0,0,57,7,0,0,0,19,0,0,0,22,0,0,0],"split_type":[0,0,0,0,0,0,0,0,0,0,0,0,0,0,0,0,0,0,0,0,0],"sum_hessian":[5.1E1,3.5E1,1.6E1,2.1E1,1.4E1,1.3E1,3E0,2E0,1.9E1,1.1E1,3E0,1E1,3E0,1.7E1,2E0,1E1,1E0,1.6E1,1E0,1E0,1.5E1],"tree_param":{"num_deleted":"0","num_feature":"70","num_nodes":"21","size_leaf_vector":"0"}},{"base_weights":[3.0269426E-1,2.1532117E-1,3.8178575E-1,1.7341667E-1,3.330841E-1,4.3147695E-1,1.4423561E-1,1.861082E-1,3.1000853E-2,4.9951908E-1,2.240328E-1,1.06399536E-1,2.126691E-1,5.277271E-1,5.2303314E-2,6.1195374E-2,2.4097316E-1,2.2284023E-1,4.0222168E-2,1.17362976E-1,5.5026567E-1],"categories":[],"categories_nodes":[],"categories_segments":[],"categories_sizes":[],"default_left":[true,true,true,true,false,true,false,true,false,true,true,false,true,true,false,false,false,false,false,false,false],"id":17,"left_children":[1,3,5,7,-1,9,-1,11,-1,13,15,-1,17,19,-1,-1,-1,-1,-1,-1,-1],"loss_changes":[2.7713776E-1,7.547712E-2,2.4467349E-1,3.3994913E-2,0E0,1.8450522E-1,0E0,1.9714773E-2,0E0,1.616242E-1,4.5632124E-3,0E0,1.5592635E-2,6.490517E-2,0E0,0E0,0E0,0E0,0E0,0E0,0E0],"parents":[2147483647,0,0,1,1,2,2,3,3,5,5,7,7,9,9,10,10,12,12,13,13],"right_children":[2,4,6,8,-1,10,-1,12,-1,14,16,-1,18,20,-1,-1,-1,-1,-1,-1,-1],"split_conditions":[9.85495E1,9.85585E1,9.995844E-1,5.1276054E0,9.9925235E-2,4.7093002E1,4.3270685E-2,9.6252E1,9.300256E-3,2.401339E0,2.32974E2,3.1919863E-2,1.655454E4,9.6650004E-1,1.5690995E-2,1.8358612E-2,7.229195E-2,6.685207E-2,1.2066651E-2,3.5208896E-2,1.6507971E-1],"split_indices":[9,49,41,11,0,17,0,59,0,1,2,0,12,28,0,0,0,0,0,0,0],"split_type":[0,0,0,0,0,0,0,0,0,0,0,0,0,0,0,0,0,0,0,0,0],"sum_hessian":[5.1E1,2.6E1,2.5E1,2.1E1,5E0,2E1,5E0,1.9E1,2E0,1.4E1,6E0,6E0,1.3E1,1.3E1,1E0,1E0,5E0,1.2E1,1E0,1E0,1.2E1],"tree_param":{"num_deleted":"0","num_feature":"70","num_nodes":"21","size_leaf_vector":"0"}},{"base_weights":[2.2284824E-1,1.5887693E-1,2.807089E-1,2.2413063E-1,1.13798365E-1,3.1663713E-1,1.0817528E-1,2.5495052E-1,6.723404E-2,1.2351823E-1,2.4026314E-2,3.7374797E-1,1.7711353E-1,1.2766342E-1,3.0670166E-2,6.530881E-3,2.950859E-2,3.9565805E-1,4.445839E-2,5.2017212E-2,1.875534E-1,1.3139097E-1,3.77388E-2,4.3718797E-1,1.9291878E-1,4.612037E-1,1.10523224E-1],"categories":[],"categories_nodes":[],"categories_segments":[],"categories_sizes":[],"default_left":[true,true,true,true,true,true,false,false,false,true,true,true,true,true,false,false,false,true,false,false,false,false,false,true,false,false,false],"id":18,"left_children":[1,3,5,7,9,11,-1,-1,-1,13,15,17,19,21,-1,-1,-1,23,-1,-1,-1,-1,-1,25,-1,-1,-1],"loss_changes":[1.4787579E-1,5.3915977E-2,1.2691736E-1,3.1213999E-2,1.2738615E-2,1.0113859E-1,0E0,0E0,0E0,2.2425056E-3,9.502738E-5,8.341622E-2,6.919205E-4,6.945431E-5,0E0,0E0,0E0,2.5115013E-2,0E0,0E0,0E0,0E0,0E0,2.7477145E-2,0E0,0E0,0E0],"parents":[2147483647,0,0,1,1,2,2,3,3,4,4,5,5,9,9,10,10,11,11,12,12,13,13,17,17,23,23],"right_children":[2,4,6,8,10,12,-1,-1,-1,14,16,18,20,22,-1,-1,-1,24,-1,-1,-1,-1,-1,26,-1,-1,-1],"split_conditions":[9.85495E1,4.3571E1,9.995844E-1,1.05E1,1.6438199E0,4.59255E1,3.2452583E-2,7.648516E-2,2.0170212E-2,5.1276054E0,4.5E0,2.401339E0,2.32974E2,9.865E-1,9.20105E-3,1.9592643E-3,8.852578E-3,9.8868E1,1.3337517E-2,1.5605164E-2,5.6266025E-2,3.9417293E-2,1.1321641E-2,9.5E0,5.7875637E-2,1.3836111E-1,3.315697E-2],"split_indices":[9,27,41,0,61,17,0,0,0,11,0,1,2,8,0,0,0,69,0,0,0,0,0,0,0,0,0],"split_type":[0,0,0,0,0,0,0,0,0,0,0,0,0,0,0,0,0,0,0,0,0,0,0,0,0,0,0],"sum_hessian":[5.1E1,2.6E1,2.5E1,9E0,1.7E1,2E1,5E0,7E0,2E0,1.5E1,2E0,1.3E1,7E0,1.4E1,1E0,1E0,1E0,1.2E1,1E0,1E0,6E0,1.3E1,1E0,9E0,3E0,8E0,1E0],"tree_param":{"num_deleted":"0","num_feature":"70","num_nodes":"27","size_leaf_vector":"0"}},{"base_weights":[1.6588663E-1,1.97163E-1,9.5855504E-2,1.3792065E-1,2.6695812E-1,6.0829163E-2,1.12615064E-1,6.604738E-2,1.6226679E-1,3.2432786E-1,1.2684886E-1,5.5512786E-3,7.520485E-2,1.7348598E-1,5.9561413E-2,3.479004E-1,5.6087494E-2,1.4179078E-1,2.6069641E-2,3.678894E-2,1.8181165E-1,3.679018E-1,9.394455E-2,4.4216156E-2,1.9030069E-1],"categories":[],"categories_nodes":[],"categories_segments":[],"categories_sizes":[],"default_left":[true,true,true,true,true,false,false,true,true,true,true,false,false,true,false,true,false,false,false,false,true,false,false,false,false],"id":19,"left_children":[1,3,5,7,9,-1,-1,11,13,15,17,-1,-1,19,-1,21,-1,-1,-1,-1,23,-1,-1,-1,-1],"loss_changes":[9.4997406E-2,1.07899904E-1,3.7162006E-3,2.6029289E-2,7.9429746E-2,0E0,0E0,3.4604575E-3,6.9509745E-3,4.371822E-2,5.338572E-3,0E0,0E0,8.106589E-3,0E0,1.1152983E-2,0E0,0E0,0E0,0E0,5.6022406E-3,0E0,0E0,0E0,0E0],"parents":[2147483647,0,0,1,1,2,2,3,3,4,4,7,7,8,8,9,9,10,10,13,13,15,15,20,20],"right_children":[2,4,6,8,10,-1,-1,12,14,16,18,-1,-1,20,-1,22,-1,-1,-1,-1,24,-1,-1,-1,-1],"split_conditions":[1.1507405E-2,9.83545E1,9.78445E1,4.2327E1,3.0511436E-1,1.824875E-2,3.378452E-2,2.32888E2,3.4717366E-1,2.1783009E-1,7.2772536E0,1.6653837E-3,2.2561455E-2,2.36343E2,1.7868424E-2,8.5E0,1.682625E-2,4.2537235E-2,7.820893E-3,1.1036683E-2,2.327655E2,1.1037055E-1,2.8183365E-2,1.3264847E-2,5.7090208E-2],"split_indices":[21,39,9,57,11,0,0,2,41,1,11,0,0,12,0,0,0,0,0,0,2,0,0,0,0],"split_type":[0,0,0,0,0,0,0,0,0,0,0,0,0,0,0,0,0,0,0,0,0,0,0,0,0],"sum_hessian":[5.1E1,3.4E1,1.7E1,2E1,1.4E1,7E0,1E1,6E0,1.4E1,9E0,5E0,1E0,5E0,1.2E1,2E0,8E0,1E0,4E0,1E0,1E0,1.1E1,7E0,1E0,1E0,1E1],"tree_param":{"num_deleted":"0","num_feature":"70","num_nodes":"25","size_leaf_vector":"0"}},{"base_weights":[1.2345328E-1,1.4526232E-1,6.530404E-2,1.02864124E-1,2.0058873E-1,7.01204E-2,2.1059671E-2,1.1838743E-1,3.915018E-2,2.4257049E-1,9.7187676E-2,7.320961E-2,1.4980316E-2,7.478714E-2,1.3933425E-1,1.2346785E-2,4.946518E-2,2.589281E-1,4.7676086E-2,1.0776138E-1,2.2159576E-2,2.0898819E-2,7.582728E-2,3.1269073E-2,1.4701386E-1,3.7582397E-2,1.5499708E-1],"categories":[],"categories_nodes":[],"categories_segments":[],"categories_sizes":[],"default_left":[true,true,true,true,true,true,false,true,true,true,true,true,false,false,true,false,false,false,false,false,false,false,false,false,true,false,false],"id":20,"left_children":[1,3,5,7,9,11,-1,13,15,17,19,21,-1,-1,23,-1,-1,-1,-1,-1,-1,-1,-1,-1,25,-1,-1],"loss_changes":[5.645913E-2,6.615901E-2,1.9328371E-3,1.8113315E-2,4.153955E-2,1.2880564E-3,0E0,6.018758E-3,1.0481263E-3,1.9535363E-2,2.372004E-3,1.9541383E-4,0E0,0E0,4.53189E-3,0E0,0E0,0E0,0E0,0E0,0E0,0E0,0E0,0E0,2.9110014E-3,0E0,0E0],"parents":[2147483647,0,0,1,1,2,2,3,3,4,4,5,5,7,7,8,8,9,9,10,10,11,11,14,14,24,24],"right_children":[2,4,6,8,10,12,-1,14,16,18,20,22,-1,-1,24,-1,-1,-1,-1,-1,-1,-1,-1,-1,26,-1,-1],"split_conditions":[1.6454828E-1,9.83545E1,1.8969989E0,1.2941451E-1,3.0511436E-1,1.6579135E4,6.317902E-3,4.3717003E1,9.855E-1,2.1783009E-1,7.2772536E0,4.0109E1,4.494095E-3,2.2436142E-2,9.655E-1,3.7040354E-3,1.4839554E-2,7.767843E-2,1.43028265E-2,3.2328416E-2,6.647873E-3,6.269646E-3,2.2748183E-2,9.380722E-3,2.32974E2,1.127472E-2,4.6499126E-2],"split_indices":[21,39,31,61,11,12,0,7,8,1,11,17,0,0,8,0,0,0,0,0,0,0,0,0,2,0,0],"split_type":[0,0,0,0,0,0,0,0,0,0,0,0,0,0,0,0,0,0,0,0,0,0,0,0,0,0,0],"sum_hessian":[5.1E1,3.6E1,1.5E1,2.2E1,1.4E1,1.3E1,2E0,1.7E1,5E0,9E0,5E0,1.2E1,1E0,7E0,1E1,2E0,3E0,8E0,1E0,4E0,1E0,1E0,1.1E1,1E0,9E0,1E0,8E0],"tree_param":{"num_deleted":"0","num_feature":"70","num_nodes":"27","size_leaf_vector":"0"}},{"base_weights":[9.178062E-2,1.0993613E-1,5.1379308E-2,7.66952E-2,1.4914437E-1,3.6855154E-2,8.177109E-2,8.3208784E-2,9.877403E-3,2.4770737E-1,1.0386133E-1,4.449681E-2,2.556181E-2,5.357628E-2,1.0452042E-1,2.8665662E-3,1.1949539E-2,1.1514282E-1,3.163592E-2,2.6576996E-2,1.1022779E-1,1.2120056E-1,4.788208E-2],"categories":[],"categories_nodes":[],"categories_segments":[],"categories_sizes":[],"default_left":[true,true,true,true,true,true,false,true,true,false,true,false,false,false,true,false,false,false,false,false,true,false,false],"id":21,"left_children":[1,3,5,7,9,11,-1,13,15,-1,17,-1,-1,-1,19,-1,-1,-1,-1,-1,21,-1,-1],"loss_changes":[3.249389E-2,3.4177482E-2,4.931785E-3,8.317806E-3,4.122126E-2,7.077865E-5,0E0,6.3990057E-3,9.328069E-6,0E0,6.1350763E-3,0E0,0E0,0E0,1.5190095E-3,0E0,0E0,0E0,0E0,0E0,3.5360456E-4,0E0,0E0],"parents":[2147483647,0,0,1,1,2,2,3,3,4,4,5,5,7,7,8,8,10,10,14,14,20,20],"right_children":[2,4,6,8,10,12,-1,14,16,-1,18,-1,-1,-1,20,-1,-1,-1,-1,-1,22,-1,-1],"split_conditions":[1.1507405E-2,9.83545E1,9.85585E1,1.440594E0,1.0493645E3,4.3752E1,2.4531329E-2,9.855E-1,4.5E0,7.431221E-2,4.777357E0,1.3349043E-2,7.668543E-3,1.6072884E-2,2.36343E2,8.599699E-4,3.584862E-3,3.4542847E-2,9.490777E-3,7.973099E-3,4.4557E1,3.636017E-2,1.4364624E-2],"split_indices":[21,39,59,61,32,47,0,68,0,0,11,0,0,0,12,0,0,0,0,0,37,0,0],"split_type":[0,0,0,0,0,0,0,0,0,0,0,0,0,0,0,0,0,0,0,0,0,0,0],"sum_hessian":[5.1E1,3.4E1,1.7E1,2E1,1.4E1,1.3E1,4E0,1.8E1,2E0,3E0,1.1E1,6E0,7E0,9E0,9E0,1E0,1E0,9E0,2E0,1E0,8E0,6E0,2E0],"tree_param":{"num_deleted":"0","num_feature":"70","num_nodes":"23","size_leaf_vector":"0"}},{"base_weights":[6.8921015E-2,8.141574E-2,3.5719395E-2,5.7740662E-2,1.1228981E-1,5.2603148E-2,2.570788E-2,6.50697E-2,1.8342186E-2,2.111562E-1,8.083681E-2,1.1389732E-2,2.9215071E-2,1.4570872E-2,7.015363E-2,2.4365783E-3,2.1709442E-2,8.863206E-2,2.5308609E-2,2.3895264E-2,7.472839E-2,4.0420532E-2,1.0165882E-1,8.513641E-2,4.492696E-2,1.0953849E-1,2.325058E-2,3.4024555E-2,9.366131E-2],"categories":[],"categories_nodes":[],"categories_segments":[],"categories_sizes":[],"default_left":[true,true,true,true,true,false,true,true,true,false,true,false,false,false,true,false,false,true,false,false,true,false,true,true,false,false,false,false,false],"id":22,"left_children":[1,3,5,7,9,-1,11,13,15,-1,17,-1,-1,-1,19,-1,-1,21,-1,-1,23,-1,25,27,-1,-1,-1,-1,-1],"loss_changes":[1.8663824E-2,2.0561323E-2,1.3521947E-3,5.44779E-3,2.9575497E-2,0E0,2.6984513E-4,3.8557202E-3,2.1489454E-4,0E0,3.3839867E-3,0E0,0E0,0E0,1.8118992E-3,0E0,0E0,2.7993321E-3,0E0,0E0,8.27685E-4,0E0,2.3958087E-3,1.170449E-3,0E0,0E0,0E0,0E0,0E0],"parents":[2147483647,0,0,1,1,2,2,3,3,4,4,6,6,7,7,8,8,10,10,14,14,17,17,20,20,22,22,23,23],"right_children":[2,4,6,8,10,-1,12,14,16,-1,18,-1,-1,-1,20,-1,-1,22,-1,-1,24,-1,26,28,-1,-1,-1,-1,-1],"split_conditions":[1.6454828E-1,9.83545E1,4.3119E1,3.2851875E0,2E0,1.5780944E-2,9.7018005E1,9.5519E1,5E-1,6.334686E-2,4.777357E0,3.4169198E-3,8.764522E-3,4.3712617E-3,3.94185E1,7.309735E-4,6.512833E-3,9.79025E1,7.592583E-3,7.1685794E-3,4.38285E1,1.212616E-2,9.9606E1,3.8836502E1,1.3478088E-2,3.286155E-2,6.9751744E-3,1.0207367E-2,2.8098393E-2],"split_indices":[21,39,47,41,30,0,59,59,0,0,11,0,0,0,37,0,0,49,0,0,47,0,9,27,0,0,0,0,0],"split_type":[0,0,0,0,0,0,0,0,0,0,0,0,0,0,0,0,0,0,0,0,0,0,0,0,0,0,0,0,0],"sum_hessian":[5.1E1,3.6E1,1.5E1,2.2E1,1.4E1,4E0,1.1E1,1.8E1,4E0,2E0,1.2E1,3E0,8E0,2E0,1.6E1,1E0,3E0,1E1,2E0,2E0,1.4E1,3E0,7E0,9E0,5E0,6E0,1E0,2E0,7E0],"tree_param":{"num_deleted":"0","num_feature":"70","num_nodes":"29","size_leaf_vector":"0"}},{"base_weights":[5.250284E-2,4.489997E-2,9.496416E-2,2.5572238E-2,6.1551545E-2,1.1560974E-1,2.8900146E-2,2.892346E-2,1.1256536E-2,4.7771998E-2,1.0435943E-1,3.7582397E-2,1.8238068E-2,1.04931295E-2,5.373338E-2,1.4129893E-1,3.2633465E-2,1.9189622E-2,4.837036E-3,2.0710826E-3,1.2610118E-2,5.5804968E-2,1.0293961E-2,2.8679848E-2,5.9858467E-2,6.535415E-2,3.1154633E-2],"categories":[],"categories_nodes":[],"categories_segments":[],"categories_sizes":[],"default_left":[true,true,true,true,true,false,false,true,false,true,true,false,true,true,true,false,false,false,false,false,false,true,false,false,true,false,false],"id":23,"left_children":[1,3,5,7,9,-1,-1,11,-1,13,15,-1,17,19,21,-1,-1,-1,-1,-1,-1,23,-1,-1,25,-1,-1],"loss_changes":[1.2523159E-2,1.3230503E-2,6.206371E-3,7.77849E-4,9.171501E-3,0E0,0E0,9.800037E-4,0E0,3.880836E-3,8.636534E-3,0E0,3.469712E-5,4.5200897E-5,9.553544E-4,0E0,0E0,0E0,0E0,0E0,0E0,4.249811E-5,0E0,0E0,1.4629215E-5,0E0,0E0],"parents":[2147483647,0,0,1,1,2,2,3,3,4,4,7,7,9,9,10,10,12,12,13,13,14,14,21,21,24,24],"right_children":[2,4,6,8,10,-1,-1,12,-1,14,16,-1,18,20,22,-1,-1,-1,-1,-1,-1,24,-1,-1,26,-1,-1],"split_conditions":[9.91815E1,9.80305E1,9.94015E1,8.8692826E-1,5.7124336E3,3.4682926E-2,8.670044E-3,4.4099503E1,3.3769608E-3,1.5E0,5.2626747E-1,1.127472E-2,1.2903674E0,2.5E0,7.2772536E0,4.2389683E-2,9.79004E-3,5.7568867E-3,1.4511109E-3,6.213248E-4,3.7830356E-3,2.329395E2,3.0881884E-3,8.603955E-3,9.9227E1,1.9606248E-2,9.34639E-3],"split_indices":[49,59,29,51,62,0,0,37,0,30,1,0,21,0,11,0,0,0,0,0,0,62,0,0,69,0,0],"split_type":[0,0,0,0,0,0,0,0,0,0,0,0,0,0,0,0,0,0,0,0,0,0,0,0,0,0,0],"sum_hessian":[5.1E1,4.5E1,6E0,2.2E1,2.3E1,4E0,2E0,1.7E1,5E0,1.9E1,4E0,8E0,9E0,3E0,1.6E1,2E0,2E0,8E0,1E0,1E0,2E0,1.5E1,1E0,3E0,1.2E1,9E0,3E0],"tree_param":{"num_deleted":"0","num_feature":"70","num_nodes":"27","size_leaf_vector":"0"}},{"base_weights":[3.9875213E-2,1.06594086E-1,3.6476918E-2,2.1251526E-2,4.922351E-2,2.668953E-2,1.3136228E-2,3.670167E-2,7.437515E-2,7.575989E-3,2.9243788E-2,1.381614E-2,2.828598E-3,8.44571E-3,4.1191213E-2,2.9696655E-2,1.11629486E-1,1.1561394E-2,3.385332E-2,7.0858E-3,1.5454292E-2,1.7604232E-3,1.0087331E-2,4.4768196E-2,1.8373966E-2,1.7410278E-2,6.3908896E-3,2.2893906E-2,4.865265E-2,2.0787558E-2,5.253516E-2],"categories":[],"categories_nodes":[],"categories_segments":[],"categories_sizes":[],"default_left":[true,false,true,true,true,true,true,true,true,false,true,true,false,true,true,false,false,false,false,false,true,false,false,true,false,false,false,false,true,false,false],"id":24,"left_children":[1,-1,3,5,7,9,11,13,15,-1,17,19,-1,21,23,-1,-1,-1,-1,-1,25,-1,-1,27,-1,-1,-1,-1,29,-1,-1],"loss_changes":[7.9017505E-3,0E0,8.851588E-3,7.526763E-4,5.7738125E-3,4.6194158E-4,4.501897E-5,2.1892358E-3,1.0000717E-2,0E0,5.8669876E-4,1.1772616E-5,0E0,2.6140857E-5,5.649198E-4,1.3737008E-7,0E0,0E0,0E0,0E0,3.055588E-5,0E0,0E0,7.572584E-5,0E0,0E0,0E0,0E0,9.7975135E-5,0E0,0E0],"parents":[2147483647,0,0,2,2,3,3,4,4,5,5,6,6,7,7,8,8,10,10,11,11,13,13,14,14,20,20,23,23,28,28],"right_children":[2,-1,4,6,8,10,12,14,16,-1,18,20,-1,22,24,-1,-1,-1,-1,-1,26,-1,-1,28,-1,-1,-1,-1,30,-1,-1],"split_conditions":[1.68865E5,3.1978227E-2,9.80305E1,1.1507405E-2,4.2250566E3,9.5519E1,1.6579135E4,1.5E0,9.8132E1,2.2727968E-3,4.35175E1,1.4474803E-1,8.4857945E-4,2.5E0,4.59255E1,8.908996E-3,3.3488847E-2,3.4684183E-3,1.0155996E-2,2.12574E-3,7.604089E-1,5.2812696E-4,3.0261993E-3,9.79025E1,5.51219E-3,5.223084E-3,1.917267E-3,6.868172E-3,4.13765E1,6.2362677E-3,1.5760548E-2],"split_indices":[33,0,59,21,42,59,12,30,19,0,17,41,0,0,17,0,0,0,0,0,51,0,0,49,0,0,0,0,27,0,0],"split_type":[0,0,0,0,0,0,0,0,0,0,0,0,0,0,0,0,0,0,0,0,0,0,0,0,0,0,0,0,0,0,0],"sum_hessian":[5.1E1,1E0,5E1,2.4E1,2.6E1,1.3E1,1.1E1,1.9E1,7E0,2E0,1.1E1,1E1,1E0,3E0,1.6E1,4E0,3E0,3E0,8E0,3E0,7E0,1E0,2E0,1.3E1,3E0,5E0,2E0,3E0,1E1,2E0,8E0],"tree_param":{"num_deleted":"0","num_feature":"70","num_nodes":"31","size_leaf_vector":"0"}},{"base_weights":[3.0572454E-2,9.060669E-2,2.761871E-2,1.5915833E-2,3.743179E-2,1.8556807E-2,7.984161E-3,9.151459E-2,3.1831894E-2,2.5612967E-2,1.2894313E-2,3.6239713E-2,1.10992E-2,7.809957E-3,3.117218E-2,1.3637196E-2,2.3612976E-3,2.1270037E-2,4.2205267E-2,1.4963746E-3,1.272049E-2,1.4209747E-2,3.955841E-3,2.2596087E-2,5.993843E-3,1.72081E-2,4.7458302E-2,5.437851E-2,2.1753311E-2],"categories":[],"categories_nodes":[],"categories_segments":[],"categories_sizes":[],"default_left":[true,false,true,true,true,true,false,false,true,true,true,true,true,false,false,true,false,true,true,false,false,false,false,false,false,false,true,false,false],"id":25,"left_children":[1,-1,3,5,7,9,-1,-1,11,13,15,17,19,-1,-1,21,-1,23,25,-1,-1,-1,-1,-1,-1,-1,27,-1,-1],"loss_changes":[6.7185014E-3,0E0,5.2611493E-3,3.7552277E-4,5.2640885E-3,3.8893707E-4,0E0,0E0,1.973806E-3,4.4934172E-4,6.169616E-5,9.77641E-4,7.4379146E-5,0E0,0E0,4.762318E-6,0E0,2.6618363E-5,1.0216869E-3,0E0,0E0,0E0,0E0,0E0,0E0,0E0,7.7380985E-4,0E0,0E0],"parents":[2147483647,0,0,2,2,3,3,4,4,5,5,8,8,9,9,10,10,11,11,12,12,15,15,17,17,18,18,26,26],"right_children":[2,-1,4,6,8,10,-1,-1,12,14,16,18,20,-1,-1,22,-1,24,26,-1,-1,-1,-1,-1,-1,-1,28,-1,-1],"split_conditions":[1.68865E5,2.7182007E-2,9.80305E1,5.386386E-1,9.6601E1,4.3440002E1,2.3952485E-3,2.7454378E-2,6.8473125E-1,3.886E1,1.9980055E-1,1.0350125E3,2.5E0,2.342987E-3,9.351655E-3,4.710074E0,7.083893E-4,7.2772536E0,4.10495E1,4.489124E-4,3.816147E-3,4.262924E-3,1.1867523E-3,6.7788265E-3,1.798153E-3,5.16243E-3,9.865E-1,1.6313553E-2,6.525994E-3],"split_indices":[33,0,59,21,49,27,0,0,61,27,21,2,0,0,0,31,0,11,27,0,0,0,0,0,0,0,8,0,0],"split_type":[0,0,0,0,0,0,0,0,0,0,0,0,0,0,0,0,0,0,0,0,0,0,0,0,0,0,0,0,0],"sum_hessian":[5.1E1,1E0,5E1,2.4E1,2.6E1,1.7E1,7E0,1E0,2.5E1,6E0,1.1E1,2E1,5E0,2E0,4E0,1E1,1E0,7E0,1.3E1,1E0,4E0,9E0,1E0,6E0,1E0,3E0,1E1,7E0,3E0],"tree_param":{"num_deleted":"0","num_feature":"70","num_nodes":"29","size_leaf_vector":"0"}},{"base_weights":[2.3625802E-2,7.701492E-2,2.106886E-2,1.1950073E-2,2.8731855E-2,8.192062E-3,1.6767884E-2,7.778549E-2,2.3853425E-2,8.817128E-3,2.544403E-3,2.3490906E-2,8.370717E-3,2.71096E-2,8.481245E-3,5.428791E-3,1.1429923E-2,6.916046E-3,2.590561E-2,2.456665E-3,9.062195E-3,1.1709595E-2,3.0044332E-2,2.6688178E-3,1.0720253E-2,3.6383055E-2,1.8365383E-2,1.318868E-2,4.0533066E-2],"categories":[],"categories_nodes":[],"categories_segments":[],"categories_sizes":[],"default_left":[true,false,true,true,true,true,true,false,true,true,false,true,true,true,true,false,false,false,false,false,false,false,true,false,false,true,false,false,false],"id":26,"left_children":[1,-1,3,5,7,9,11,-1,13,15,-1,17,19,21,23,-1,-1,-1,-1,-1,-1,-1,25,-1,-1,27,-1,-1,-1],"loss_changes":[5.476052E-3,0E0,3.2203887E-3,3.1527085E-4,4.6057757E-3,3.4048222E-5,3.6790757E-4,0E0,1.0714941E-3,6.189174E-5,0E0,2.095243E-5,2.273824E-6,5.972851E-4,4.9474038E-5,0E0,0E0,0E0,0E0,0E0,0E0,0E0,5.903151E-4,0E0,0E0,4.2799115E-4,0E0,0E0,0E0],"parents":[2147483647,0,0,2,2,3,3,4,4,5,5,6,6,8,8,9,9,11,11,12,12,13,13,14,14,22,22,25,25],"right_children":[2,-1,4,6,8,10,12,-1,14,16,-1,18,20,22,24,-1,-1,-1,-1,-1,-1,-1,26,-1,-1,28,-1,-1,-1],"split_conditions":[1.68865E5,2.3104478E-2,9.80305E1,9.8624E1,9.6601E1,9.78255E1,6.125285E-1,2.3335649E-2,6.8473125E-1,9.6252E1,7.6332095E-4,2.32974E2,2.5E0,2.364855E2,4.4689003E1,1.6286374E-3,3.428977E-3,2.074814E-3,7.771683E-3,7.3699956E-4,2.7186587E-3,3.5128787E-3,4.5552498E1,8.006454E-4,3.216076E-3,4.10495E1,5.509615E-3,3.9566043E-3,1.215992E-2],"split_indices":[33,0,59,9,49,59,41,0,61,59,0,2,0,2,7,0,0,0,0,0,0,0,7,0,0,27,0,0,0],"split_type":[0,0,0,0,0,0,0,0,0,0,0,0,0,0,0,0,0,0,0,0,0,0,0,0,0,0,0,0,0],"sum_hessian":[5.1E1,1E0,5E1,2.4E1,2.6E1,1.5E1,9E0,1E0,2.5E1,1.3E1,2E0,4E0,5E0,2E1,5E0,7E0,6E0,1E0,3E0,1E0,4E0,4E0,1.6E1,2E0,3E0,9E0,7E0,2E0,7E0],"tree_param":{"num_deleted":"0","num_feature":"70","num_nodes":"29","size_leaf_vector":"0"}},{"base_weights":[1.8360136E-2,6.546402E-2,1.6152922E-2,9.131317E-3,2.2056151E-2,1.3091278E-2,6.085634E-3,6.611633E-2,1.7818592E-2,1.7967224E-2,4.621887E-3,7.149783E-3,3.1204224E-3,2.9735267E-3,1.9625623E-2,5.364418E-3,8.2588196E-4,3.3912659E-3,8.135319E-3,8.825938E-3,2.2135206E-2,9.6588135E-3,2.33078E-3,1.6024956E-2,3.1684875E-2,1.796341E-2,7.1725845E-3],"categories":[],"categories_nodes":[],"categories_segments":[],"categories_sizes":[],"default_left":[true,false,true,true,true,true,true,false,true,false,true,true,false,false,true,false,false,false,false,true,true,false,false,true,false,false,false],"id":27,"left_children":[1,-1,3,5,7,9,11,-1,13,-1,15,17,-1,-1,19,-1,-1,-1,-1,21,23,-1,-1,25,-1,-1,-1],"loss_changes":[4.348919E-3,0E0,1.9125547E-3,2.2185082E-4,3.863005E-3,3.2992056E-4,2.8176466E-5,0E0,6.391052E-4,0E0,9.662872E-6,1.3156678E-5,0E0,4.989124E-7,4.279986E-4,0E0,0E0,0E0,0E0,9.94539E-6,5.425671E-4,0E0,0E0,9.423471E-5,0E0,0E0,0E0],"parents":[2147483647,0,0,2,2,3,3,4,4,5,5,6,6,8,8,10,10,11,11,14,14,19,19,20,20,23,23],"right_children":[2,-1,4,6,8,10,12,-1,14,-1,16,18,-1,-1,20,-1,-1,-1,-1,22,24,-1,-1,26,-1,-1,-1],"split_conditions":[1.68865E5,1.9639207E-2,9.80305E1,4.3440002E1,9.6601E1,5.159244E-1,1.9980055E-1,1.98349E-2,1.5E0,5.3901672E-3,1E1,9.5541504E1,9.3612674E-4,8.920581E-4,9.79025E1,1.6093255E-3,2.477646E-4,1.0173798E-3,2.4405958E-3,1.1E1,2.9538687E3,2.8976442E-3,6.99234E-4,4.59255E1,9.505463E-3,5.389023E-3,2.1517754E-3],"split_indices":[33,0,59,27,49,41,21,0,30,0,0,69,0,0,49,0,0,0,0,0,22,0,0,17,0,0,0],"split_type":[0,0,0,0,0,0,0,0,0,0,0,0,0,0,0,0,0,0,0,0,0,0,0,0,0,0,0],"sum_hessian":[5.1E1,1E0,5E1,2.4E1,2.6E1,9E0,1.5E1,1E0,2.5E1,5E0,4E0,1E1,5E0,3E0,2.2E1,3E0,1E0,3E0,7E0,5E0,1.7E1,4E0,1E0,1.2E1,5E0,9E0,3E0],"tree_param":{"num_deleted":"0","num_feature":"70","num_nodes":"27","size_leaf_vector":"0"}},{"base_weights":[1.4249077E-2,5.564499E-2,1.2346314E-2,6.8569947E-3,1.6971746E-2,5.4752515E-3,1.5164693E-2,5.619812E-2,1.3301575E-2,7.907391E-3,3.916979E-3,1.5194847E-2,4.458189E-3,9.628296E-3,1.8297831E-3,4.2950767E-3,8.468628E-4,8.725908E-3,1.850451E-2,4.2557716E-4,5.179596E-3,2.4108887E-3,5.073971E-3,9.251118E-3,2.2621155E-3,2.157097E-2,6.2122345E-3,6.958008E-3,2.4354458E-2,1.1684418E-2,2.9619599E-2],"categories":[],"categories_nodes":[],"categories_segments":[],"categories_sizes":[],"default_left":[true,false,true,true,true,true,false,false,true,true,true,true,true,false,false,true,false,true,true,false,false,false,false,false,false,true,false,false,true,false,false],"id":28,"left_children":[1,-1,3,5,7,9,-1,-1,11,13,15,17,19,-1,-1,21,-1,23,25,-1,-1,-1,-1,-1,-1,27,-1,-1,29,-1,-1],"loss_changes":[3.408853E-3,0E0,1.1785394E-3,2.0394719E-4,3.1396002E-3,5.619548E-5,0E0,0E0,3.6757486E-4,6.605417E-5,1.4935533E-5,2.8814143E-4,1.5250596E-5,0E0,0E0,8.313393E-6,0E0,9.626558E-6,3.5601528E-4,0E0,0E0,5.8276783E-8,0E0,0E0,0E0,2.3729168E-4,0E0,0E0,1.8758839E-4,0E0,0E0],"parents":[2147483647,0,0,2,2,3,3,4,4,5,5,8,8,9,9,10,10,11,11,12,12,15,15,17,17,18,18,25,25,28,28],"right_children":[2,-1,4,6,8,10,-1,-1,12,14,16,18,20,-1,-1,22,-1,24,26,-1,-1,-1,-1,-1,-1,28,-1,-1,30,-1,-1],"split_conditions":[1.68865E5,1.6693497E-2,9.80305E1,9.8800004E-1,9.6601E1,9.7749996E-1,4.549408E-3,1.6859436E-2,6.8473125E-1,2.2984214E0,1.1589937E0,4.5E0,2.5E0,2.8884888E-3,5.48935E-4,9.6252E1,2.5405886E-4,7.2772536E0,9.865E-1,1.2767315E-4,1.5538789E-3,7.232666E-4,1.5221915E-3,2.7753355E-3,6.786347E-4,4.10495E1,1.8636704E-3,2.0874024E-3,9.795E-1,3.5053254E-3,8.88588E-3],"split_indices":[33,0,59,48,49,48,0,0,61,51,21,0,0,0,0,59,0,11,8,0,0,0,0,0,0,27,0,0,8,0,0],"split_type":[0,0,0,0,0,0,0,0,0,0,0,0,0,0,0,0,0,0,0,0,0,0,0,0,0,0,0,0,0,0,0],"sum_hessian":[5.1E1,1E0,5E1,2.4E1,2.6E1,2.2E1,2E0,1E0,2.5E1,7E0,1.5E1,2E1,5E0,5E0,2E0,1.3E1,2E0,8E0,1.2E1,1E0,4E0,5E0,8E0,7E0,1E0,9E0,3E0,2E0,7E0,3E0,4E0],"tree_param":{"num_deleted":"0","num_feature":"70","num_nodes":"31","size_leaf_vector":"0"}},{"base_weights":[1.1233231E-2,4.729843E-2,9.59865E-3,8.134683E-3,2.4766594E-2,5.2175904E-3,1.0834376E-2,1.1770328E-3,4.776764E-2,4.199028E-3,1.4831543E-2,1.5124321E-2,8.178262E-3,3.0339558E-3,6.5950667E-3,8.61613E-3,2.3099264E-2,3.3340454E-3,8.978163E-3,3.5721462E-3,1.6779219E-3,7.273356E-3,1.2626648E-3,2.3142498E-3,1.1188507E-2,9.480109E-3,1.2264252E-3,4.4169426E-3,1.5060424E-3,5.3660077E-4,2.0271302E-3,2.1438599E-3,9.912808E-3],"categories":[],"categories_nodes":[],"categories_segments":[],"categories_sizes":[],"default_left":[true,false,true,true,true,true,true,false,false,true,false,true,true,true,true,true,false,false,true,true,true,false,false,false,false,true,false,false,false,false,false,false,false],"id":29,"left_children":[1,-1,3,5,7,9,11,-1,-1,13,-1,15,17,19,21,23,-1,-1,25,27,29,-1,-1,-1,-1,31,-1,-1,-1,-1,-1,-1,-1],"loss_changes":[2.611476E-3,0E0,9.3100546E-4,3.2148277E-4,2.114114E-3,1.8253224E-4,1.4977949E-4,4.6851255E-8,0E0,4.698825E-5,0E0,2.1619338E-4,3.5939505E-5,7.142691E-6,1.6134552E-5,7.137188E-5,0E0,0E0,4.2846892E-5,1.42931385E-5,1.7021521E-6,6.153132E-7,0E0,0E0,0E0,2.0015403E-5,0E0,1.5090336E-7,0E0,0E0,0E0,0E0,0E0],"parents":[2147483647,0,0,2,2,3,3,4,4,5,5,6,6,9,9,11,11,12,12,13,13,14,14,15,15,18,18,19,19,20,20,25,25],"right_children":[2,-1,4,6,8,10,12,-1,-1,14,-1,16,18,20,22,24,-1,-1,26,28,30,-1,-1,-1,-1,32,-1,-1,-1,-1,-1,-1,-1],"split_conditions":[1.68865E5,1.418953E-2,2.2252095E0,9.80305E1,9.815E-1,9.9336E1,9.85035E1,3.5310985E-4,1.4330292E-2,9.93255E1,4.449463E-3,4.228465E3,9.73E-1,9.835E-1,7.1282345E-1,9.9014E1,6.9297794E-3,1.0002137E-3,6.447E1,8.8692826E-1,9.8399997E-1,2.1820068E-3,3.7879945E-4,6.9427496E-4,3.3565522E-3,3.48845E1,3.6792757E-4,1.3250828E-3,4.5181275E-4,1.6098024E-4,6.081391E-4,6.43158E-4,2.9738427E-3],"split_indices":[33,0,61,59,18,49,59,0,0,9,0,42,28,38,1,9,0,0,17,51,18,0,0,0,0,7,0,0,0,0,0,0,0],"split_type":[0,0,0,0,0,0,0,0,0,0,0,0,0,0,0,0,0,0,0,0,0,0,0,0,0,0,0,0,0,0,0,0,0],"sum_hessian":[5.1E1,1E0,5E1,4.7E1,3E0,2.4E1,2.3E1,2E0,1E0,2.3E1,1E0,7E0,1.6E1,1.7E1,6E0,5E0,2E0,3E0,1.3E1,1.1E1,6E0,5E0,1E0,2E0,3E0,1.2E1,1E0,7E0,4E0,2E0,4E0,1E0,1.1E1],"tree_param":{"num_deleted":"0","num_feature":"70","num_nodes":"33","size_leaf_vector":"0"}},{"base_weights":[8.909086E-3,4.0203094E-2,7.5071817E-3,6.2257447E-3,2.1007627E-2,3.5162426E-3,8.035524E-3,9.410779E-4,4.0603638E-2,8.918762E-3,2.8001785E-3,9.680067E-3,2.714157E-3,3.2089234E-3,1.3116201E-3,3.3160618E-3,1.2004598E-2,4.7429404E-4,3.3817291E-3,1.2044907E-3,3.6096573E-3,1.4327309E-2,4.4937134E-3,4.1656494E-3,1.9981384E-3,2.0150756E-2,8.120946E-3,2.822876E-4,2.3565292E-3],"categories":[],"categories_nodes":[],"categories_segments":[],"categories_sizes":[],"default_left":[true,false,true,true,true,true,true,false,false,false,true,true,true,true,false,false,true,false,false,false,true,true,false,false,true,false,false,false,false],"id":30,"left_children":[1,-1,3,5,7,9,11,-1,-1,-1,13,15,17,19,-1,-1,21,-1,-1,-1,23,25,-1,-1,27,-1,-1,-1,-1],"loss_changes":[1.9794903E-3,0E0,7.5151026E-4,2.0711799E-4,1.534686E-3,5.6265417E-5,2.187608E-4,4.1994645E-7,0E0,0E0,7.959927E-6,2.708519E-4,1.0358228E-5,7.700859E-6,0E0,4.566391E-7,1.9730139E-4,0E0,0E0,0E0,2.4283509E-6,2.3392355E-4,0E0,0E0,2.4095061E-6,0E0,0E0,0E0,0E0],"parents":[2147483647,0,0,2,2,3,3,4,4,5,5,6,6,10,10,11,11,12,12,13,13,16,16,20,20,21,21,24,24],"right_children":[2,-1,4,6,8,10,12,-1,-1,-1,14,16,18,20,-1,-1,22,-1,-1,-1,24,26,-1,-1,28,-1,-1,-1,-1],"split_conditions":[1.68865E5,1.2060929E-2,2.2252095E0,9.79025E1,9.815E-1,9.555E-1,7.0059246E-1,2.8232337E-4,1.2181092E-2,2.6756288E-3,8.45063E-1,1.0331609E3,4.3655E1,9.5519E1,3.9348606E-4,9.948186E-4,9.865E-1,1.4228822E-4,1.0145188E-3,3.6134722E-4,4.53715E1,9.8513E1,1.3481141E-3,1.2496948E-3,4.57955E1,6.0452274E-3,2.4362837E-3,8.468628E-5,7.069588E-4],"split_indices":[33,0,61,49,18,28,21,0,0,0,51,2,7,59,0,0,8,0,0,0,27,59,0,0,7,0,0,0,0],"split_type":[0,0,0,0,0,0,0,0,0,0,0,0,0,0,0,0,0,0,0,0,0,0,0,0,0,0,0,0,0],"sum_hessian":[5.1E1,1E0,5E1,4.7E1,3E0,2E1,2.7E1,2E0,1E0,1E0,1.9E1,2E1,7E0,1.4E1,5E0,6E0,1.4E1,2E0,5E0,3E0,1.1E1,1E1,4E0,7E0,4E0,4E0,6E0,1E0,3E0],"tree_param":{"num_deleted":"0","num_feature":"70","num_nodes":"29","size_leaf_vector":"0"}},{"base_weights":[7.0434785E-3,3.4172058E-2,5.8415052E-3,4.721562E-3,1.7820448E-2,2.1295547E-3,5.835215E-3,7.528861E-4,3.4511566E-2,2.670288E-3,7.832845E-4,1.4901161E-3,6.9477377E-3,2.8793334E-3,2.89917E-4,1.0223389E-2,4.6121934E-3,1.2270609E-3,1.2319088E-2,2.1242413E-3,5.776145E-3,1.625061E-3,1.3614655E-2,2.4032593E-4,2.398173E-3,6.9875717E-3,1.909256E-3,1.5161514E-2,2.166748E-3],"categories":[],"categories_nodes":[],"categories_segments":[],"categories_sizes":[],"default_left":[true,false,true,true,true,true,true,false,false,true,false,false,true,false,false,true,true,false,true,true,true,false,true,false,false,false,false,false,false],"id":31,"left_children":[1,-1,3,5,7,9,11,-1,-1,13,-1,-1,15,-1,-1,17,19,-1,21,23,25,-1,27,-1,-1,-1,-1,-1,-1],"loss_changes":[1.4959907E-3,0E0,6.000623E-4,1.2613018E-4,1.1135235E-3,9.5559735E-6,1.4916982E-4,6.590391E-7,0E0,4.638896E-6,0E0,0E0,1.5175878E-4,0E0,0E0,1.7341971E-4,3.6959624E-5,0E0,8.871395E-5,3.0361043E-6,3.8187893E-5,0E0,9.110698E-5,0E0,0E0,0E0,7.360977E-7,0E0,0E0],"parents":[2147483647,0,0,2,2,3,3,4,4,5,5,6,6,9,9,12,12,15,15,16,16,18,18,19,19,20,20,22,22],"right_children":[2,-1,4,6,8,10,12,-1,-1,14,-1,-1,16,-1,-1,18,20,-1,22,24,26,-1,28,-1,-1,-1,-1,-1,-1],"split_conditions":[1.68865E5,1.0251618E-2,2.2252095E0,9.79095E1,9.815E-1,3.9330342E-1,7.3929297E2,2.2586585E-4,1.035347E-2,9.1437525E-1,2.3498536E-4,4.4703486E-4,4.47995E1,8.6380006E-4,8.69751E-5,4.29345E1,4.34225E1,3.681183E-4,4.01595E1,4.57955E1,4.59345E1,4.8751832E-4,7.973573E3,7.2097784E-5,7.194519E-4,2.0962716E-3,5.7277683E-4,4.5484547E-3,6.5002445E-4],"split_indices":[33,0,61,9,18,41,52,0,0,21,0,0,7,0,0,7,67,0,27,7,67,0,2,0,0,0,0,0,0],"split_type":[0,0,0,0,0,0,0,0,0,0,0,0,0,0,0,0,0,0,0,0,0,0,0,0,0,0,0,0,0],"sum_hessian":[5.1E1,1E0,5E1,4.7E1,3E0,1.5E1,3.2E1,2E0,1E0,1E1,5E0,7E0,2.5E1,9E0,1E0,9E0,1.6E1,2E0,7E0,6E0,1E1,1E0,6E0,1E0,5E0,7E0,3E0,5E0,1E0],"tree_param":{"num_deleted":"0","num_feature":"70","num_nodes":"29","size_leaf_vector":"0"}},{"base_weights":[5.5455705E-3,2.9045105E-2,4.5152833E-3,3.5375357E-3,1.5119433E-2,1.5654564E-3,4.386497E-3,6.025632E-4,2.9335022E-2,2.3138863E-3,8.8500977E-4,3.7506223E-3,1.2367249E-2,1.0976791E-3,4.4495394E-3,5.3962073E-3,1.7633438E-3,1.9601185E-3,6.5670013E-3,2.2888184E-3,6.656647E-4,6.2942505E-4,3.081004E-3,7.5361254E-3,2.5024414E-3,8.9359283E-4,8.174896E-3,1.3809204E-3,8.851528E-3],"categories":[],"categories_nodes":[],"categories_segments":[],"categories_sizes":[],"default_left":[true,false,true,true,true,true,true,false,false,false,false,true,false,false,true,true,true,true,true,false,false,false,false,true,false,false,true,false,false],"id":32,"left_children":[1,-1,3,5,7,9,11,-1,-1,-1,-1,13,-1,-1,15,17,19,21,23,-1,-1,-1,-1,25,-1,-1,27,-1,-1],"loss_changes":[1.1278389E-3,0E0,4.7529174E-4,7.349573E-5,8.0778723E-4,6.100454E-6,1.2108218E-4,8.1272447E-7,0E0,8.524876E-7,4.5736397E-7,5.4449833E-5,0E0,6.007058E-7,5.405798E-5,5.9541024E-5,3.090834E-6,7.0100687E-6,3.234914E-5,2.7398346E-7,2.6285647E-8,0E0,0E0,3.512553E-5,0E0,0E0,2.9149931E-5,0E0,0E0],"parents":[2147483647,0,0,2,2,3,3,4,4,5,5,6,6,11,11,14,14,15,15,16,16,17,17,18,18,23,23,26,26],"right_children":[2,-1,4,6,8,10,12,-1,-1,-1,-1,14,-1,-1,16,18,20,22,24,-1,-1,-1,-1,26,-1,-1,28,-1,-1],"split_conditions":[1.68865E5,8.713532E-3,2.2252095E0,9.79095E1,9.815E-1,4.0925E1,4.6851997E1,1.8076897E-4,8.800507E-3,6.9416594E-4,2.6550295E-4,7.3929297E2,3.7101747E-3,3.2930376E-4,2.908949E6,9.76895E1,9.8399997E-1,5.3069E1,9.865E-1,6.866455E-4,1.9969941E-4,1.8882753E-4,9.243012E-4,2E0,7.5073243E-4,2.6807786E-4,3.9266E1,4.1427615E-4,2.6554586E-3],"split_indices":[33,0,61,9,18,7,67,0,0,0,0,52,0,0,33,69,38,7,68,0,0,0,0,0,0,0,27,0,0],"split_type":[0,0,0,0,0,0,0,0,0,0,0,0,0,0,0,0,0,0,0,0,0,0,0,0,0,0,0,0,0],"sum_hessian":[5.1E1,1E0,5E1,4.7E1,3E0,1.5E1,3.2E1,2E0,1E0,6E0,9E0,3.1E1,1E0,7E0,2.4E1,1.7E1,7E0,5E0,1.2E1,4E0,3E0,3E0,2E0,9E0,3E0,1E0,8E0,1E0,7E0],"tree_param":{"num_deleted":"0","num_feature":"70","num_nodes":"29","size_leaf_vector":"0"}},{"base_weights":[4.435576E-3,2.468872E-2,3.5543628E-3,2.7074814E-3,1.282835E-2,4.431798E-3,2.0096037E-3,4.825592E-4,2.4932861E-2,1.601696E-3,7.4666343E-3,9.7154314E-4,2.9936896E-3,2.0599365E-3,1.5131633E-4,4.6539307E-4,1.0850906E-2,5.677541E-4,1.4557838E-3,8.117676E-4,3.5591125E-3,1.8478393E-3,6.017685E-4,7.34965E-4,3.968557E-3,7.5912476E-4,4.191312E-3],"categories":[],"categories_nodes":[],"categories_segments":[],"categories_sizes":[],"default_left":[true,false,true,true,true,true,true,false,false,true,true,true,true,false,false,false,false,false,true,false,true,false,false,false,true,false,false],"id":33,"left_children":[1,-1,3,5,7,9,11,-1,-1,13,15,17,19,-1,-1,-1,-1,-1,21,-1,23,-1,-1,-1,25,-1,-1],"loss_changes":[8.403087E-4,0E0,3.6581978E-4,4.8855203E-5,5.857275E-4,9.9696364E-5,3.3866978E-5,9.118794E-7,0E0,5.0052804E-6,1.371147E-4,2.8885643E-6,1.931758E-5,0E0,1.29536275E-8,0E0,0E0,6.732903E-7,1.5665992E-6,1.8986543E-7,1.3271871E-5,0E0,0E0,2.427356E-7,5.397291E-6,0E0,6.290211E-7],"parents":[2147483647,0,0,2,2,3,3,4,4,5,5,6,6,9,9,10,10,11,11,12,12,18,18,20,20,24,24],"right_children":[2,-1,4,6,8,10,12,-1,-1,14,16,18,20,-1,-1,-1,-1,-1,22,-1,24,-1,-1,-1,26,-1,-1],"split_conditions":[1.68865E5,7.4066166E-3,2.2252095E0,4.26135E1,9.815E-1,4.3949E1,9.8183E1,1.4476776E-4,7.4798586E-3,2.1932454E0,2E0,6.3526295E-2,9.7533E1,6.1798096E-4,4.53949E-5,1.3961793E-4,3.255272E-3,1.7032624E-4,9.6826004E1,2.4353029E-4,6.38765E5,5.5435183E-4,1.8053055E-4,2.2048951E-4,1.5E0,2.2773743E-4,1.2573936E-3],"split_indices":[33,0,61,27,18,7,59,0,0,51,20,1,9,0,0,0,0,0,59,0,33,0,0,0,0,0,0],"split_type":[0,0,0,0,0,0,0,0,0,0,0,0,0,0,0,0,0,0,0,0,0,0,0,0,0,0,0],"sum_hessian":[5.1E1,1E0,5E1,4.7E1,3E0,1.2E1,3.5E1,2E0,1E0,7E0,5E0,1.8E1,1.7E1,5E0,2E0,2E0,3E0,1.1E1,7E0,4E0,1.3E1,4E0,3E0,2E0,1.1E1,1E0,1E1],"tree_param":{"num_deleted":"0","num_feature":"70","num_nodes":"27","size_leaf_vector":"0"}},{"base_weights":[3.5265456E-3,2.098465E-2,2.772766E-3,2.0388365E-3,1.0886729E-2,1.7007048E-3,4.6066283E-3,3.8599968E-4,2.1194458E-2,8.953268E-4,2.3971226E-3,1.3160706E-3,8.88443E-3,2.770424E-4,1.16539E-3,3.9901733E-3,1.6001533E-3,1.7522176E-3,3.8146973E-6,6.866455E-5,1.3288351E-3,6.9554645E-4,5.168915E-3,2.8877258E-3,1.1179788E-3,1.6072592E-3,5.619049E-4,3.3721924E-4,1.3965607E-3],"categories":[],"categories_nodes":[],"categories_segments":[],"categories_sizes":[],"default_left":[true,false,true,true,true,true,true,false,false,true,true,true,false,false,true,true,true,false,false,false,true,false,false,false,true,false,false,false,false],"id":34,"left_children":[1,-1,3,5,7,9,11,-1,-1,13,15,17,-1,-1,19,21,23,-1,-1,-1,25,-1,-1,-1,27,-1,-1,-1,-1],"loss_changes":[6.2611164E-4,0E0,2.8151268E-4,3.384157E-5,4.2477364E-4,2.2532506E-5,5.8689227E-5,9.745315E-7,0E0,3.3506076E-6,2.2816195E-5,2.2826616E-6,0E0,1.7900373E-7,2.5975714E-6,2.3589368E-5,7.3257725E-6,0E0,0E0,1.231092E-8,1.8727878E-6,1.1126633E-7,0E0,0E0,2.5741283E-6,2.7241185E-7,8.074289E-8,8.2192116E-8,6.156388E-7],"parents":[2147483647,0,0,2,2,3,3,4,4,5,5,6,6,9,9,10,10,11,11,14,14,15,15,16,16,20,20,24,24],"right_children":[2,-1,4,6,8,10,12,-1,-1,14,16,18,-1,-1,20,22,24,-1,-1,-1,26,-1,-1,-1,28,-1,-1,-1,-1],"split_conditions":[1.68865E5,6.295395E-3,2.2252095E0,4.6851997E1,9.815E-1,9.85495E1,4.3891E1,1.1579991E-4,6.3583376E-3,9.6252E1,4.47995E1,1E1,2.665329E-3,8.311272E-5,1.5E0,4.0872498E1,9.72315E1,5.256653E-4,1.1444092E-6,2.0599366E-5,8.45063E-1,2.0866394E-4,1.5506746E-3,8.663178E-4,9.82035E1,4.8217777E-4,1.6857148E-4,1.0116578E-4,4.1896824E-4],"split_indices":[33,0,61,67,18,9,7,0,0,59,7,0,0,0,50,27,49,0,0,0,51,0,0,0,39,0,0,0,0],"split_type":[0,0,0,0,0,0,0,0,0,0,0,0,0,0,0,0,0,0,0,0,0,0,0,0,0,0,0,0,0],"sum_hessian":[5.1E1,1E0,5E1,4.7E1,3E0,4.3E1,4E0,2E0,1E0,2.1E1,2.2E1,3E0,1E0,7E0,1.4E1,6E0,1.6E1,2E0,1E0,2E0,1.2E1,2E0,4E0,3E0,1.3E1,8E0,4E0,4E0,9E0],"tree_param":{"num_deleted":"0","num_feature":"70","num_nodes":"29","size_leaf_vector":"0"}},{"base_weights":[2.8505852E-3,1.7837524E-2,2.2069684E-3,1.5748739E-3,9.240359E-3,2.851633E-3,1.0700756E-3,3.0926862E-4,1.8016815E-2,9.498596E-4,4.9120584E-3,4.6699925E-4,1.6472074E-3,-2.8949976E-4,7.534027E-4,1.2410482E-3,5.086263E-5,3.077189E-4,7.1372986E-3,2.3386213E-3,8.6021423E-4,9.77993E-4,2.8559368E-3,1.6784668E-4,1.1329651E-3,3.6239624E-4,3.2821656E-3,1.326243E-3,-1.335144E-5],"categories":[],"categories_nodes":[],"categories_segments":[],"categories_sizes":[],"default_left":[true,false,true,true,true,true,true,true,false,true,true,false,true,false,false,false,false,false,false,true,true,false,true,false,true,false,false,false,false],"id":35,"left_children":[1,-1,3,5,7,9,11,13,-1,15,17,-1,19,-1,-1,-1,-1,-1,-1,21,23,-1,25,-1,27,-1,-1,-1,-1],"loss_changes":[4.6221726E-4,0E0,2.1218171E-4,2.7884817E-5,3.0796125E-4,4.6274246E-5,1.176072E-5,1.0159102E-6,0E0,2.0310981E-6,5.9278274E-5,9.755386E-7,7.782768E-6,0E0,0E0,0E0,2.7745655E-9,0E0,0E0,3.5417797E-6,1.698274E-6,0E0,5.1874667E-6,3.5700722E-9,1.5686119E-6,0E0,0E0,0E0,0E0],"parents":[2147483647,0,0,2,2,3,3,4,4,5,5,6,6,7,7,9,9,10,10,12,12,19,19,20,20,22,22,24,24],"right_children":[2,-1,4,6,8,10,12,14,-1,16,18,-1,20,-1,-1,-1,-1,-1,-1,22,24,-1,26,-1,28,-1,-1,-1,-1],"split_conditions":[1.68865E5,5.3512575E-3,2.2252095E0,4.26135E1,9.815E-1,4.3949E1,9.8183E1,3.5E0,5.4050446E-3,2.1932454E0,2E0,1.4009979E-4,4.4463997E1,-8.6849934E-5,2.2602083E-4,3.7231448E-4,1.5258789E-5,9.231568E-5,2.1411898E-3,4.5E0,4.3640503E1,2.9339793E-4,3.87145E1,5.0354007E-5,6.0795498E1,1.0871888E-4,9.846498E-4,3.9787294E-4,-4.0054324E-6],"split_indices":[33,0,61,27,18,7,59,0,0,51,20,0,67,0,0,0,0,0,0,0,7,0,17,0,17,0,0,0,0],"split_type":[0,0,0,0,0,0,0,0,0,0,0,0,0,0,0,0,0,0,0,0,0,0,0,0,0,0,0,0,0],"sum_hessian":[5.1E1,1E0,5E1,4.7E1,3E0,1.2E1,3.5E1,2E0,1E0,7E0,5E0,1.8E1,1.7E1,1E0,1E0,5E0,2E0,2E0,3E0,8E0,9E0,3E0,5E0,3E0,6E0,1E0,4E0,5E0,1E0],"tree_param":{"num_deleted":"0","num_feature":"70","num_nodes":"29","size_leaf_vector":"0"}},{"base_weights":[2.2937702E-3,1.5163422E-2,1.744102E-3,1.1984905E-3,7.855415E-3,9.344708E-4,3.2821656E-3,2.632141E-4,1.53160095E-2,4.5507605E-4,1.3523931E-3,8.621216E-4,6.4811707E-3,1.4724731E-3,3.365108E-4,2.2615704E-3,8.9847343E-4,1.1520386E-3,-3.8146973E-6,4.272461E-4,2.909851E-3,2.067566E-3,6.9618225E-4],"categories":[],"categories_nodes":[],"categories_segments":[],"categories_sizes":[],"default_left":[true,false,true,true,true,true,true,false,false,true,true,true,false,false,false,true,true,false,false,false,false,false,false],"id":36,"left_children":[1,-1,3,5,7,9,11,-1,-1,13,15,17,-1,-1,-1,19,21,-1,-1,-1,-1,-1,-1],"loss_changes":[3.4140336E-4,0E0,1.6063993E-4,2.3339213E-5,2.2253793E-4,8.19995E-6,3.312111E-5,7.346607E-7,0E0,2.1583119E-6,7.459992E-6,1.0085932E-6,0E0,0E0,7.9998495E-7,7.0808746E-6,2.5810477E-6,0E0,0E0,1.2438977E-7,0E0,0E0,9.989926E-7],"parents":[2147483647,0,0,2,2,3,3,4,4,5,5,6,6,9,9,10,10,11,11,15,15,16,16],"right_children":[2,-1,4,6,8,10,12,-1,-1,14,16,18,-1,-1,-1,20,22,-1,-1,-1,-1,-1,-1],"split_conditions":[1.68865E5,4.5490265E-3,2.2252095E0,4.6851997E1,9.815E-1,9.85495E1,4.3891E1,7.8964236E-5,4.594803E-3,9.5011505E1,4.47995E1,1E1,1.9443512E-3,4.4174196E-4,1.0095324E-4,4.0872498E1,9.75E-1,3.456116E-4,-1.1444092E-6,1.2817384E-4,8.7295537E-4,6.202698E-4,2.0885469E-4],"split_indices":[33,0,61,67,18,9,7,0,0,29,7,0,0,0,0,27,48,0,0,0,0,0,0],"split_type":[0,0,0,0,0,0,0,0,0,0,0,0,0,0,0,0,0,0,0,0,0,0,0],"sum_hessian":[5.1E1,1E0,5E1,4.7E1,3E0,4.3E1,4E0,2E0,1E0,2.1E1,2.2E1,3E0,1E0,1E0,2E1,6E0,1.6E1,2E0,1E0,2E0,4E0,1E0,1.5E1],"tree_param":{"num_deleted":"0","num_feature":"70","num_nodes":"23","size_leaf_vector":"0"}},{"base_weights":[1.8741396E-3,1.2889862E-2,1.4054027E-3,9.376208E-4,6.667435E-3,7.097071E-4,2.7557374E-3,2.1020572E-4,1.3019562E-2,9.711129E-4,2.374088E-4,6.904602E-4,5.508423E-3,3.379186E-4,1.3609494E-3,-1.856486E-4,4.2915344E-4,1.661154E-3,3.0822755E-4,2.0412444E-3,2.9563904E-4,4.7302246E-4,2.3741722E-3],"categories":[],"categories_nodes":[],"categories_segments":[],"categories_sizes":[],"default_left":[true,false,true,true,true,true,true,false,false,true,true,false,false,false,true,false,false,true,false,true,false,false,false],"id":37,"left_children":[1,-1,3,5,7,9,11,-1,-1,13,15,-1,-1,-1,17,-1,-1,19,-1,21,-1,-1,-1],"loss_changes":[2.5038532E-4,0E0,1.19284145E-4,1.7934173E-5,1.6133177E-4,5.201755E-6,2.4621946E-5,7.524252E-7,0E0,6.4516917E-6,1.4586947E-6,6.49743E-7,0E0,8.389155E-7,4.860529E-6,2.0984345E-8,7.9951565E-7,6.1437786E-6,2.421749E-7,4.0980085E-6,4.1836756E-8,0E0,0E0],"parents":[2147483647,0,0,2,2,3,3,4,4,5,5,6,6,9,9,10,10,14,14,17,17,19,19],"right_children":[2,-1,4,6,8,10,12,-1,-1,14,16,-1,-1,-1,18,-1,-1,20,-1,22,-1,-1,-1],"split_conditions":[1.68865E5,3.8669587E-3,2.2252095E0,4.6851997E1,9.815E-1,4.2280527E3,4.3891E1,6.306172E-5,3.9058686E-3,5.452645E5,4.24173E3,2.0713807E-4,1.6525269E-3,1.0137559E-4,6.738575E-1,-5.5694585E-5,1.2874603E-4,9.865E-1,9.246827E-5,3.94255E1,8.869171E-5,1.4190674E-4,7.122517E-4],"split_indices":[33,0,61,67,18,22,7,0,0,3,52,0,0,0,41,0,0,68,0,37,0,0,0],"split_type":[0,0,0,0,0,0,0,0,0,0,0,0,0,0,0,0,0,0,0,0,0,0,0],"sum_hessian":[5.1E1,1E0,5E1,4.7E1,3E0,4.3E1,4E0,2E0,1E0,2.7E1,1.6E1,3E0,1E0,1.1E1,1.6E1,5E0,1.1E1,1.2E1,4E0,9E0,3E0,2E0,7E0],"tree_param":{"num_deleted":"0","num_feature":"70","num_nodes":"23","size_leaf_vector":"0"}},{"base_weights":[1.5216446E-3,1.0955811E-2,1.1218413E-3,7.2038174E-4,5.658895E-3,5.2439084E-4,2.3010254E-3,1.6756852E-4,1.1066437E-2,2.3902547E-4,7.745494E-4,5.3596497E-4,4.6806335E-3,4.113061E-4,-5.5525037E-5,-8.392334E-5,9.0751646E-4,1.0957718E-3,1.235962E-4,1.3357798E-3,3.0059816E-4,6.1035156E-5,1.4461171E-3],"categories":[],"categories_nodes":[],"categories_segments":[],"categories_sizes":[],"default_left":[true,false,true,true,true,true,true,false,false,true,true,false,false,false,false,false,true,true,false,true,false,false,false],"id":38,"left_children":[1,-1,3,5,7,9,11,-1,-1,13,15,-1,-1,-1,-1,-1,17,19,-1,21,-1,-1,-1],"loss_changes":[1.8384356E-4,0E0,8.881704E-5,1.366337E-5,1.1692391E-4,2.9558732E-6,1.8492105E-5,7.6292156E-7,0E0,1.1392357E-6,2.7015803E-6,7.2635885E-7,0E0,8.268398E-7,2.7801966E-7,0E0,2.8161085E-6,2.6520374E-6,3.1014787E-7,1.5995574E-6,1.245906E-7,0E0,5.3822805E-7],"parents":[2147483647,0,0,2,2,3,3,4,4,5,5,6,6,9,9,10,10,16,16,17,17,19,19],"right_children":[2,-1,4,6,8,10,12,-1,-1,14,16,-1,-1,-1,-1,-1,18,20,-1,22,-1,-1,-1],"split_conditions":[1.68865E5,3.2867433E-3,2.2252095E0,4.6851997E1,9.815E-1,9.85495E1,4.3891E1,5.027056E-5,3.3199312E-3,1.6454828E-1,3E0,1.607895E-4,1.4041901E-3,1.2339183E-4,-1.6657512E-5,-2.5177003E-5,2.908949E6,9.865E-1,3.7078862E-5,2E0,9.017945E-5,1.8310548E-5,4.3383514E-4],"split_indices":[33,0,61,67,18,9,7,0,0,21,30,0,0,0,0,0,33,68,0,0,0,0,0],"split_type":[0,0,0,0,0,0,0,0,0,0,0,0,0,0,0,0,0,0,0,0,0,0,0],"sum_hessian":[5.1E1,1E0,5E1,4.7E1,3E0,4.3E1,4E0,2E0,1E0,2.1E1,2.2E1,3E0,1E0,1.3E1,8E0,3E0,1.9E1,1.5E1,4E0,1.1E1,4E0,1E0,1E1],"tree_param":{"num_deleted":"0","num_feature":"70","num_nodes":"23","size_leaf_vector":"0"}},{"base_weights":[1.2358588E-3,9.311676E-3,8.9492754E-4,5.505085E-4,4.804224E-3,3.8190323E-4,1.9241333E-3,1.342694E-4,9.407043E-3,5.3909846E-4,1.00528494E-4,4.15802E-4,3.9787292E-3,8.201599E-5,7.512946E-4,9.906476E-4,1.9945417E-4,1.4147077E-3,4.2506628E-4,2.2125244E-4,1.5767416E-3],"categories":[],"categories_nodes":[],"categories_segments":[],"categories_sizes":[],"default_left":[true,false,true,true,true,true,true,false,false,true,false,false,false,false,true,true,false,true,false,false,false],"id":39,"left_children":[1,-1,3,5,7,9,11,-1,-1,13,-1,-1,-1,-1,15,17,-1,19,-1,-1,-1],"loss_changes":[1.3483824E-4,0E0,6.6023465E-5,1.0381985E-5,8.471676E-5,1.8919591E-6,1.3840694E-5,7.710932E-7,0E0,2.6541338E-6,7.170035E-7,7.615017E-7,0E0,3.8243343E-7,2.3120192E-6,2.516581E-6,1.9279486E-7,1.0048034E-6,4.1820817E-7,0E0,0E0],"parents":[2147483647,0,0,2,2,3,3,4,4,5,5,6,6,9,9,14,14,15,15,17,17],"right_children":[2,-1,4,6,8,10,12,-1,-1,14,-1,-1,-1,-1,16,18,-1,20,-1,-1,-1],"split_conditions":[1.68865E5,2.793503E-3,2.2252095E0,4.6851997E1,9.815E-1,4.2280527E3,4.3891E1,4.0280822E-5,2.8221132E-3,4.29345E1,3.015855E-5,1.247406E-4,1.1936189E-3,2.4604798E-5,9.865E-1,4.3618E1,5.9836253E-5,4.3511E1,1.2751989E-4,6.637574E-5,4.730225E-4],"split_indices":[33,0,61,67,18,22,7,0,0,7,0,0,0,0,68,47,0,7,0,0,0],"split_type":[0,0,0,0,0,0,0,0,0,0,0,0,0,0,0,0,0,0,0,0,0],"sum_hessian":[5.1E1,1E0,5E1,4.7E1,3E0,4.3E1,4E0,2E0,1E0,2.7E1,1.6E1,3E0,1E0,9E0,1.8E1,1.2E1,6E0,6E0,6E0,1E0,5E0],"tree_param":{"num_deleted":"0","num_feature":"70","num_nodes":"21","size_leaf_vector":"0"}},{"base_weights":[1.014235E-3,7.915497E-3,7.237102E-4,4.2911372E-4,4.077941E-3,2.8493188E-4,1.6120911E-3,1.0685126E-4,7.9956055E-3,2.2167113E-4,8.621216E-4,3.232956E-4,3.3836365E-3,-1.1444092E-5,1.1571249E-3],"categories":[],"categories_nodes":[],"categories_segments":[],"categories_sizes":[],"default_left":[true,false,true,true,true,true,true,false,false,false,true,false,false,false,false],"id":40,"left_children":[1,-1,3,5,7,9,11,-1,-1,-1,13,-1,-1,-1,-1],"loss_changes":[9.853079E-5,0E0,4.864549E-5,7.727729E-6,6.137525E-5,1.4154846E-6,1.0321884E-5,7.745739E-7,0E0,9.830358E-7,1.0440613E-6,7.782886E-7,0E0,0E0,0E0],"parents":[2147483647,0,0,2,2,3,3,4,4,5,5,6,6,10,10],"right_children":[2,-1,4,6,8,10,12,-1,-1,-1,14,-1,-1,-1,-1],"split_conditions":[1.68865E5,2.374649E-3,2.2252095E0,4.6851997E1,9.815E-1,9.9292496E1,4.3891E1,3.2055377E-5,2.3986818E-3,6.650134E-5,2E0,9.698868E-5,1.015091E-3,-3.4332277E-6,3.4713748E-4],"split_indices":[33,0,61,67,18,49,7,0,0,0,0,0,0,0,0],"split_type":[0,0,0,0,0,0,0,0,0,0,0,0,0,0,0],"sum_hessian":[5.1E1,1E0,5E1,4.7E1,3E0,4.3E1,4E0,2E0,1E0,4E1,3E0,3E0,1E0,1E0,2E0],"tree_param":{"num_deleted":"0","num_feature":"70","num_nodes":"15","size_leaf_vector":"0"}},{"base_weights":[8.3054946E-4,6.729126E-3,5.8294745E-4,3.3076605E-4,3.4633875E-3,2.0738081E-4,1.3504028E-3,8.598963E-5,6.7977905E-3,3.2648546E-4,-2.1457672E-5,2.4986267E-4,2.8762817E-3,1.0910034E-3,2.6021685E-4],"categories":[],"categories_nodes":[],"categories_segments":[],"categories_sizes":[],"default_left":[true,false,true,true,true,true,true,false,false,true,false,false,false,false,false],"id":41,"left_children":[1,-1,3,5,7,9,11,-1,-1,13,-1,-1,-1,-1,-1],"loss_changes":[7.202324E-5,0E0,3.590049E-5,5.7587417E-6,4.4461885E-5,1.2062577E-6,7.67778E-6,7.7896317E-7,0E0,1.1853454E-6,8.890427E-7,7.7486516E-7,0E0,0E0,7.4464026E-7],"parents":[2147483647,0,0,2,2,3,3,4,4,5,5,6,6,9,9],"right_children":[2,-1,4,6,8,10,12,-1,-1,14,-1,-1,-1,-1,-1],"split_conditions":[1.68865E5,2.0187378E-3,2.2252095E0,4.6851997E1,9.815E-1,1.1507405E-2,4.3891E1,2.5796891E-5,2.0393373E-3,9.665E-1,-6.437302E-6,7.495881E-5,8.6288457E-4,3.2730104E-4,7.806506E-5],"split_indices":[33,0,61,67,18,21,7,0,0,58,0,0,0,0,0],"split_type":[0,0,0,0,0,0,0,0,0,0,0,0,0,0,0],"sum_hessian":[5.1E1,1E0,5E1,4.7E1,3E0,4.3E1,4E0,2E0,1E0,2.8E1,1.5E1,3E0,1E0,1E0,2.7E1],"tree_param":{"num_deleted":"0","num_feature":"70","num_nodes":"15","size_leaf_vector":"0"}},{"base_weights":[6.867464E-4,5.718231E-3,4.7596762E-4,2.6063123E-4,2.9410124E-3,7.454554E-5,7.558969E-4,6.850561E-5,5.7792664E-3,9.3684475E-6,7.883708E-4,2.8922342E-4,2.2150676E-3],"categories":[],"categories_nodes":[],"categories_segments":[],"categories_sizes":[],"default_left":[true,false,true,true,true,true,true,false,false,false,false,false,false],"id":42,"left_children":[1,-1,3,5,7,9,11,-1,-1,-1,-1,-1,-1],"loss_changes":[5.2425872E-5,0E0,2.6304986E-5,4.367421E-6,3.2215703E-5,1.6675161E-6,8.211781E-6,7.801446E-7,0E0,8.1539923E-7,0E0,5.292737E-7,0E0],"parents":[2147483647,0,0,2,2,3,3,4,4,5,5,6,6],"right_children":[2,-1,4,6,8,10,12,-1,-1,-1,-1,-1,-1],"split_conditions":[1.68865E5,1.7154694E-3,2.2252095E0,9.87705E1,9.815E-1,9.9292496E1,4.321054E3,2.0551683E-5,1.73378E-3,2.8105344E-6,2.3651125E-4,8.676703E-5,6.645203E-4],"split_indices":[33,0,61,69,18,49,12,0,0,0,0,0,0],"split_type":[0,0,0,0,0,0,0,0,0,0,0,0,0],"sum_hessian":[5.1E1,1E0,5E1,4.7E1,3E0,3.5E1,1.2E1,2E0,1E0,3.3E1,2E0,1E1,2E0],"tree_param":{"num_deleted":"0","num_feature":"70","num_nodes":"13","size_leaf_vector":"0"}},{"base_weights":[5.6813314E-4,4.8599243E-3,3.8868774E-4,2.0480156E-4,2.4981499E-3,1.1374734E-4,9.651184E-4,5.531311E-5,4.91333E-3,1.4972687E-4,2.1133423E-3],"categories":[],"categories_nodes":[],"categories_segments":[],"categories_sizes":[],"default_left":[true,false,true,true,true,false,true,false,false,false,false],"id":43,"left_children":[1,-1,3,5,7,-1,9,-1,-1,-1,-1],"loss_changes":[3.81584E-5,0E0,1.9271323E-5,3.213263E-6,2.3327793E-5,8.581619E-7,4.364836E-6,7.8263656E-7,0E0,6.7939374E-7,0E0],"parents":[2147483647,0,0,2,2,3,3,4,4,6,6],"right_children":[2,-1,4,6,8,-1,10,-1,-1,-1,-1],"split_conditions":[1.68865E5,1.4579773E-3,2.2252095E0,4.6851997E1,9.815E-1,3.41242E-5,4.3891E1,1.6593935E-5,1.4739991E-3,4.4918062E-5,6.3400273E-4],"split_indices":[33,0,61,67,18,0,7,0,0,0,0],"split_type":[0,0,0,0,0,0,0,0,0,0,0],"sum_hessian":[5.1E1,1E0,5E1,4.7E1,3E0,4.3E1,4E0,2E0,1E0,3E0,1E0],"tree_param":{"num_deleted":"0","num_feature":"70","num_nodes":"11","size_leaf_vector":"0"}},{"base_weights":[4.70393E-4,4.131317E-3,3.1760393E-4,1.6061465E-4,2.1220744E-3,4.9114227E-5,6.38326E-4,4.4703484E-5,4.1770935E-3,1.1705671E-4,-3.5540262E-4,6.993612E-5,1.3313293E-3],"categories":[],"categories_nodes":[],"categories_segments":[],"categories_sizes":[],"default_left":[true,false,true,true,true,true,true,false,false,false,false,false,false],"id":44,"left_children":[1,-1,3,5,7,9,11,-1,-1,-1,-1,-1,-1],"loss_changes":[2.777403E-5,0E0,1.4106572E-5,2.5253698E-6,1.6889417E-5,1.1409575E-6,3.4519567E-6,7.845946E-7,0E0,8.669967E-7,0E0,1.4600421E-7,3.6646588E-7],"parents":[2147483647,0,0,2,2,3,3,4,4,5,5,6,6],"right_children":[2,-1,4,6,8,10,12,-1,-1,-1,-1,-1,-1],"split_conditions":[1.68865E5,1.2393952E-3,2.2252095E0,9.90965E1,9.815E-1,4.5475998E1,5.5E0,1.3411046E-5,1.253128E-3,3.5117017E-5,-1.0662079E-4,2.0980837E-5,3.9939882E-4],"split_indices":[33,0,61,69,18,67,10,0,0,0,0,0,0],"split_type":[0,0,0,0,0,0,0,0,0,0,0,0,0],"sum_hessian":[5.1E1,1E0,5E1,4.7E1,3E0,3.9E1,8E0,2E0,1E0,3.4E1,5E0,5E0,3E0],"tree_param":{"num_deleted":"0","num_feature":"70","num_nodes":"13","size_leaf_vector":"0"}},{"base_weights":[3.8283603E-4,3.5133362E-3,2.5256476E-4,1.1817614E-4,1.8020868E-3,4.8192343E-4,-2.989898E-6,3.5127003E-5,3.5514832E-3,2.5749207E-5,1.1154175E-3,-1.21505174E-4,2.8818304E-4],"categories":[],"categories_nodes":[],"categories_segments":[],"categories_sizes":[],"default_left":[true,false,true,true,true,true,true,false,false,false,false,false,false],"id":45,"left_children":[1,-1,3,5,7,9,11,-1,-1,-1,-1,-1,-1],"loss_changes":[2.0319001E-5,0E0,1.04071805E-5,2.1169842E-6,1.2239699E-5,3.439083E-6,1.3118281E-6,7.835834E-7,0E0,1.3899553E-7,3.2744538E-7,8.2024656E-7,5.486396E-7],"parents":[2147483647,0,0,2,2,3,3,4,4,5,5,6,6],"right_children":[2,-1,4,6,8,10,12,-1,-1,-1,-1,-1,-1],"split_conditions":[1.68865E5,1.0540009E-3,2.2252095E0,9.7749996E-1,9.815E-1,4.4305E1,9.9019E1,1.0538101E-5,1.065445E-3,7.724762E-6,3.3462525E-4,-3.6451554E-5,8.6454915E-5],"split_indices":[33,0,61,48,18,17,49,0,0,0,0,0,0],"split_type":[0,0,0,0,0,0,0,0,0,0,0,0,0],"sum_hessian":[5.1E1,1E0,5E1,4.7E1,3E0,1.1E1,3.6E1,2E0,1E0,7E0,4E0,2.6E1,1E1],"tree_param":{"num_deleted":"0","num_feature":"70","num_nodes":"13","size_leaf_vector":"0"}},{"base_weights":[3.175277E-4,2.986908E-3,2.0662008E-4,9.2069306E-5,1.5295744E-3,3.7384033E-4,-1.223882E-5,2.78155E-5,3.0174255E-3,1.6657512E-4,1.4305115E-3,7.324219E-4,-5.4441178E-5],"categories":[],"categories_nodes":[],"categories_segments":[],"categories_sizes":[],"default_left":[true,false,true,true,true,true,true,false,false,false,false,false,false],"id":46,"left_children":[1,-1,3,5,7,9,11,-1,-1,-1,-1,-1,-1],"loss_changes":[1.4777684E-5,0E0,7.5879907E-6,1.4153437E-6,8.8536435E-6,2.6088578E-6,1.1712257E-6,7.830841E-7,0E0,4.7558373E-7,0E0,0E0,4.878466E-7],"parents":[2147483647,0,0,2,2,3,3,4,4,5,5,6,6],"right_children":[2,-1,4,6,8,10,12,-1,-1,-1,-1,-1,-1],"split_conditions":[1.68865E5,8.960724E-4,2.2252095E0,4.2743E1,9.815E-1,7.9569443E3,3.9044E1,8.34465E-6,9.052277E-4,4.997254E-5,4.2915347E-4,2.1972657E-4,-1.6332355E-5],"split_indices":[33,0,61,47,18,12,67,0,0,0,0,0,0],"split_type":[0,0,0,0,0,0,0,0,0,0,0,0,0],"sum_hessian":[5.1E1,1E0,5E1,4.7E1,3E0,1.2E1,3.5E1,2E0,1E0,1.1E1,1E0,1E0,3.4E1],"tree_param":{"num_deleted":"0","num_feature":"70","num_nodes":"13","size_leaf_vector":"0"}},{"base_weights":[2.689866E-4,2.5405884E-3,1.7462992E-4,7.7327095E-5,1.2986064E-3,5.054474E-6,3.8994683E-4,2.249082E-5,2.5634766E-3,1.3446808E-4,1.2168884E-3],"categories":[],"categories_nodes":[],"categories_segments":[],"categories_sizes":[],"default_left":[true,false,true,true,true,false,true,false,false,false,false],"id":47,"left_children":[1,-1,3,5,7,-1,9,-1,-1,-1,-1],"loss_changes":[1.0702058E-5,0E0,5.4772536E-6,1.0825337E-6,6.3988277E-6,5.147791E-7,1.7377614E-6,7.8391827E-7,0E0,2.3564644E-7,0E0],"parents":[2147483647,0,0,2,2,3,3,4,4,6,6],"right_children":[2,-1,4,6,8,-1,10,-1,-1,-1,-1],"split_conditions":[1.68865E5,7.621765E-4,2.2252095E0,9.90965E1,9.815E-1,1.5163423E-6,9E0,6.747246E-6,7.69043E-4,4.0340426E-5,3.6506655E-4],"split_indices":[33,0,61,69,18,0,0,0,0,0,0],"split_type":[0,0,0,0,0,0,0,0,0,0,0],"sum_hessian":[5.1E1,1E0,5E1,4.7E1,3E0,3.9E1,8E0,2E0,1E0,7E0,1E0],"tree_param":{"num_deleted":"0","num_feature":"70","num_nodes":"11","size_leaf_vector":"0"}},{"base_weights":[2.2700429E-4,2.1591187E-3,1.4678403E-4,6.4094864E-5,1.1023581E-3,-4.2933226E-4,1.7560323E-3],"categories":[],"categories_nodes":[],"categories_segments":[],"categories_sizes":[],"default_left":[true,false,true,false,true,false,false],"id":48,"left_children":[1,-1,3,-1,5,-1,-1],"loss_changes":[7.742801E-6,0E0,3.9591414E-6,9.113891E-7,4.7588273E-6,0E0,6.5370386E-7],"parents":[2147483647,0,0,2,2,4,4],"right_children":[2,-1,4,-1,6,-1,-1],"split_conditions":[1.68865E5,6.477356E-4,2.2252095E0,1.922846E-5,3.5E0,-1.2879969E-4,5.268097E-4],"split_indices":[33,0,61,0,0,0,0],"split_type":[0,0,0,0,0,0,0],"sum_hessian":[5.1E1,1E0,5E1,4.7E1,3E0,1E0,2E0],"tree_param":{"num_deleted":"0","num_feature":"70","num_nodes":"7","size_leaf_vector":"0"}},{"base_weights":[1.7688137E-4,1.8348694E-3,1.0839397E-4,4.2557716E-5,8.713305E-4,-1.1487802E-4,1.914978E-3],"categories":[],"categories_nodes":[],"categories_segments":[],"categories_sizes":[],"default_left":[true,false,true,false,true,false,false],"id":49,"left_children":[1,-1,3,-1,5,-1,-1],"loss_changes":[5.705778E-6,0E0,2.524591E-6,8.999616E-7,4.337005E-6,3.0102166E-7,0E0],"parents":[2147483647,0,0,2,2,4,4],"right_children":[2,-1,4,-1,6,-1,-1],"split_conditions":[1.68865E5,5.504608E-4,2.2252095E0,1.2767316E-5,9.815E-1,-3.4463406E-5,5.7449343E-4],"split_indices":[33,0,61,0,18,0,0],"split_type":[0,0,0,0,0,0,0],"sum_hessian":[5.1E1,1E0,5E1,4.7E1,3E0,2E0,1E0],"tree_param":{"num_deleted":"0","num_feature":"70","num_nodes":"7","size_leaf_vector":"0"}},{"base_weights":[1.4361509E-4,1.5602112E-3,8.524633E-5,3.513537E-4,-7.0550224E-5,8.637564E-5,9.1107684E-4,4.4822693E-5,1.7623901E-3],"categories":[],"categories_nodes":[],"categories_segments":[],"categories_sizes":[],"default_left":[true,false,true,true,false,false,true,false,false],"id":50,"left_children":[1,-1,3,5,-1,-1,7,-1,-1],"loss_changes":[4.1666162E-6,0E0,2.139177E-6,2.7392778E-6,5.050472E-7,8.16687E-7,4.345727E-6,3.6469402E-7,0E0],"parents":[2147483647,0,0,2,2,3,3,6,6],"right_children":[2,-1,4,6,-1,-1,8,-1,-1],"split_conditions":[1.68865E5,4.6806337E-4,4.34585E1,7.5E0,-2.1165068E-5,2.5912694E-5,9.76E-1,1.3446808E-5,5.2871706E-4],"split_indices":[33,0,27,20,0,0,18,0,0],"split_type":[0,0,0,0,0,0,0,0,0],"sum_hessian":[5.1E1,1E0,5E1,1.8E1,3.2E1,1.3E1,5E0,3E0,2E0],"tree_param":{"num_deleted":"0","num_feature":"70","num_nodes":"9","size_leaf_vector":"0"}},{"base_weights":[1.2161182E-4,1.3275146E-3,7.1936964E-5,1.6342722E-4,-2.7561188E-4,9.1699454E-5,1.0414124E-3],"categories":[],"categories_nodes":[],"categories_segments":[],"categories_sizes":[],"default_left":[true,false,true,true,false,false,false],"id":51,"left_children":[1,-1,3,5,-1,-1,-1],"loss_changes":[3.019461E-6,0E0,1.6667063E-6,2.4865153E-6,1.960683E-7,7.4137694E-7,5.536349E-7],"parents":[2147483647,0,0,2,2,3,3],"right_children":[2,-1,4,6,-1,-1,-1],"split_conditions":[1.68865E5,3.982544E-4,7.1835005E-1,2.2252095E0,-8.268357E-5,2.7509837E-5,3.124237E-4],"split_indices":[33,0,41,61,0,0,0],"split_type":[0,0,0,0,0,0,0],"sum_hessian":[5.1E1,1E0,5E1,4E1,1E1,3.8E1,2E0],"tree_param":{"num_deleted":"0","num_feature":"70","num_nodes":"7","size_leaf_vector":"0"}},{"base_weights":[9.6279844E-5,1.1291504E-3,5.3887274E-5,-3.487636E-5,3.16033E-4,9.2773436E-4,-5.891588E-5],"categories":[],"categories_nodes":[],"categories_segments":[],"categories_sizes":[],"default_left":[true,false,true,false,true,false,false],"id":52,"left_children":[1,-1,3,-1,5,-1,-1],"loss_changes":[2.216027E-6,0E0,1.1977414E-6,6.737061E-7,3.0362958E-6,9.294913E-7,1.5550361E-7],"parents":[2147483647,0,0,2,2,4,4],"right_children":[2,-1,4,-1,6,-1,-1],"split_conditions":[1.68865E5,3.3874513E-4,5.7036406E3,-1.0462909E-5,7.95626E3,2.783203E-4,-1.7674765E-5],"split_indices":[33,0,62,0,2,0,0],"split_type":[0,0,0,0,0,0,0],"sum_hessian":[5.1E1,1E0,5E1,3.8E1,1.2E1,4E0,8E0],"tree_param":{"num_deleted":"0","num_feature":"70","num_nodes":"7","size_leaf_vector":"0"}},{"base_weights":[7.751813E-5,3.1842684E-4,-5.9387265E-5,1.3554891E-3,1.1668486E-4],"categories":[],"categories_nodes":[],"categories_segments":[],"categories_sizes":[],"default_left":[true,true,false,false,false],"id":53,"left_children":[1,3,-1,-1,-1],"loss_changes":[1.7339589E-6,3.8169956E-6,3.847161E-7,0E0,8.3778E-7],"parents":[2147483647,0,0,1,1],"right_children":[2,4,-1,-1,-1],"split_conditions":[4.33435E1,2.38647E2,-1.781618E-5,4.0664675E-4,3.5005458E-5],"split_indices":[27,32,0,0,0],"split_type":[0,0,0,0,0],"sum_hessian":[5.1E1,1.8E1,3.3E1,2E0,1.6E1],"tree_param":{"num_deleted":"0","num_feature":"70","num_nodes":"5","size_leaf_vector":"0"}},{"base_weights":[6.0803613E-5,-1.1882895E-4,1.7678738E-4,5.208529E-4,-5.569458E-5,9.409587E-4,1.4066696E-4],"categories":[],"categories_nodes":[],"categories_segments":[],"categories_sizes":[],"default_left":[true,false,true,true,false,false,false],"id":54,"left_children":[1,-1,3,5,-1,-1,-1],"loss_changes":[1.1043994E-6,7.102286E-7,2.5886575E-6,1.943976E-6,2.7536032E-7,8.292577E-7,1.9728265E-7],"parents":[2147483647,0,0,2,2,3,3],"right_children":[2,-1,4,6,-1,-1,-1],"split_conditions":[4.3832E1,-3.564869E-5,4.6065002E1,4.33435E1,-1.6708374E-5,2.8228763E-4,4.220009E-5],"split_indices":[7,0,7,27,0,0,0],"split_type":[0,0,0,0,0,0,0],"sum_hessian":[5.1E1,2E1,3.1E1,1.2E1,1.9E1,5E0,7E0],"tree_param":{"num_deleted":"0","num_feature":"70","num_nodes":"7","size_leaf_vector":"0"}},{"base_weights":[4.7293994E-5],"categories":[],"categories_nodes":[],"categories_segments":[],"categories_sizes":[],"default_left":[false],"id":55,"left_children":[-1],"loss_changes":[7.5557176E-7],"parents":[2147483647],"right_children":[-1],"split_conditions":[1.4188198E-5],"split_indices":[0],"split_type":[0],"sum_hessian":[5.1E1],"tree_param":{"num_deleted":"0","num_feature":"70","num_nodes":"1","size_leaf_vector":"0"}},{"base_weights":[3.2385953E-5],"categories":[],"categories_nodes":[],"categories_segments":[],"categories_sizes":[],"default_left":[false],"id":56,"left_children":[-1],"loss_changes":[7.58642E-7],"parents":[2147483647],"right_children":[-1],"split_conditions":[9.715786E-6],"split_indices":[0],"split_type":[0],"sum_hessian":[5.1E1],"tree_param":{"num_deleted":"0","num_feature":"70","num_nodes":"1","size_leaf_vector":"0"}},{"base_weights":[2.401838E-5],"categories":[],"categories_nodes":[],"categories_segments":[],"categories_sizes":[],"default_left":[false],"id":57,"left_children":[-1],"loss_changes":[7.604027E-7],"parents":[2147483647],"right_children":[-1],"split_conditions":[7.205514E-6],"split_indices":[0],"split_type":[0],"sum_hessian":[5.1E1],"tree_param":{"num_deleted":"0","num_feature":"70","num_nodes":"1","size_leaf_vector":"0"}},{"base_weights":[1.6544875E-5],"categories":[],"categories_nodes":[],"categories_segments":[],"categories_sizes":[],"default_left":[false],"id":58,"left_children":[-1],"loss_changes":[7.613836E-7],"parents":[2147483647],"right_children":[-1],"split_conditions":[4.9634627E-6],"split_indices":[0],"split_type":[0],"sum_hessian":[5.1E1],"tree_param":{"num_deleted":"0","num_feature":"70","num_nodes":"1","size_leaf_vector":"0"}},{"base_weights":[9.9562685E-6],"categories":[],"categories_nodes":[],"categories_segments":[],"categories_sizes":[],"default_left":[false],"id":59,"left_children":[-1],"loss_changes":[7.617159E-7],"parents":[2147483647],"right_children":[-1],"split_conditions":[2.9868806E-6],"split_indices":[0],"split_type":[0],"sum_hessian":[5.1E1],"tree_param":{"num_deleted":"0","num_feature":"70","num_nodes":"1","size_leaf_vector":"0"}},{"base_weights":[9.018641E-6],"categories":[],"categories_nodes":[],"categories_segments":[],"categories_sizes":[],"default_left":[false],"id":60,"left_children":[-1],"loss_changes":[7.6185347E-7],"parents":[2147483647],"right_children":[-1],"split_conditions":[2.7055926E-6],"split_indices":[0],"split_type":[0],"sum_hessian":[5.1E1],"tree_param":{"num_deleted":"0","num_feature":"70","num_nodes":"1","size_leaf_vector":"0"}},{"base_weights":[8.122279E-6],"categories":[],"categories_nodes":[],"categories_segments":[],"categories_sizes":[],"default_left":[false],"id":61,"left_children":[-1],"loss_changes":[7.625073E-7],"parents":[2147483647],"right_children":[-1],"split_conditions":[2.4366836E-6],"split_indices":[0],"split_type":[0],"sum_hessian":[5.1E1],"tree_param":{"num_deleted":"0","num_feature":"70","num_nodes":"1","size_leaf_vector":"0"}},{"base_weights":[7.2327944E-6],"categories":[],"categories_nodes":[],"categories_segments":[],"categories_sizes":[],"default_left":[false],"id":62,"left_children":[-1],"loss_changes":[7.6309E-7],"parents":[2147483647],"right_children":[-1],"split_conditions":[2.1698384E-6],"split_indices":[0],"split_type":[0],"sum_hessian":[5.1E1],"tree_param":{"num_deleted":"0","num_feature":"70","num_nodes":"1","size_leaf_vector":"0"}},{"base_weights":[6.3478947E-6],"categories":[],"categories_nodes":[],"categories_segments":[],"categories_sizes":[],"default_left":[false],"id":63,"left_children":[-1],"loss_changes":[7.6362505E-7],"parents":[2147483647],"right_children":[-1],"split_conditions":[1.9043684E-6],"split_indices":[0],"split_type":[0],"sum_hessian":[5.1E1],"tree_param":{"num_deleted":"0","num_feature":"70","num_nodes":"1","size_leaf_vector":"0"}},{"base_weights":[6.2745353E-6],"categories":[],"categories_nodes":[],"categories_segments":[],"categories_sizes":[],"default_left":[false],"id":64,"left_children":[-1],"loss_changes":[7.634316E-7],"parents":[2147483647],"right_children":[-1],"split_conditions":[1.8823606E-6],"split_indices":[0],"split_type":[0],"sum_hessian":[5.1E1],"tree_param":{"num_deleted":"0","num_feature":"70","num_nodes":"1","size_leaf_vector":"0"}},{"base_weights":[6.2011754E-6],"categories":[],"categories_nodes":[],"categories_segments":[],"categories_sizes":[],"default_left":[false],"id":65,"left_children":[-1],"loss_changes":[7.6323823E-7],"parents":[2147483647],"right_children":[-1],"split_conditions":[1.8603527E-6],"split_indices":[0],"split_type":[0],"sum_hessian":[5.1E1],"tree_param":{"num_deleted":"0","num_feature":"70","num_nodes":"1","size_leaf_vector":"0"}},{"base_weights":[6.127816E-6],"categories":[],"categories_nodes":[],"categories_segments":[],"categories_sizes":[],"default_left":[false],"id":66,"left_children":[-1],"loss_changes":[7.6304485E-7],"parents":[2147483647],"right_children":[-1],"split_conditions":[1.8383449E-6],"split_indices":[0],"split_type":[0],"sum_hessian":[5.1E1],"tree_param":{"num_deleted":"0","num_feature":"70","num_nodes":"1","size_leaf_vector":"0"}},{"base_weights":[6.056749E-6],"categories":[],"categories_nodes":[],"categories_segments":[],"categories_sizes":[],"default_left":[false],"id":67,"left_children":[-1],"loss_changes":[7.6282834E-7],"parents":[2147483647],"right_children":[-1],"split_conditions":[1.8170248E-6],"split_indices":[0],"split_type":[0],"sum_hessian":[5.1E1],"tree_param":{"num_deleted":"0","num_feature":"70","num_nodes":"1","size_leaf_vector":"0"}},{"base_weights":[5.985682E-6],"categories":[],"categories_nodes":[],"categories_segments":[],"categories_sizes":[],"default_left":[false],"id":68,"left_children":[-1],"loss_changes":[7.626118E-7],"parents":[2147483647],"right_children":[-1],"split_conditions":[1.7957046E-6],"split_indices":[0],"split_type":[0],"sum_hessian":[5.1E1],"tree_param":{"num_deleted":"0","num_feature":"70","num_nodes":"1","size_leaf_vector":"0"}},{"base_weights":[5.9146146E-6],"categories":[],"categories_nodes":[],"categories_segments":[],"categories_sizes":[],"default_left":[false],"id":69,"left_children":[-1],"loss_changes":[7.623953E-7],"parents":[2147483647],"right_children":[-1],"split_conditions":[1.7743845E-6],"split_indices":[0],"split_type":[0],"sum_hessian":[5.1E1],"tree_param":{"num_deleted":"0","num_feature":"70","num_nodes":"1","size_leaf_vector":"0"}},{"base_weights":[5.8435476E-6],"categories":[],"categories_nodes":[],"categories_segments":[],"categories_sizes":[],"default_left":[false],"id":70,"left_children":[-1],"loss_changes":[7.6217884E-7],"parents":[2147483647],"right_children":[-1],"split_conditions":[1.7530643E-6],"split_indices":[0],"split_type":[0],"sum_hessian":[5.1E1],"tree_param":{"num_deleted":"0","num_feature":"70","num_nodes":"1","size_leaf_vector":"0"}},{"base_weights":[5.7724806E-6],"categories":[],"categories_nodes":[],"categories_segments":[],"categories_sizes":[],"default_left":[false],"id":71,"left_children":[-1],"loss_changes":[7.6196244E-7],"parents":[2147483647],"right_children":[-1],"split_conditions":[1.7317442E-6],"split_indices":[0],"split_type":[0],"sum_hessian":[5.1E1],"tree_param":{"num_deleted":"0","num_feature":"70","num_nodes":"1","size_leaf_vector":"0"}},{"base_weights":[5.7014136E-6],"categories":[],"categories_nodes":[],"categories_segments":[],"categories_sizes":[],"default_left":[false],"id":72,"left_children":[-1],"loss_changes":[7.6174604E-7],"parents":[2147483647],"right_children":[-1],"split_conditions":[1.7104242E-6],"split_indices":[0],"split_type":[0],"sum_hessian":[5.1E1],"tree_param":{"num_deleted":"0","num_feature":"70","num_nodes":"1","size_leaf_vector":"0"}},{"base_weights":[5.632639E-6],"categories":[],"categories_nodes":[],"categories_segments":[],"categories_sizes":[],"default_left":[false],"id":73,"left_children":[-1],"loss_changes":[7.6150644E-7],"parents":[2147483647],"right_children":[-1],"split_conditions":[1.6897917E-6],"split_indices":[0],"split_type":[0],"sum_hessian":[5.1E1],"tree_param":{"num_deleted":"0","num_feature":"70","num_nodes":"1","size_leaf_vector":"0"}},{"base_weights":[5.5638643E-6],"categories":[],"categories_nodes":[],"categories_segments":[],"categories_sizes":[],"default_left":[false],"id":74,"left_children":[-1],"loss_changes":[7.612668E-7],"parents":[2147483647],"right_children":[-1],"split_conditions":[1.6691594E-6],"split_indices":[0],"split_type":[0],"sum_hessian":[5.1E1],"tree_param":{"num_deleted":"0","num_feature":"70","num_nodes":"1","size_leaf_vector":"0"}},{"base_weights":[5.4950897E-6],"categories":[],"categories_nodes":[],"categories_segments":[],"categories_sizes":[],"default_left":[false],"id":75,"left_children":[-1],"loss_changes":[7.6102725E-7],"parents":[2147483647],"right_children":[-1],"split_conditions":[1.648527E-6],"split_indices":[0],"split_type":[0],"sum_hessian":[5.1E1],"tree_param":{"num_deleted":"0","num_feature":"70","num_nodes":"1","size_leaf_vector":"0"}},{"base_weights":[5.426315E-6],"categories":[],"categories_nodes":[],"categories_segments":[],"categories_sizes":[],"default_left":[false],"id":76,"left_children":[-1],"loss_changes":[7.6078777E-7],"parents":[2147483647],"right_children":[-1],"split_conditions":[1.6278946E-6],"split_indices":[0],"split_type":[0],"sum_hessian":[5.1E1],"tree_param":{"num_deleted":"0","num_feature":"70","num_nodes":"1","size_leaf_vector":"0"}},{"base_weights":[5.3575404E-6],"categories":[],"categories_nodes":[],"categories_segments":[],"categories_sizes":[],"default_left":[false],"id":77,"left_children":[-1],"loss_changes":[7.605483E-7],"parents":[2147483647],"right_children":[-1],"split_conditions":[1.6072622E-6],"split_indices":[0],"split_type":[0],"sum_hessian":[5.1E1],"tree_param":{"num_deleted":"0","num_feature":"70","num_nodes":"1","size_leaf_vector":"0"}},{"base_weights":[5.2910586E-6],"categories":[],"categories_nodes":[],"categories_segments":[],"categories_sizes":[],"default_left":[false],"id":78,"left_children":[-1],"loss_changes":[7.602857E-7],"parents":[2147483647],"right_children":[-1],"split_conditions":[1.5873177E-6],"split_indices":[0],"split_type":[0],"sum_hessian":[5.1E1],"tree_param":{"num_deleted":"0","num_feature":"70","num_nodes":"1","size_leaf_vector":"0"}},{"base_weights":[5.2245764E-6],"categories":[],"categories_nodes":[],"categories_segments":[],"categories_sizes":[],"default_left":[false],"id":79,"left_children":[-1],"loss_changes":[7.6002317E-7],"parents":[2147483647],"right_children":[-1],"split_conditions":[1.567373E-6],"split_indices":[0],"split_type":[0],"sum_hessian":[5.1E1],"tree_param":{"num_deleted":"0","num_feature":"70","num_nodes":"1","size_leaf_vector":"0"}},{"base_weights":[5.158094E-6],"categories":[],"categories_nodes":[],"categories_segments":[],"categories_sizes":[],"default_left":[false],"id":80,"left_children":[-1],"loss_changes":[7.5976055E-7],"parents":[2147483647],"right_children":[-1],"split_conditions":[1.5474283E-6],"split_indices":[0],"split_type":[0],"sum_hessian":[5.1E1],"tree_param":{"num_deleted":"0","num_feature":"70","num_nodes":"1","size_leaf_vector":"0"}},{"base_weights":[5.0916124E-6],"categories":[],"categories_nodes":[],"categories_segments":[],"categories_sizes":[],"default_left":[false],"id":81,"left_children":[-1],"loss_changes":[7.594981E-7],"parents":[2147483647],"right_children":[-1],"split_conditions":[1.5274837E-6],"split_indices":[0],"split_type":[0],"sum_hessian":[5.1E1],"tree_param":{"num_deleted":"0","num_feature":"70","num_nodes":"1","size_leaf_vector":"0"}},{"base_weights":[5.02513E-6],"categories":[],"categories_nodes":[],"categories_segments":[],"categories_sizes":[],"default_left":[false],"id":82,"left_children":[-1],"loss_changes":[7.5923566E-7],"parents":[2147483647],"right_children":[-1],"split_conditions":[1.5075391E-6],"split_indices":[0],"split_type":[0],"sum_hessian":[5.1E1],"tree_param":{"num_deleted":"0","num_feature":"70","num_nodes":"1","size_leaf_vector":"0"}},{"base_weights":[4.958648E-6],"categories":[],"categories_nodes":[],"categories_segments":[],"categories_sizes":[],"default_left":[false],"id":83,"left_children":[-1],"loss_changes":[7.589733E-7],"parents":[2147483647],"right_children":[-1],"split_conditions":[1.4875944E-6],"split_indices":[0],"split_type":[0],"sum_hessian":[5.1E1],"tree_param":{"num_deleted":"0","num_feature":"70","num_nodes":"1","size_leaf_vector":"0"}},{"base_weights":[4.8944585E-6],"categories":[],"categories_nodes":[],"categories_segments":[],"categories_sizes":[],"default_left":[false],"id":84,"left_children":[-1],"loss_changes":[7.586877E-7],"parents":[2147483647],"right_children":[-1],"split_conditions":[1.4683376E-6],"split_indices":[0],"split_type":[0],"sum_hessian":[5.1E1],"tree_param":{"num_deleted":"0","num_feature":"70","num_nodes":"1","size_leaf_vector":"0"}},{"base_weights":[4.8302686E-6],"categories":[],"categories_nodes":[],"categories_segments":[],"categories_sizes":[],"default_left":[false],"id":85,"left_children":[-1],"loss_changes":[7.5840217E-7],"parents":[2147483647],"right_children":[-1],"split_conditions":[1.4490806E-6],"split_indices":[0],"split_type":[0],"sum_hessian":[5.1E1],"tree_param":{"num_deleted":"0","num_feature":"70","num_nodes":"1","size_leaf_vector":"0"}},{"base_weights":[4.766079E-6],"categories":[],"categories_nodes":[],"categories_segments":[],"categories_sizes":[],"default_left":[false],"id":86,"left_children":[-1],"loss_changes":[7.581168E-7],"parents":[2147483647],"right_children":[-1],"split_conditions":[1.4298238E-6],"split_indices":[0],"split_type":[0],"sum_hessian":[5.1E1],"tree_param":{"num_deleted":"0","num_feature":"70","num_nodes":"1","size_leaf_vector":"0"}},{"base_weights":[4.7018893E-6],"categories":[],"categories_nodes":[],"categories_segments":[],"categories_sizes":[],"default_left":[false],"id":87,"left_children":[-1],"loss_changes":[7.5783146E-7],"parents":[2147483647],"right_children":[-1],"split_conditions":[1.4105668E-6],"split_indices":[0],"split_type":[0],"sum_hessian":[5.1E1],"tree_param":{"num_deleted":"0","num_feature":"70","num_nodes":"1","size_leaf_vector":"0"}},{"base_weights":[4.6377E-6],"categories":[],"categories_nodes":[],"categories_segments":[],"categories_sizes":[],"default_left":[false],"id":88,"left_children":[-1],"loss_changes":[7.575461E-7],"parents":[2147483647],"right_children":[-1],"split_conditions":[1.39131E-6],"split_indices":[0],"split_type":[0],"sum_hessian":[5.1E1],"tree_param":{"num_deleted":"0","num_feature":"70","num_nodes":"1","size_leaf_vector":"0"}},{"base_weights":[4.57351E-6],"categories":[],"categories_nodes":[],"categories_segments":[],"categories_sizes":[],"default_left":[false],"id":89,"left_children":[-1],"loss_changes":[7.572608E-7],"parents":[2147483647],"right_children":[-1],"split_conditions":[1.372053E-6],"split_indices":[0],"split_type":[0],"sum_hessian":[5.1E1],"tree_param":{"num_deleted":"0","num_feature":"70","num_nodes":"1","size_leaf_vector":"0"}},{"base_weights":[4.5093207E-6],"categories":[],"categories_nodes":[],"categories_segments":[],"categories_sizes":[],"default_left":[false],"id":90,"left_children":[-1],"loss_changes":[7.5697557E-7],"parents":[2147483647],"right_children":[-1],"split_conditions":[1.3527963E-6],"split_indices":[0],"split_type":[0],"sum_hessian":[5.1E1],"tree_param":{"num_deleted":"0","num_feature":"70","num_nodes":"1","size_leaf_vector":"0"}},{"base_weights":[4.4474236E-6],"categories":[],"categories_nodes":[],"categories_segments":[],"categories_sizes":[],"default_left":[false],"id":91,"left_children":[-1],"loss_changes":[7.566673E-7],"parents":[2147483647],"right_children":[-1],"split_conditions":[1.3342271E-6],"split_indices":[0],"split_type":[0],"sum_hessian":[5.1E1],"tree_param":{"num_deleted":"0","num_feature":"70","num_nodes":"1","size_leaf_vector":"0"}},{"base_weights":[4.385526E-6],"categories":[],"categories_nodes":[],"categories_segments":[],"categories_sizes":[],"default_left":[false],"id":92,"left_children":[-1],"loss_changes":[7.563591E-7],"parents":[2147483647],"right_children":[-1],"split_conditions":[1.3156579E-6],"split_indices":[0],"split_type":[0],"sum_hessian":[5.1E1],"tree_param":{"num_deleted":"0","num_feature":"70","num_nodes":"1","size_leaf_vector":"0"}},{"base_weights":[4.323629E-6],"categories":[],"categories_nodes":[],"categories_segments":[],"categories_sizes":[],"default_left":[false],"id":93,"left_children":[-1],"loss_changes":[7.560509E-7],"parents":[2147483647],"right_children":[-1],"split_conditions":[1.2970888E-6],"split_indices":[0],"split_type":[0],"sum_hessian":[5.1E1],"tree_param":{"num_deleted":"0","num_feature":"70","num_nodes":"1","size_leaf_vector":"0"}},{"base_weights":[4.261732E-6],"categories":[],"categories_nodes":[],"categories_segments":[],"categories_sizes":[],"default_left":[false],"id":94,"left_children":[-1],"loss_changes":[7.5574275E-7],"parents":[2147483647],"right_children":[-1],"split_conditions":[1.2785197E-6],"split_indices":[0],"split_type":[0],"sum_hessian":[5.1E1],"tree_param":{"num_deleted":"0","num_feature":"70","num_nodes":"1","size_leaf_vector":"0"}},{"base_weights":[4.199835E-6],"categories":[],"categories_nodes":[],"categories_segments":[],"categories_sizes":[],"default_left":[false],"id":95,"left_children":[-1],"loss_changes":[7.554347E-7],"parents":[2147483647],"right_children":[-1],"split_conditions":[1.2599505E-6],"split_indices":[0],"split_type":[0],"sum_hessian":[5.1E1],"tree_param":{"num_deleted":"0","num_feature":"70","num_nodes":"1","size_leaf_vector":"0"}},{"base_weights":[4.137938E-6],"categories":[],"categories_nodes":[],"categories_segments":[],"categories_sizes":[],"default_left":[false],"id":96,"left_children":[-1],"loss_changes":[7.551266E-7],"parents":[2147483647],"right_children":[-1],"split_conditions":[1.2413815E-6],"split_indices":[0],"split_type":[0],"sum_hessian":[5.1E1],"tree_param":{"num_deleted":"0","num_feature":"70","num_nodes":"1","size_leaf_vector":"0"}},{"base_weights":[4.0783334E-6],"categories":[],"categories_nodes":[],"categories_segments":[],"categories_sizes":[],"default_left":[false],"id":97,"left_children":[-1],"loss_changes":[7.547956E-7],"parents":[2147483647],"right_children":[-1],"split_conditions":[1.2235E-6],"split_indices":[0],"split_type":[0],"sum_hessian":[5.1E1],"tree_param":{"num_deleted":"0","num_feature":"70","num_nodes":"1","size_leaf_vector":"0"}},{"base_weights":[4.0187288E-6],"categories":[],"categories_nodes":[],"categories_segments":[],"categories_sizes":[],"default_left":[false],"id":98,"left_children":[-1],"loss_changes":[7.5446474E-7],"parents":[2147483647],"right_children":[-1],"split_conditions":[1.2056187E-6],"split_indices":[0],"split_type":[0],"sum_hessian":[5.1E1],"tree_param":{"num_deleted":"0","num_feature":"70","num_nodes":"1","size_leaf_vector":"0"}},{"base_weights":[3.959124E-6],"categories":[],"categories_nodes":[],"categories_segments":[],"categories_sizes":[],"default_left":[false],"id":99,"left_children":[-1],"loss_changes":[7.541338E-7],"parents":[2147483647],"right_children":[-1],"split_conditions":[1.1877373E-6],"split_indices":[0],"split_type":[0],"sum_hessian":[5.1E1],"tree_param":{"num_deleted":"0","num_feature":"70","num_nodes":"1","size_leaf_vector":"0"}}]},"name":"gbtree"},"learner_model_param":{"base_score":"5E-1","num_class":"0","num_feature":"70"},"objective":{"name":"reg:squarederror","reg_loss_param":{"scale_pos_weight":"1"}}},"version":[1,5,2]}