{"learner":{"attributes":{"best_iteration":"99","best_ntree_limit":"100","scikit_learn":"{\"n_estimators\": 100, \"objective\": \"reg:squarederror\", \"max_depth\": 60, \"learning_rate\": null, \"verbosity\": null, \"booster\": null, \"tree_method\": null, \"gamma\": null, \"min_child_weight\": null, \"max_delta_step\": null, \"subsample\": null, \"colsample_bytree\": null, \"colsample_bylevel\": null, \"colsample_bynode\": null, \"reg_alpha\": null, \"reg_lambda\": null, \"scale_pos_weight\": null, \"base_score\": null, \"missing\": NaN, \"num_parallel_tree\": null, \"random_state\": null, \"n_jobs\": null, \"monotone_constraints\": null, \"interaction_constraints\": null, \"importance_type\": null, \"gpu_id\": null, \"validate_parameters\": null, \"predictor\": null, \"enable_categorical\": false, \"kwargs\": {\"nthread\": 1}, \"_estimator_type\": \"regressor\"}"},"feature_names":[],"feature_types":[],"gradient_booster":{"model":{"gbtree_model_param":{"num_trees":"100","size_leaf_vector":"0"},"tree_info":[0,0,0,0,0,0,0,0,0,0,0,0,0,0,0,0,0,0,0,0,0,0,0,0,0,0,0,0,0,0,0,0,0,0,0,0,0,0,0,0,0,0,0,0,0,0,0,0,0,0,0,0,0,0,0,0,0,0,0,0,0,0,0,0,0,0,0,0,0,0,0,0,0,0,0,0,0,0,0,0,0,0,0,0,0,0,0,0,0,0,0,0,0,0,0,0,0,0,0,0],"trees":[{"base_weights":[6.0247612E1,6.384849E1,1.0749528E0,6.684616E1,2.409976E1,2.9826844E-1,1.2344247E0,6.8254654E1,2.4375753E1,6.917738E1,1.475E1],"categories":[],"categories_nodes":[],"categories_segments":[],"categories_sizes":[],"default_left":[true,true,true,true,false,false,false,true,false,false,false],"id":0,"left_children":[1,3,5,7,-1,-1,-1,9,-1,-1,-1],"loss_changes":[1.10111875E4,4.227547E3,1.2724733E-1,1.0280938E3,0E0,0E0,0E0,1.1025625E3,0E0,0E0,0E0],"parents":[2147483647,0,0,1,1,2,2,3,3,7,7],"right_children":[2,4,6,8,-1,-1,-1,10,-1,-1,-1],"split_conditions":[1.193195E1,1.8813292E0,1.2050583E0,3.8470771E0,7.2299285E0,8.9480534E-2,3.703274E-1,4.9515805E0,7.3127265E0,2.0753216E1,4.425E0],"split_indices":[41,11,1,41,0,0,0,61,0,0,0],"split_type":[0,0,0,0,0,0,0,0,0,0,0],"sum_hessian":[5.1E1,4.8E1,3E0,4.4E1,4E0,1E0,2E0,4.2E1,2E0,4.1E1,1E0],"tree_param":{"num_deleted":"0","num_feature":"70","num_nodes":"11","size_leaf_vector":"0"}},{"base_weights":[4.2946033E1,4.5504574E1,8.674189E-1,4.844022E1,2.0970669E1,2.5352818E-1,9.8753977E-1,4.9997204E1,2.0760313E1,5.346862E0,2.2683493E1,5.1089115E1,1.9500603E1],"categories":[],"categories_nodes":[],"categories_segments":[],"categories_sizes":[],"default_left":[true,true,true,true,true,false,false,true,false,false,false,false,false],"id":1,"left_children":[1,3,5,7,9,-1,-1,11,-1,-1,-1,-1,-1],"loss_changes":[5.558836E3,2.5132969E3,4.459524E-2,8.1521875E2,6.604028E1,0E0,0E0,3.3571094E2,0E0,0E0,0E0,0E0,0E0],"parents":[2147483647,0,0,1,1,2,2,3,3,4,4,7,7],"right_children":[2,4,6,8,10,-1,-1,12,-1,-1,-1,-1,-1],"split_conditions":[1.193195E1,6.19016E-1,1.2050583E0,1.8113711E0,4.2964E1,7.6058455E-2,2.9626194E-1,3.8470771E0,6.228094E0,1.6040586E0,6.805048E0,1.53267355E1,5.850181E0],"split_indices":[41,11,1,21,17,0,0,41,0,0,0,0,0],"split_type":[0,0,0,0,0,0,0,0,0,0,0,0,0],"sum_hessian":[5.1E1,4.8E1,3E0,4.2E1,6E0,1E0,2E0,3.9E1,3E0,1E0,5E0,3.7E1,2E0],"tree_param":{"num_deleted":"0","num_feature":"70","num_nodes":"13","size_leaf_vector":"0"}},{"base_weights":[3.0758114E1,3.25841E1,7.0027333E-1,3.4857853E1,1.6573885E1,2.1549895E-1,7.9003185E-1,3.6617992E1,1.8194017E1,1.8818232E1,6.5605645E0,1.073135E1,3.703897E1],"categories":[],"categories_nodes":[],"categories_segments":[],"categories_sizes":[],"default_left":[true,true,true,true,true,false,false,true,false,false,false,false,false],"id":2,"left_children":[1,3,5,7,9,-1,-1,11,-1,-1,-1,-1,-1],"loss_changes":[2.831211E3,1.2060312E3,3.7994385E-3,5.6565625E2,5.6328613E1,0E0,0E0,5.7421875E0,0E0,0E0,0E0,0E0,0E0],"parents":[2147483647,0,0,1,1,2,2,3,3,4,4,7,7],"right_children":[2,4,6,8,10,-1,-1,12,-1,-1,-1,-1,-1],"split_conditions":[1.193195E1,2.0269072E-1,1.2050583E0,1.2151914E0,7.0819454E0,6.4649686E-2,2.3700957E-1,3.8183E1,5.458205E0,5.6454697E0,1.9681695E0,3.2194052E0,1.1111691E1],"split_indices":[41,11,1,21,11,0,0,47,0,0,0,0,0],"split_type":[0,0,0,0,0,0,0,0,0,0,0,0,0],"sum_hessian":[5.1E1,4.8E1,3E0,4.1E1,7E0,1E0,2E0,3.6E1,5E0,5E0,2E0,1E0,3.5E1],"tree_param":{"num_deleted":"0","num_feature":"70","num_nodes":"13","size_leaf_vector":"0"}},{"base_weights":[2.2063461E1,2.3368114E1,5.656062E-1,2.6343739E1,1.5584405E1,2.8264277E1,1.4898193E1,1.668608E1,5.248451E0,1.7219637E1,4.874918E0],"categories":[],"categories_nodes":[],"categories_segments":[],"categories_sizes":[],"default_left":[true,true,false,true,true,false,false,true,false,false,false],"id":3,"left_children":[1,3,-1,5,7,-1,-1,9,-1,-1,-1],"loss_changes":[1.4452363E3,7.243574E2,0E0,3.2628906E2,9.461377E1,0E0,0E0,4.282715E0,0E0,0E0,0E0],"parents":[2147483647,0,0,1,1,3,3,4,4,7,7],"right_children":[2,4,-1,6,8,-1,-1,10,-1,-1,-1],"split_conditions":[1.193195E1,3.299644E-1,1.6968186E-1,6.5711117E-1,7.0819454E0,8.479283E0,4.469458E0,1.6579135E4,1.5745355E0,5.165891E0,1.4624754E0],"split_indices":[41,51,0,61,11,0,0,12,0,0,0],"split_type":[0,0,0,0,0,0,0,0,0,0,0],"sum_hessian":[5.1E1,4.8E1,3E0,3.3E1,1.5E1,2.7E1,6E0,1.3E1,2E0,1.2E1,1E0],"tree_param":{"num_deleted":"0","num_feature":"70","num_nodes":"11","size_leaf_vector":"0"}},{"base_weights":[1.5854449E1,1.6789347E1,4.3834475E-1,1.786664E1,7.7732005E0,9.833318E-2,5.189042E-1,2.0075905E1,1.1856315E1,2.7734804E0,1.2341649E1],"categories":[],"categories_nodes":[],"categories_segments":[],"categories_sizes":[],"default_left":[true,true,true,true,false,false,false,false,true,false,false],"id":4,"left_children":[1,3,5,7,-1,-1,-1,-1,9,-1,-1],"loss_changes":[7.4208984E2,3.370586E2,5.8539093E-2,3.3294434E2,0E0,0E0,0E0,0E0,2.7485718E1,0E0,0E0],"parents":[2147483647,0,0,1,1,2,2,3,3,8,8],"right_children":[2,4,6,8,-1,-1,-1,-1,10,-1,-1],"split_conditions":[1.193195E1,8.6271167E-1,1.2050583E0,9.334685E-2,2.3319602E0,2.9499955E-2,1.5567127E-1,6.022772E0,2.5E0,8.320442E-1,3.7024949E0],"split_indices":[41,31,1,61,0,0,0,0,0,0,0],"split_type":[0,0,0,0,0,0,0,0,0,0,0],"sum_hessian":[5.1E1,4.8E1,3E0,4.2E1,6E0,1E0,2E0,2.9E1,1.3E1,1E0,1.2E1],"tree_param":{"num_deleted":"0","num_feature":"70","num_nodes":"11","size_leaf_vector":"0"}},{"base_weights":[1.1349546E1,1.2247961E1,2.4203784E0,1.3888519E1,8.201345E0,3.5313416E-1,4.369911E0,1.4479576E1,3.348447E0,4.1396003E0,9.210294E0,8.3583206E-2,4.1512337E-1],"categories":[],"categories_nodes":[],"categories_segments":[],"categories_sizes":[],"default_left":[true,true,true,true,true,true,false,false,false,false,false,false,false],"id":5,"left_children":[1,3,5,7,9,11,-1,-1,-1,-1,-1,-1,-1],"loss_changes":[3.875039E2,1.9811475E2,2.2637798E1,1.5086865E2,2.7442505E1,3.213966E-2,0E0,0E0,0E0,0E0,0E0,0E0,0E0],"parents":[2147483647,0,0,1,1,2,2,3,3,4,4,5,5],"right_children":[2,4,6,8,10,12,-1,-1,-1,-1,-1,-1,-1],"split_conditions":[3.8470771E0,1.3347724E-1,2.3260251E2,3.4135692E0,2.9476924E3,1.2050583E0,1.3109734E0,4.343873E0,1.0045341E0,1.2418802E0,2.7630882E0,2.5074963E-2,1.2453701E-1],"split_indices":[41,51,32,21,12,1,0,0,0,0,0,0,0],"split_type":[0,0,0,0,0,0,0,0,0,0,0,0,0],"sum_hessian":[5.1E1,4.6E1,5E0,3.1E1,1.5E1,3E0,2E0,2.9E1,2E0,4E0,1.1E1,1E0,2E0],"tree_param":{"num_deleted":"0","num_feature":"70","num_nodes":"13","size_leaf_vector":"0"}},{"base_weights":[8.152643E0,8.628552E0,2.8459692E-1,9.244078E0,3.6148212E0,7.104573E-2,3.3209872E-1,1.0366686E1,6.1781974E0,1.05261E1,2.871828E0,2.4323647E0,6.599806E0],"categories":[],"categories_nodes":[],"categories_segments":[],"categories_sizes":[],"default_left":[true,true,true,true,false,false,false,true,true,false,false,false,false],"id":6,"left_children":[1,3,5,7,-1,-1,-1,9,11,-1,-1,-1,-1],"loss_changes":[1.9225708E2,1.17802E2,1.6982108E-2,8.394922E1,0E0,0E0,0E0,5.614502E0,6.0567017E0,0E0,0E0,0E0,0E0],"parents":[2147483647,0,0,1,1,2,2,3,3,7,7,8,8],"right_children":[2,4,6,8,-1,-1,-1,10,12,-1,-1,-1,-1],"split_conditions":[1.193195E1,8.6271167E-1,1.2050583E0,9.334685E-2,1.0844464E0,2.131372E-2,9.962962E-2,3.3250697E0,5.5E0,3.1578302E0,8.615485E-1,7.2970945E-1,1.9799418E0],"split_indices":[41,31,1,61,0,0,0,41,0,0,0,0,0],"split_type":[0,0,0,0,0,0,0,0,0,0,0,0,0],"sum_hessian":[5.1E1,4.8E1,3E0,4.2E1,6E0,1E0,2E0,2.9E1,1.3E1,2.8E1,1E0,2E0,1.1E1],"tree_param":{"num_deleted":"0","num_feature":"70","num_nodes":"13","size_leaf_vector":"0"}},{"base_weights":[5.8594356E0,6.2710137E0,7.364003E-1,6.7193236E0,2.6852963E0,2.2945365E-1,1.3820934E0,7.055945E0,2.8171344E0,6.0388863E-2,2.6567897E-1,7.29998E0,1.77554E0],"categories":[],"categories_nodes":[],"categories_segments":[],"categories_sizes":[],"default_left":[true,true,true,true,false,true,false,true,false,false,false,false,false],"id":7,"left_children":[1,3,5,7,-1,9,-1,11,-1,-1,-1,-1,-1],"loss_changes":[1.0502551E2,5.9117188E1,1.3195336E0,3.5292114E1,0E0,8.453637E-3,0E0,3.6005615E1,0E0,0E0,0E0,0E0,0E0],"parents":[2147483647,0,0,1,1,2,2,3,3,5,5,7,7],"right_children":[2,4,6,8,-1,10,-1,12,-1,-1,-1,-1,-1],"split_conditions":[6.9913015E0,8.6271167E-1,6E0,2.1279786E0,8.055889E-1,1.2050583E0,4.1462806E-1,3.4135692E0,8.4514034E-1,1.811666E-2,7.9703696E-2,2.189994E0,5.3266203E-1],"split_indices":[41,31,0,51,0,1,0,21,0,0,0,0,0],"split_type":[0,0,0,0,0,0,0,0,0,0,0,0,0],"sum_hessian":[5.1E1,4.7E1,4E0,4.1E1,6E0,3E0,1E0,3.7E1,4E0,1E0,2E0,3.5E1,2E0],"tree_param":{"num_deleted":"0","num_feature":"70","num_nodes":"13","size_leaf_vector":"0"}},{"base_weights":[4.1955633E0,5.0107203E0,2.516042E0,5.452603E0,2.0398338E0,2.9415317E0,1.8507265E-1,5.8682485E0,2.2838542E0,3.1559803E0,9.6026105E-1,5.1330537E-2,2.1254317E-1,1.5957298E0,5.9797816E0],"categories":[],"categories_nodes":[],"categories_segments":[],"categories_sizes":[],"default_left":[true,true,true,true,false,true,true,true,false,false,false,false,false,false,false],"id":8,"left_children":[1,3,5,7,-1,9,11,13,-1,-1,-1,-1,-1,-1,-1],"loss_changes":[5.8584656E1,3.3512207E1,1.8299866E1,2.479303E1,0E0,3.7675323E0,3.7859082E-3,2.3710327E0,0E0,0E0,0E0,0E0,0E0,0E0,0E0],"parents":[2147483647,0,0,1,1,2,2,3,3,5,5,6,6,7,7],"right_children":[2,4,6,8,-1,10,12,14,-1,-1,-1,-1,-1,-1,-1],"split_conditions":[5.8140468E-2,3.941218E-1,1.193195E1,6.508408E-1,6.1195016E-1,9.643305E-1,1.2050583E0,2.023735E5,6.851563E-1,9.4679415E-1,2.8807834E-1,1.5399162E-2,6.3762955E-2,4.7871897E-1,1.7939346E0],"split_indices":[41,31,41,21,0,21,1,23,0,0,0,0,0,0,0],"split_type":[0,0,0,0,0,0,0,0,0,0,0,0,0,0,0],"sum_hessian":[5.1E1,3.3E1,1.8E1,2.8E1,5E0,1.5E1,3E0,2.4E1,4E0,1.3E1,2E0,1E0,2E0,1E0,2.3E1],"tree_param":{"num_deleted":"0","num_feature":"70","num_nodes":"15","size_leaf_vector":"0"}},{"base_weights":[3.030812E0,3.6124947E0,1.8303894E0,3.9188128E0,1.5298748E0,3.0975136E-1,2.2152429E0,4.1020217E0,9.636612E-1,5.7399035E-2,4.5885324E-1,2.3787704E0,7.682088E-1,2.460104E0,7.013836E-1],"categories":[],"categories_nodes":[],"categories_segments":[],"categories_sizes":[],"default_left":[true,true,true,true,false,true,true,false,false,false,false,true,false,false,false],"id":9,"left_children":[1,3,5,7,-1,9,11,-1,-1,-1,-1,13,-1,-1,-1],"loss_changes":[2.969751E1,1.5694824E1,1.0433052E1,1.1747925E1,0E0,1.6179326E-1,1.7220612E0,0E0,0E0,0E0,0E0,4.8088074E-2,0E0,0E0,0E0],"parents":[2147483647,0,0,1,1,2,2,3,3,5,5,6,6,11,11],"right_children":[2,4,6,8,-1,10,12,-1,-1,-1,-1,14,-1,-1,-1],"split_conditions":[5.8140468E-2,3.941218E-1,2.32578E2,3.4135692E0,4.5896247E-1,2.3743149E2,9.643305E-1,1.2306066E0,2.8909838E-1,1.7219711E-2,1.3765597E-1,6.0466E1,2.3046266E-1,7.380312E-1,2.1041508E-1],"split_indices":[41,31,32,21,0,2,21,0,0,0,0,7,0,0,0],"split_type":[0,0,0,0,0,0,0,0,0,0,0,0,0,0,0],"sum_hessian":[5.1E1,3.3E1,1.8E1,2.8E1,5E0,4E0,1.4E1,2.6E1,2E0,2E0,2E0,1.2E1,2E0,1.1E1,1E0],"tree_param":{"num_deleted":"0","num_feature":"70","num_nodes":"15","size_leaf_vector":"0"}},{"base_weights":[2.18527E0,9.5916873E-1,2.4543617E0,4.3644786E-1,1.7648182E0,2.8934426E0,1.5600147E0,6.1326253E-1,1.0631755E-1,2.9562356E0,6.3041115E-1,1.6901401E0,4.327577E-1,6.8286085E-1,1.6743469E-1,4.591922E-2,1.4375627E-1,3.0109878E0,7.9371643E-1,4.1378403E-1,1.7564919E0],"categories":[],"categories_nodes":[],"categories_segments":[],"categories_sizes":[],"default_left":[true,true,true,true,false,true,true,true,true,true,false,true,false,false,false,false,false,false,false,false,false],"id":10,"left_children":[1,3,5,7,-1,9,11,13,15,17,-1,19,-1,-1,-1,-1,-1,-1,-1,-1,-1],"loss_changes":[1.4802399E1,3.862177E0,1.1979187E1,4.0177453E-1,0E0,1.9731293E0,1.6155357E0,4.080975E-2,2.4437718E-3,6.885834E-1,0E0,4.5882797E-1,0E0,0E0,0E0,0E0,0E0,0E0,0E0,0E0,0E0],"parents":[2147483647,0,0,1,1,2,2,3,3,5,5,6,6,7,7,8,8,9,9,11,11],"right_children":[2,4,6,8,-1,10,12,14,16,18,-1,20,-1,-1,-1,-1,-1,-1,-1,-1,-1],"split_conditions":[2.014565E5,3.0194844E3,1.3347724E-1,1.193195E1,5.2944547E-1,1.768934E0,9.86185E1,7.5E0,2.5E0,6.1774E1,1.8912335E-1,3.299644E-1,1.2982732E-1,2.0485826E-1,5.023041E-2,1.3775767E-2,4.312688E-2,9.0329635E-1,2.3811494E-1,1.2413521E-1,5.269476E-1],"split_indices":[33,62,51,41,0,31,69,0,0,17,0,51,0,0,0,0,0,0,0,0,0],"split_type":[0,0,0,0,0,0,0,0,0,0,0,0,0,0,0,0,0,0,0,0,0],"sum_hessian":[5.1E1,1E1,4.1E1,7E0,3E0,2.6E1,1.5E1,4E0,3E0,2.5E1,1E0,1.3E1,2E0,3E0,1E0,2E0,1E0,2.4E1,1E0,1E0,1.2E1],"tree_param":{"num_deleted":"0","num_feature":"70","num_nodes":"21","size_leaf_vector":"0"}},{"base_weights":[1.586475E0,1.8854319E0,9.680008E-1,7.4862987E-1,2.0556173E0,1.9269378E-1,1.1619031E0,8.2141495E-1,1.923523E-1,2.3429468E0,1.0085096E0,3.6735337E-2,2.8442097E-1,7.807939E-1,1.4859145E0,5.702286E-1,2.400208E0,2.6837793E-1,1.2104906E0],"categories":[],"categories_nodes":[],"categories_segments":[],"categories_sizes":[],"default_left":[true,true,true,true,true,true,true,false,false,true,true,false,false,false,false,false,false,false,false],"id":11,"left_children":[1,3,5,7,9,11,13,-1,-1,15,17,-1,-1,-1,-1,-1,-1,-1,-1],"loss_changes":[7.789551E0,5.038986E0,2.63245E0,8.4931135E-2,6.3621826E0,6.1079845E-2,6.920624E-1,0E0,0E0,8.645172E-1,8.7107086E-1,0E0,0E0,0E0,0E0,0E0,0E0,0E0,0E0],"parents":[2147483647,0,0,1,1,2,2,3,3,4,4,5,5,6,6,9,9,10,10],"right_children":[2,4,6,8,10,12,14,-1,-1,16,18,-1,-1,-1,-1,-1,-1,-1,-1],"split_conditions":[5.8140468E-2,3.70353E2,2.32578E2,5.1276054E0,6.65684E-2,2.3743149E2,9.8099995E-1,2.464245E-1,5.770569E-2,1.5E0,4.16275E1,1.1020602E-2,8.532629E-2,2.3423818E-1,4.4577435E-1,1.7106858E-1,7.2006243E-1,8.051338E-2,3.631472E-1],"split_indices":[41,42,32,11,21,2,8,0,0,50,17,0,0,0,0,0,0,0,0],"split_type":[0,0,0,0,0,0,0,0,0,0,0,0,0,0,0,0,0,0,0],"sum_hessian":[5.1E1,3.3E1,1.8E1,5E0,2.8E1,4E0,1.4E1,4E0,1E0,2.1E1,7E0,2E0,2E0,8E0,6E0,1E0,2E1,2E0,5E0],"tree_param":{"num_deleted":"0","num_feature":"70","num_nodes":"19","size_leaf_vector":"0"}},{"base_weights":[1.1569804E0,1.236959E0,1.5778911E-1,1.366285E0,5.2473724E-1,2.9388228E-2,2.3359363E-1,7.75249E-1,1.4681638E0,5.852653E-1,2.0859273E-1,9.2631406E-1,2.147026E-1,1.5870903E0,8.981323E-1,1.6466295E0,5.817464E-1,2.3459625E-1,9.594094E-1],"categories":[],"categories_nodes":[],"categories_segments":[],"categories_sizes":[],"default_left":[true,true,true,true,true,false,false,true,true,false,false,false,false,true,true,false,false,false,false],"id":12,"left_children":[1,3,5,7,9,-1,-1,11,13,-1,-1,-1,-1,15,17,-1,-1,-1,-1],"loss_changes":[3.96035E0,3.704277E0,4.1801922E-2,1.2703705E0,5.0138235E-2,0E0,0E0,4.7854948E-1,8.117142E-1,0E0,0E0,0E0,0E0,5.983734E-1,1.0020256E-1,0E0,0E0,0E0,0E0],"parents":[2147483647,0,0,1,1,2,2,3,3,4,4,7,7,8,8,13,13,14,14],"right_children":[2,4,6,8,10,-1,-1,12,14,-1,-1,-1,-1,16,18,-1,-1,-1,-1],"split_conditions":[6.9913015E0,1.2633754E0,2.5E0,9.7195496E1,4.39685E1,8.8164685E-3,7.007809E-2,9.7800004E-1,2.6433593E-1,1.755796E-1,6.257782E-2,2.7789423E-1,6.441078E-2,1.1726677E0,3.8539177E-1,4.9398884E-1,1.7452392E-1,7.037888E-2,2.8782284E-1],"split_indices":[41,51,0,19,17,0,0,8,31,0,0,0,0,41,31,0,0,0,0],"split_type":[0,0,0,0,0,0,0,0,0,0,0,0,0,0,0,0,0,0,0],"sum_hessian":[5.1E1,4.7E1,4E0,3.9E1,8E0,2E0,2E0,7E0,3.2E1,6E0,2E0,5E0,2E0,2.5E1,7E0,2.3E1,2E0,1E0,6E0],"tree_param":{"num_deleted":"0","num_feature":"70","num_nodes":"19","size_leaf_vector":"0"}},{"base_weights":[8.423109E-1,9.4273114E-1,3.2627285E-1,3.209592E-1,1.0348845E0,1.01379916E-1,4.593048E-1,3.6838087E-1,1.8214643E-2,7.6798415E-1,1.2233505E0,1.705122E-2,1.1819929E-1,1.1810112E-1,5.039253E-1,1.0743128E0,5.67526E-1,3.232549E-1,1.3054025E0,1.545105E-1,5.890681E-1,1.3813157E0,4.6539816E-1,3.500023E-1,1.4267365E0],"categories":[],"categories_nodes":[],"categories_segments":[],"categories_sizes":[],"default_left":[true,true,true,true,true,true,true,false,false,true,true,false,false,false,false,false,true,false,true,false,false,true,false,false,false],"id":13,"left_children":[1,3,5,7,9,11,13,-1,-1,15,17,-1,-1,-1,-1,-1,19,-1,21,-1,-1,23,-1,-1,-1],"loss_changes":[2.3870888E0,2.131672E0,2.526152E-1,9.378654E-2,9.2164993E-1,5.076334E-3,3.1833887E-2,0E0,0E0,4.9560833E-1,1.0551147E0,0E0,0E0,0E0,0E0,0E0,2.4646759E-2,0E0,5.049515E-1,0E0,0E0,2.5012589E-1,0E0,0E0,0E0],"parents":[2147483647,0,0,1,1,2,2,3,3,4,4,5,5,6,6,9,9,10,10,16,16,18,18,21,21],"right_children":[2,4,6,8,10,12,14,-1,-1,16,18,-1,-1,-1,-1,-1,20,-1,22,-1,-1,24,-1,-1,-1],"split_conditions":[9.199179E-1,2.023735E5,9.78625E1,1.49327545E1,9.7279495E1,2.5E0,1.3909776E0,1.1051427E-1,5.464393E-3,9.6599996E-1,9.6601E1,5.115366E-3,3.5459787E-2,3.543034E-2,1.511776E-1,3.2229385E-1,9.675E-1,9.697648E-2,1.3981404E0,4.635315E-2,1.7672044E-1,2E0,1.3961945E-1,1.0500069E-1,4.2802095E-1],"split_indices":[21,23,39,11,39,0,21,0,0,28,49,0,0,0,0,0,8,0,41,0,0,30,0,0,0],"split_type":[0,0,0,0,0,0,0,0,0,0,0,0,0,0,0,0,0,0,0,0,0,0,0,0,0],"sum_hessian":[5.1E1,4.2E1,9E0,6E0,3.6E1,4E0,5E0,5E0,1E0,1.7E1,1.9E1,1E0,3E0,1E0,4E0,5E0,1.2E1,2E0,1.7E1,1E0,1.1E1,1.5E1,2E0,1E0,1.4E1],"tree_param":{"num_deleted":"0","num_feature":"70","num_nodes":"25","size_leaf_vector":"0"}},{"base_weights":[6.2150437E-1,6.9318914E-1,2.5110918E-1,2.412405E-1,7.599581E-1,1.3626465E-1,4.7365823E-1,3.0076218E-1,6.162421E-2,5.543721E-1,9.2554635E-1,4.669112E-2,1.8067054E-1,1.5482426E-2,7.695389E-2,4.2737758E-1,8.244812E-1,9.517979E-1,2.265091E-1,4.742632E-1,1.7987633E-1,5.283496E-1,2.3400307E-1],"categories":[],"categories_nodes":[],"categories_segments":[],"categories_sizes":[],"default_left":[true,true,true,true,true,true,false,false,true,true,true,false,false,false,false,true,false,false,false,true,false,false,false],"id":14,"left_children":[1,3,5,7,9,11,-1,-1,13,15,17,-1,-1,-1,-1,19,-1,-1,-1,21,-1,-1,-1],"loss_changes":[1.2066231E0,1.1142426E0,1.910426E-1,5.6303203E-2,7.4647903E-1,2.3385033E-2,0E0,0E0,9.305831E-4,2.993803E-1,1.3307571E-1,0E0,0E0,0E0,0E0,8.875513E-2,0E0,0E0,0E0,3.230214E-2,0E0,0E0,0E0],"parents":[2147483647,0,0,1,1,2,2,3,3,4,4,5,5,8,8,9,9,10,10,15,15,19,19],"right_children":[2,4,6,8,10,12,-1,-1,14,16,18,-1,-1,-1,-1,20,-1,-1,-1,22,-1,-1,-1],"split_conditions":[9.199179E-1,2.023735E5,9.8792E1,7.776469E0,9.781799E1,2.3730301E2,1.4209747E-1,9.0228654E-2,2.325475E2,9.8317E1,9.97E-1,1.4007336E-2,5.4201167E-2,4.644728E-3,2.3086168E-2,4.4852997E1,2.4734436E-1,2.855394E-1,6.795273E-2,3.224787E-1,5.39629E-2,1.5850487E-1,7.020092E-2],"split_indices":[21,23,29,11,49,12,0,0,2,69,48,0,0,0,0,67,0,0,0,61,0,0,0],"split_type":[0,0,0,0,0,0,0,0,0,0,0,0,0,0,0,0,0,0,0,0,0,0,0],"sum_hessian":[5.1E1,4.2E1,9E0,6E0,3.6E1,7E0,2E0,4E0,2E0,1.8E1,1.8E1,3E0,4E0,1E0,1E0,1.4E1,4E0,1.7E1,1E0,1.1E1,3E0,8E0,3E0],"tree_param":{"num_deleted":"0","num_feature":"70","num_nodes":"23","size_leaf_vector":"0"}},{"base_weights":[4.583565E-1,2.034475E-1,5.142051E-1,8.9150414E-2,3.811798E-1,3.665838E-1,6.582594E-1,1.2647781E-1,2.020356E-2,2.849741E-1,6.8298626E-1,6.993264E-1,1.9243748E-1,3.756646E-1,1.9320838E-1,2.767512E-1,7.3485136E-1,4.359959E-1,1.09670006E-1,2.1119423E-1,6.8852745E-2,7.5817055E-1,1.9253159E-1,7.826718E-1,2.0757675E-1],"categories":[],"categories_nodes":[],"categories_segments":[],"categories_sizes":[],"default_left":[true,true,true,true,false,true,true,false,false,true,false,true,false,true,true,false,true,false,false,false,false,true,false,false,false],"id":15,"left_children":[1,3,5,7,-1,9,11,-1,-1,13,-1,15,-1,17,19,-1,21,-1,-1,-1,-1,23,-1,-1,-1],"loss_changes":[6.356745E-1,1.8947479E-1,6.518421E-1,1.8033557E-2,0E0,3.9926124E-1,2.4802208E-1,0E0,0E0,9.3863964E-2,0E0,6.684399E-2,0E0,9.66146E-2,1.2298375E-2,0E0,5.637169E-2,0E0,0E0,0E0,0E0,3.9888382E-2,0E0,0E0,0E0],"parents":[2147483647,0,0,1,1,2,2,3,3,5,5,6,6,9,9,11,11,13,13,14,14,16,16,21,21],"right_children":[2,4,6,8,-1,10,12,-1,-1,14,-1,16,-1,18,20,-1,22,-1,-1,-1,-1,24,-1,-1,-1],"split_conditions":[2.014565E5,3.0194844E3,9.85495E1,1.193195E1,1.1435395E-1,9.8749995E-1,5.2696E1,3.7943345E-2,6.0610683E-3,9.785E-1,2.0489588E-1,2.023735E5,5.773125E-2,1.3977122E0,9.81985E1,8.302536E-2,9.97E-1,1.3079877E-1,3.2901004E-2,6.335827E-2,2.0655824E-2,9.97E-1,5.775948E-2,2.3480155E-1,6.227303E-2],"split_indices":[33,62,9,41,0,48,27,0,0,28,0,23,0,51,9,0,48,0,0,0,0,18,0,0,0],"split_type":[0,0,0,0,0,0,0,0,0,0,0,0,0,0,0,0,0,0,0,0,0,0,0,0,0],"sum_hessian":[5.1E1,1E1,4.1E1,7E0,3E0,2.2E1,1.9E1,4E0,3E0,1.9E1,3E0,1.7E1,2E0,8E0,1.1E1,2E0,1.5E1,6E0,2E0,9E0,2E0,1.4E1,1E0,1.3E1,1E0],"tree_param":{"num_deleted":"0","num_feature":"70","num_nodes":"25","size_leaf_vector":"0"}},{"base_weights":[3.421298E-1,2.9663256E-1,5.922361E-1,3.6535102E-1,1.579157E-1,6.3749695E-1,1.6033554E-1,1.0501435E-1,4.1321778E-1,3.4511948E-1,1.0994722E-1,1.2196541E-1,1.0129511E-2,2.9694748E-1,5.1443166E-1,2.366978E-2,1.295441E-1,1.8509102E-1,3.8236237E-1,4.459381E-3,2.8586784E-2,1.3631319E-1,2.7542114E-2,4.1496024E-1,9.3387604E-2],"categories":[],"categories_nodes":[],"categories_segments":[],"categories_sizes":[],"default_left":[true,true,true,true,true,false,false,true,true,false,true,false,false,true,false,true,true,false,true,false,false,false,false,false,false],"id":16,"left_children":[1,3,5,7,9,-1,-1,11,13,-1,15,-1,-1,17,-1,19,21,-1,23,-1,-1,-1,-1,-1,-1],"loss_changes":[4.16039E-1,3.8079643E-1,3.462386E-2,3.3045053E-1,1.1471304E-1,0E0,0E0,8.414939E-3,1.4144516E-1,0E0,2.2295251E-2,0E0,0E0,6.298697E-2,0E0,2.5035115E-4,4.531145E-3,0E0,2.7187586E-2,0E0,0E0,0E0,0E0,0E0,0E0],"parents":[2147483647,0,0,1,1,2,2,3,3,4,4,7,7,8,8,10,10,13,13,15,15,16,16,18,18],"right_children":[2,4,6,8,10,-1,-1,12,14,-1,16,-1,-1,18,-1,20,22,-1,24,-1,-1,-1,-1,-1,-1],"split_conditions":[9.9382996E1,6.65684E-2,9.9195E1,4.06485E1,4.3369003E1,1.9124909E-1,4.8100665E-2,1.49327545E1,9.8317E1,1.03535846E-1,2.3730301E2,3.6589622E-2,3.0388536E-3,9.9013504E1,1.5432951E-1,2.5E0,4.46435E1,5.5527307E-2,5.5851966E-1,1.3378144E-3,8.5760355E-3,4.0893957E-2,8.262634E-3,1.2448808E-1,2.8016282E-2],"split_indices":[39,21,9,7,7,0,0,11,69,0,12,0,0,9,0,0,37,0,1,0,0,0,0,0,0],"split_type":[0,0,0,0,0,0,0,0,0,0,0,0,0,0,0,0,0,0,0,0,0,0,0,0,0],"sum_hessian":[5.1E1,4.5E1,6E0,2.9E1,1.6E1,5E0,1E0,5E0,2.4E1,2E0,1.4E1,4E0,1E0,1.3E1,1.1E1,3E0,1.1E1,7E0,6E0,1E0,2E0,1E1,1E0,5E0,1E0],"tree_param":{"num_deleted":"0","num_feature":"70","num_nodes":"25","size_leaf_vector":"0"}},{"base_weights":[2.5495213E-1,1.9379976E-1,3.6945406E-1,1.1513881E-1,2.8492978E-1,4.742611E-1,1.9226351E-1,1.8052737E-1,8.3421916E-2,3.381189E-1,4.083267E-2,4.9667147E-1,1.3628387E-1,2.9947662E-1,6.8040326E-2,4.307556E-2,1.9940262E-1,2.2869587E-2,9.043871E-2,3.791504E-1,1.5101051E-1,4.870351E-2,8.61007E-3,8.3155155E-2,3.7904978E-3,9.414042E-2,2.1158218E-2,2.3410797E-2,9.808365E-2,4.1931152E-2,1.0512104E-1],"categories":[],"categories_nodes":[],"categories_segments":[],"categories_sizes":[],"default_left":[true,true,true,true,true,true,true,true,true,true,true,false,false,false,true,false,false,false,true,false,false,false,false,false,false,true,false,false,true,false,false],"id":17,"left_children":[1,3,5,7,9,11,13,15,17,19,21,-1,-1,-1,23,-1,-1,-1,25,-1,-1,-1,-1,-1,-1,27,-1,-1,29,-1,-1],"loss_changes":[2.925074E-1,2.2525513E-1,2.2452068E-1,2.849242E-2,1.9392681E-1,8.053541E-3,8.6170346E-2,6.977245E-3,4.7298297E-3,4.254961E-2,5.9513515E-4,0E0,0E0,0E0,4.5404267E-3,0E0,0E0,0E0,1.5985519E-3,0E0,0E0,0E0,0E0,0E0,0E0,1.3295263E-3,0E0,0E0,3.3415854E-4,0E0,0E0],"parents":[2147483647,0,0,1,1,2,2,3,3,4,4,5,5,6,6,7,7,8,8,9,9,10,10,14,14,18,18,25,25,28,28],"right_children":[2,4,6,8,10,12,14,16,18,20,22,-1,-1,-1,24,-1,-1,-1,26,-1,-1,-1,-1,-1,-1,28,-1,-1,30,-1,-1],"split_conditions":[9.86E-1,9.81465E1,9.8950005E-1,9.785E-1,5.581403E-1,9.9598E1,9.84395E1,4.3031E1,2.3730301E2,4.4609E1,1.2088583E1,1.4900145E-1,4.0885165E-2,8.984299E-2,1.7000517E0,1.2922669E-2,5.9820786E-2,6.8608765E-3,9.894949E1,1.1374512E-1,4.5303155E-2,1.4611053E-2,2.583021E-3,2.4946548E-2,1.1371494E-3,9.5291504E1,6.347466E-3,7.0232395E-3,9.73E-1,1.2579346E-2,3.1536315E-2],"split_indices":[18,69,18,28,11,9,29,7,12,17,11,0,0,0,1,0,0,0,39,0,0,0,0,0,0,69,0,0,38,0,0],"split_type":[0,0,0,0,0,0,0,0,0,0,0,0,0,0,0,0,0,0,0,0,0,0,0,0,0,0,0,0,0,0,0],"sum_hessian":[5.1E1,3.5E1,1.6E1,2E1,1.5E1,9E0,7E0,5E0,1.5E1,1.2E1,3E0,8E0,1E0,3E0,4E0,1E0,4E0,2E0,1.3E1,9E0,3E0,2E0,1E0,3E0,1E0,1.2E1,1E0,1E0,1.1E1,2E0,9E0],"tree_param":{"num_deleted":"0","num_feature":"70","num_nodes":"31","size_leaf_vector":"0"}},{"base_weights":[1.9037214E-1,1.2980512E-1,2.5562513E-1,8.74829E-2,2.0146903E-1,3.2240376E-1,1.4739546E-1,1.1869606E-1,3.614504E-2,5.0613403E-2,2.3285627E-1,4.569626E-2,3.6471367E-1,1.8795013E-1,2.9437244E-2,3.366025E-2,1.3233718E-1,4.1807447E-2,1.0884404E-2,3.9035568E-1,1.5766907E-1,9.479141E-2,2.2488709E-1,3.2218695E-3,3.7101746E-2,1.47223E-1,4.852931E-2,2.4919128E-1,6.3835144E-2,3.6613464E-2,1.5779386E-1],"categories":[],"categories_nodes":[],"categories_segments":[],"categories_sizes":[],"default_left":[true,true,true,true,true,true,true,true,true,false,false,false,true,true,true,false,true,false,false,false,false,false,true,false,false,true,false,false,false,false,false],"id":18,"left_children":[1,3,5,7,9,11,13,15,17,-1,-1,-1,19,21,23,-1,25,-1,-1,-1,-1,-1,27,-1,-1,29,-1,-1,-1,-1,-1],"loss_changes":[1.7233169E-1,7.0331186E-2,1.2593758E-1,2.7758062E-2,3.5563767E-2,1.472385E-1,4.7088593E-2,9.465322E-3,8.322755E-4,0E0,0E0,0E0,2.1615028E-3,6.210655E-3,6.84174E-4,0E0,5.3308457E-3,0E0,0E0,0E0,0E0,0E0,3.6640465E-3,0E0,0E0,3.576532E-3,0E0,0E0,0E0,0E0,0E0],"parents":[2147483647,0,0,1,1,2,2,3,3,4,4,5,5,6,6,7,7,8,8,12,12,13,13,14,14,16,16,22,22,25,25],"right_children":[2,4,6,8,10,12,14,16,18,-1,-1,-1,20,22,24,-1,26,-1,-1,-1,-1,-1,28,-1,-1,30,-1,-1,-1,-1,-1],"split_conditions":[9.84065E1,4.6483E1,2.9561646E3,4.4106003E1,9.7722E1,2.386E2,9.95866E-1,6.5E0,8.193497E0,1.5184022E-2,6.985688E-2,1.3708878E-2,9.9598E1,9.8317E1,2.5E0,1.00980755E-2,7.515435E-1,1.2542235E-2,3.2653215E-3,1.17106706E-1,4.7300722E-2,2.8437424E-2,9.855E-1,9.6656085E-4,1.1130524E-2,9.71E-1,1.4558793E-2,7.475739E-2,1.9150544E-2,1.098404E-2,4.733816E-2],"split_indices":[19,7,22,27,9,2,21,10,41,0,0,0,9,69,0,0,21,0,0,0,0,0,28,0,0,28,0,0,0,0,0],"split_type":[0,0,0,0,0,0,0,0,0,0,0,0,0,0,0,0,0,0,0,0,0,0,0,0,0,0,0,0,0,0,0],"sum_hessian":[5.1E1,2.8E1,2.3E1,1.9E1,9E0,1.3E1,1E1,1.1E1,8E0,2E0,7E0,2E0,1.1E1,7E0,3E0,2E0,9E0,6E0,2E0,9E0,2E0,3E0,4E0,1E0,2E0,7E0,2E0,3E0,1E0,1E0,6E0],"tree_param":{"num_deleted":"0","num_feature":"70","num_nodes":"31","size_leaf_vector":"0"}},{"base_weights":[1.4280654E-1,1.06056035E-1,2.1223076E-1,7.813013E-2,2.1058764E-1,2.358827E-1,2.3227453E-2,1.10397615E-1,4.696102E-2,2.62825E-1,5.3329468E-2,2.6569495E-1,8.74753E-2,2.738595E-3,3.2102585E-2,4.9264528E-2,1.2992439E-1,1.6303133E-2,5.514013E-2,1.0599995E-1,3.071488E-1,1.7460823E-2,1.0499319E-1,5.7665348E-2,1.2418747E-2,1.339035E-1,3.3751842E-1,6.043018E-2,1.3626099E-2,6.551382E-2,2.5035858E-2,6.8858385E-2,1.9378662E-2],"categories":[],"categories_nodes":[],"categories_segments":[],"categories_sizes":[],"default_left":[true,true,true,true,true,true,true,true,true,false,false,true,true,false,false,false,false,false,true,false,true,false,false,true,false,false,false,true,false,true,false,false,false],"id":19,"left_children":[1,3,5,7,9,11,13,15,17,-1,-1,19,21,-1,-1,-1,-1,-1,23,-1,25,-1,-1,27,-1,-1,-1,29,-1,31,-1,-1,-1],"loss_changes":[1.1016309E-1,8.86358E-2,7.051611E-2,2.498807E-2,4.3486953E-2,4.3123603E-2,4.5760802E-4,1.0311604E-2,3.3638626E-3,0E0,0E0,4.6881974E-2,3.0727535E-3,0E0,0E0,0E0,0E0,0E0,6.863177E-4,0E0,2.1576285E-3,0E0,0E0,6.3770637E-4,0E0,0E0,0E0,3.390573E-4,0E0,5.4337084E-5,0E0,0E0,0E0],"parents":[2147483647,0,0,1,1,2,2,3,3,4,4,5,5,6,6,7,7,8,8,11,11,12,12,18,18,20,20,23,23,27,27,29,29],"right_children":[2,4,6,8,10,12,14,16,18,-1,-1,20,22,-1,-1,-1,-1,-1,24,-1,26,-1,-1,28,-1,-1,-1,30,-1,32,-1,-1,-1],"split_conditions":[9.86E-1,9.8749995E-1,4.3779297E0,9.7309E1,3.7117636E-1,5.85175E1,2.5E0,9.6764496E1,2.32578E2,7.8847505E-2,1.599884E-2,9.735E-1,3.5E0,8.2157855E-4,9.630776E-3,1.4779359E-2,3.8977318E-2,4.89094E-3,9.894949E1,3.1799987E-2,4.32955E1,5.238247E-3,3.149796E-2,4.4922E1,3.7256242E-3,4.0171053E-2,1.0125553E-1,9.334685E-2,4.08783E-3,9.5E0,7.5107575E-3,2.0657517E-2,5.8135986E-3],"split_indices":[18,68,21,29,41,27,0,9,32,0,0,58,0,0,0,0,0,0,39,0,27,0,0,27,0,0,0,11,0,0,0,0,0],"split_type":[0,0,0,0,0,0,0,0,0,0,0,0,0,0,0,0,0,0,0,0,0,0,0,0,0,0,0,0,0,0,0,0,0],"sum_hessian":[5.1E1,3.5E1,1.6E1,2.9E1,6E0,1.4E1,2E0,1.3E1,1.6E1,4E0,2E0,1.1E1,3E0,1E0,1E0,4E0,9E0,4E0,1.2E1,3E0,8E0,1E0,2E0,1.1E1,1E0,2E0,6E0,1E1,1E0,8E0,2E0,7E0,1E0],"tree_param":{"num_deleted":"0","num_feature":"70","num_nodes":"33","size_leaf_vector":"0"}},{"base_weights":[1.0795814E-1,8.9948736E-2,2.10883E-1,1.1487821E-1,4.0664457E-2,4.9549103E-2,2.2951381E-1,1.4381438E-1,5.948941E-2,9.433771E-3,4.9548224E-2,3.808861E-2,1.6946869E-1,2.743411E-2,9.888001E-2,3.7121375E-3,1.2010813E-2,3.3050537E-2,6.933441E-2,1.7767552E-1,2.728653E-2,2.9000146E-2,8.235931E-3,1.143074E-1,1.8585205E-2,2.0519868E-1,8.709411E-2],"categories":[],"categories_nodes":[],"categories_segments":[],"categories_sizes":[],"default_left":[true,true,true,true,true,false,false,true,true,true,true,false,true,true,true,false,false,false,false,true,false,false,false,false,false,false,false],"id":20,"left_children":[1,3,5,7,9,-1,-1,11,13,15,17,-1,19,21,23,-1,-1,-1,-1,25,-1,-1,-1,-1,-1,-1,-1],"loss_changes":[7.741928E-2,5.184555E-2,9.668261E-3,3.952676E-2,4.2491574E-3,0E0,0E0,4.507926E-2,1.2439445E-2,2.9138668E-5,1.952E-3,0E0,1.2654841E-2,1.677312E-6,4.069276E-3,0E0,0E0,0E0,0E0,1.703161E-2,0E0,0E0,0E0,0E0,0E0,0E0,0E0],"parents":[2147483647,0,0,1,1,2,2,3,3,4,4,7,7,8,8,9,9,10,10,12,12,13,13,14,14,19,19],"right_children":[2,4,6,8,10,-1,-1,12,14,16,18,-1,20,22,24,-1,-1,-1,-1,26,-1,-1,-1,-1,-1,-1,-1],"split_conditions":[9.9382996E1,5.8140468E-2,9.865E-1,2.9515493E3,2.32578E2,1.4864732E-2,6.8854146E-2,4.29705E1,7.9569443E3,2.3743149E2,9.8703E1,1.1426583E-2,6.447E1,4.8024002E1,1.677854E4,1.1136413E-3,3.603244E-3,9.915162E-3,2.0800324E-2,7.5E0,8.185959E-3,8.700044E-3,2.4707795E-3,3.429222E-2,5.575562E-3,6.1559606E-2,2.6128234E-2],"split_indices":[39,41,48,2,32,0,0,7,12,2,19,0,17,7,2,0,0,0,0,30,0,0,0,0,0,0,0],"split_type":[0,0,0,0,0,0,0,0,0,0,0,0,0,0,0,0,0,0,0,0,0,0,0,0,0,0,0],"sum_hessian":[5.1E1,4.5E1,6E0,2.9E1,1.6E1,1E0,5E0,1.8E1,1.1E1,4E0,1.2E1,4E0,1.4E1,7E0,4E0,2E0,2E0,8E0,4E0,1.3E1,1E0,6E0,1E0,3E0,1E0,9E0,4E0],"tree_param":{"num_deleted":"0","num_feature":"70","num_nodes":"27","size_leaf_vector":"0"}},{"base_weights":[8.0906436E-2,6.8041466E-2,1.6819763E-1,8.640708E-2,3.054879E-2,2.1023178E-1,5.6086224E-2,1.06393434E-1,4.5895893E-2,3.6011696E-2,3.7914217E-3,1.6803233E-1,7.4644975E-2,2.0601273E-2,7.718811E-2,2.4069022E-2,5.26947E-2,2.0355034E-1,6.466421E-2,9.407959E-2,2.9813131E-2,9.801865E-3,2.5120545E-2,8.858681E-2,1.5796661E-2,2.6586771E-2,9.332021E-3,1.2546539E-2,3.530979E-2],"categories":[],"categories_nodes":[],"categories_segments":[],"categories_sizes":[],"default_left":[true,true,true,true,true,false,false,true,true,true,false,true,true,true,true,true,false,false,false,false,true,false,false,false,false,false,false,false,false],"id":21,"left_children":[1,3,5,7,9,-1,-1,11,13,15,-1,17,19,21,23,25,-1,-1,-1,-1,27,-1,-1,-1,-1,-1,-1,-1,-1],"loss_changes":[4.6951503E-2,2.972345E-2,1.6483948E-2,2.0216778E-2,2.3484044E-3,0E0,0E0,2.659601E-2,7.9081245E-3,1.5210453E-3,0E0,8.866161E-3,1.0264538E-2,1.442153E-4,2.0995364E-3,1.2293179E-4,0E0,0E0,0E0,0E0,1.2643635E-4,0E0,0E0,0E0,0E0,0E0,0E0,0E0,0E0],"parents":[2147483647,0,0,1,1,2,2,3,3,4,4,7,7,8,8,9,9,11,11,12,12,13,13,14,14,15,15,20,20],"right_children":[2,4,6,8,10,-1,-1,12,14,16,-1,18,20,22,24,26,-1,-1,-1,-1,28,-1,-1,-1,-1,-1,-1,-1,-1],"split_conditions":[9.9399506E1,5.8140468E-2,5.85175E1,2.9515493E3,1.193195E1,6.306954E-2,1.6825868E-2,1.0330674E3,7.9569443E3,9.8703E1,1.1374266E-3,6.38765E5,4.4064003E1,9.7463E1,1.677854E4,4.3586502E1,1.5808411E-2,6.1065104E-2,1.9399263E-2,2.8223878E-2,2.328985E2,2.9405595E-3,7.536164E-3,2.6576044E-2,4.7389986E-3,7.976032E-3,2.7996064E-3,3.7639618E-3,1.05929375E-2],"split_indices":[39,41,27,2,41,0,0,12,12,19,0,33,27,29,2,37,0,0,0,0,2,0,0,0,0,0,0,0,0],"split_type":[0,0,0,0,0,0,0,0,0,0,0,0,0,0,0,0,0,0,0,0,0,0,0,0,0,0,0,0,0],"sum_hessian":[5.1E1,4.6E1,5E0,3E1,1.6E1,3E0,2E0,1.9E1,1.1E1,1.3E1,3E0,5E0,1.4E1,7E0,4E0,9E0,4E0,3E0,2E0,9E0,5E0,3E0,4E0,3E0,1E0,7E0,2E0,2E0,3E0],"tree_param":{"num_deleted":"0","num_feature":"70","num_nodes":"29","size_leaf_vector":"0"}},{"base_weights":[6.187487E-2,5.1726934E-2,1.3105457E-1,3.0367699E-2,7.2694495E-2,1.6292858E-1,4.4871014E-2,4.817581E-2,1.7339647E-2,4.2657357E-2,1.01584345E-1,5.9296746E-2,1.6670227E-2,8.599281E-3,2.1723937E-2,2.7139211E-2,7.078838E-2,1.2303066E-1,3.329563E-2,1.016922E-2,3.1162899E-3,2.2856819E-2,5.7640076E-3,3.321266E-2,9.725869E-3,1.530304E-1,5.477333E-2,2.5373187E-2,9.366353E-3,7.246971E-3,3.6332447E-2,1.2022257E-3,1.2166341E-2],"categories":[],"categories_nodes":[],"categories_segments":[],"categories_sizes":[],"default_left":[true,true,true,true,true,false,false,true,true,true,true,false,false,true,true,true,false,true,false,false,false,true,false,true,true,false,false,false,false,false,false,false,false],"id":22,"left_children":[1,3,5,7,9,-1,-1,11,13,15,17,-1,-1,19,21,23,-1,25,-1,-1,-1,27,-1,29,31,-1,-1,-1,-1,-1,-1,-1,-1],"loss_changes":[2.9726565E-2,1.8841445E-2,9.171322E-3,4.9647726E-3,1.5625358E-2,0E0,0E0,2.5152247E-3,4.263143E-4,3.7538968E-3,1.2013562E-2,0E0,0E0,2.8565526E-5,4.906021E-5,7.345686E-4,0E0,7.999629E-3,0E0,0E0,0E0,6.7868736E-5,0E0,3.0375225E-4,6.858018E-5,0E0,0E0,0E0,0E0,0E0,0E0,0E0,0E0],"parents":[2147483647,0,0,1,1,2,2,3,3,4,4,7,7,8,8,9,9,10,10,13,13,14,14,15,15,17,17,21,21,23,23,24,24],"right_children":[2,4,6,8,10,-1,-1,12,14,16,18,-1,-1,20,22,24,-1,26,-1,-1,-1,28,-1,30,32,-1,-1,-1,-1,-1,-1,-1,-1],"split_conditions":[9.9399506E1,9.8132E1,5.85175E1,9.695E-1,4.3790497E1,4.8878577E-2,1.3461305E-2,5.373483E-2,7.5E0,9.8749995E-1,1.8519294E-1,1.7789025E-2,5.001068E-3,8.232156E0,4.497E1,9.95866E-1,2.1236517E-2,9.93035E1,9.98869E-3,3.0507662E-3,9.34887E-4,9.78365E1,1.7292023E-3,2.328985E2,3.5E0,4.590912E-2,1.6432E-2,7.6119564E-3,2.809906E-3,2.1740915E-3,1.0899735E-2,3.606677E-4,3.6499023E-3],"split_indices":[39,19,27,18,67,0,0,41,10,48,61,0,0,41,7,21,0,69,0,0,0,19,0,2,0,0,0,0,0,0,0,0,0],"split_type":[0,0,0,0,0,0,0,0,0,0,0,0,0,0,0,0,0,0,0,0,0,0,0,0,0,0,0,0,0,0,0,0,0],"sum_hessian":[5.1E1,4.6E1,5E0,2.4E1,2.2E1,3E0,2E0,9E0,1.5E1,1.2E1,1E1,6E0,3E0,6E0,9E0,9E0,3E0,7E0,3E0,4E0,2E0,8E0,1E0,6E0,3E0,4E0,3E0,6E0,2E0,1E0,5E0,1E0,2E0],"tree_param":{"num_deleted":"0","num_feature":"70","num_nodes":"33","size_leaf_vector":"0"}},{"base_weights":[4.7387406E-2,3.939096E-2,1.0212835E-1,2.281351E-2,5.5697273E-2,1.2626839E-1,3.5898846E-2,3.600006E-2,1.3146073E-2,3.280735E-2,7.768562E-2,4.4046674E-2,1.2918472E-2,4.7551156E-3,1.5546799E-2,2.070551E-2,5.4860115E-2,1.1823845E-1,4.7698498E-2,2.6148986E-2,5.9193928E-2,2.015152E-2,1.0725498E-2,2.8141022E-2,1.1058331E-2,3.6605835E-2,1.3324738E-1,1.9097647E-2,5.4049175E-2,3.4368515E-2,-3.364563E-3,1.4890194E-2,2.2630692E-3],"categories":[],"categories_nodes":[],"categories_segments":[],"categories_sizes":[],"default_left":[true,true,true,true,true,false,false,true,true,true,true,true,false,false,true,true,false,true,true,true,false,false,false,false,true,false,false,false,false,false,false,false,false],"id":23,"left_children":[1,3,5,7,9,-1,-1,11,13,15,17,19,-1,-1,21,23,-1,25,27,29,-1,-1,-1,-1,31,-1,-1,-1,-1,-1,-1,-1,-1],"loss_changes":[1.8739194E-2,1.1434257E-2,5.0598085E-3,2.7137436E-3,9.027503E-3,0E0,0E0,1.2882706E-3,2.4838326E-4,2.3335218E-3,7.7368915E-3,3.498448E-4,0E0,0E0,5.0273957E-5,4.0612463E-4,0E0,2.323836E-5,4.2086653E-4,1.3285722E-3,0E0,0E0,0E0,0E0,1.685159E-4,0E0,0E0,0E0,0E0,0E0,0E0,0E0,0E0],"parents":[2147483647,0,0,1,1,2,2,3,3,4,4,7,7,8,8,9,9,10,10,11,11,14,14,15,15,17,17,18,18,19,19,24,24],"right_children":[2,4,6,8,10,-1,-1,12,14,16,18,20,-1,-1,22,24,-1,26,28,30,-1,-1,-1,-1,32,-1,-1,-1,-1,-1,-1,-1,-1],"split_conditions":[9.9399506E1,9.8132E1,5.85175E1,9.695E-1,4.3790497E1,3.7880518E-2,1.0769654E-2,5.373483E-2,2.32578E2,9.8749995E-1,4.5E0,8.5E0,3.8755417E-3,1.4265347E-3,4.3558E1,9.84685E1,1.6458035E-2,3.5E0,4.5E0,7E0,1.775818E-2,6.0454565E-3,3.2176496E-3,8.442307E-3,6.6617125E-1,1.0981751E-2,3.9974213E-2,5.7292944E-3,1.6214753E-2,1.0310555E-2,-1.0093689E-3,4.4670585E-3,6.7892077E-4],"split_indices":[39,19,27,18,67,0,0,41,32,48,0,30,0,0,7,29,0,20,10,0,0,0,0,0,21,0,0,0,0,0,0,0,0],"split_type":[0,0,0,0,0,0,0,0,0,0,0,0,0,0,0,0,0,0,0,0,0,0,0,0,0,0,0,0,0,0,0,0,0],"sum_hessian":[5.1E1,4.6E1,5E0,2.4E1,2.2E1,3E0,2E0,9E0,1.5E1,1.2E1,1E1,6E0,3E0,4E0,1.1E1,9E0,3E0,3E0,7E0,4E0,2E0,4E0,7E0,4E0,5E0,1E0,2E0,2E0,5E0,3E0,1E0,3E0,2E0],"tree_param":{"num_deleted":"0","num_feature":"70","num_nodes":"33","size_leaf_vector":"0"}},{"base_weights":[3.6887057E-2,3.0649832E-2,7.959747E-2,1.763431E-2,4.3464538E-2,9.785843E-2,2.8717041E-2,2.829361E-2,9.8701045E-3,6.808984E-2,2.843535E-2,3.4698486E-2,1.0011673E-2,4.450236E-3,1.2677002E-2,9.675674E-2,1.5233755E-2,3.1646185E-2,3.973007E-3,2.0166015E-2,4.7353107E-2,1.1642456E-2,2.5596619E-3,1.9881427E-3,5.7997704E-3,1.7515182E-2,8.101327E-3,6.82354E-4,1.9856771E-2,4.121726E-2,1.931572E-2,2.6638031E-2,-2.861023E-3,4.727783E-2,1.7377218E-2],"categories":[],"categories_nodes":[],"categories_segments":[],"categories_sizes":[],"default_left":[true,true,true,true,true,false,false,true,true,true,true,true,true,true,true,false,true,true,false,true,false,false,false,false,false,false,false,false,false,true,false,false,false,false,false],"id":24,"left_children":[1,3,5,7,9,-1,-1,11,13,15,17,19,21,23,25,-1,27,29,-1,31,-1,-1,-1,-1,-1,-1,-1,-1,-1,33,-1,-1,-1,-1,-1],"loss_changes":[1.1412859E-2,7.0726685E-3,2.764549E-3,1.7897645E-3,6.576102E-3,0E0,0E0,8.2354527E-4,1.869927E-4,1.0647792E-2,1.1309823E-3,3.323974E-4,1.8809718E-5,1.1727985E-5,7.948314E-5,0E0,2.555361E-4,8.560801E-4,0E0,8.2136854E-4,0E0,0E0,0E0,0E0,0E0,0E0,0E0,0E0,0E0,1.8983241E-4,0E0,0E0,0E0,0E0,0E0],"parents":[2147483647,0,0,1,1,2,2,3,3,4,4,7,7,8,8,9,9,10,10,11,11,12,12,13,13,14,14,16,16,17,17,19,19,29,29],"right_children":[2,4,6,8,10,-1,-1,12,14,16,18,20,22,24,26,-1,28,30,-1,32,-1,-1,-1,-1,-1,-1,-1,-1,-1,34,-1,-1,-1,-1,-1],"split_conditions":[9.9399506E1,9.8132E1,5.85175E1,9.695E-1,1.0330674E3,2.935753E-2,8.615113E-3,5.373483E-2,7.5E0,2.9424195E0,1.3306086E0,8.5E0,1.1803703E4,9.63125E1,4.3558E1,2.9027024E-2,5E-1,4.3909E1,1.1919022E-3,7E0,1.4205933E-2,3.492737E-3,7.678986E-4,5.9644284E-4,1.7399312E-3,5.254555E-3,2.4303982E-3,2.047062E-4,5.9570316E-3,9.855E-1,5.794716E-3,7.99141E-3,-8.5830694E-4,1.418335E-2,5.2131657E-3],"split_indices":[39,19,27,18,12,0,0,41,10,41,51,30,2,19,7,0,0,27,0,0,0,0,0,0,0,0,0,0,0,58,0,0,0,0,0],"split_type":[0,0,0,0,0,0,0,0,0,0,0,0,0,0,0,0,0,0,0,0,0,0,0,0,0,0,0,0,0,0,0,0,0,0,0],"sum_hessian":[5.1E1,4.6E1,5E0,2.4E1,2.2E1,3E0,2E0,9E0,1.5E1,7E0,1.5E1,6E0,3E0,6E0,9E0,4E0,3E0,1.3E1,2E0,4E0,2E0,2E0,1E0,3E0,3E0,3E0,6E0,1E0,2E0,6E0,7E0,3E0,1E0,4E0,2E0],"tree_param":{"num_deleted":"0","num_feature":"70","num_nodes":"35","size_leaf_vector":"0"}},{"base_weights":[2.8419755E-2,2.35222E-2,6.204732E-2,1.46886315E-2,3.5767004E-2,7.584E-2,2.297465E-2,2.0292282E-2,6.230886E-3,2.03525E-2,6.577301E-2,2.558422E-2,6.3263574E-3,1.4648915E-3,8.18634E-3,2.5352478E-2,6.2820436E-3,1.5828451E-2,8.678818E-2,5.7525635E-3,2.8975297E-2,7.100105E-4,1.1706035E-2,2.9741924E-3,9.250641E-3,1.2919617E-2,3.148778E-2,3.6973573E-2,1.748085E-2,2.5666554E-3,-2.4299622E-3,3.6697388E-3,1.0749054E-2],"categories":[],"categories_nodes":[],"categories_segments":[],"categories_sizes":[],"default_left":[true,true,true,true,true,false,false,true,true,true,true,true,true,false,true,true,false,false,false,false,true,true,false,false,true,false,false,false,false,false,false,false,false],"id":25,"left_children":[1,3,5,7,9,-1,-1,11,13,15,17,19,21,-1,23,25,-1,-1,-1,-1,27,29,-1,-1,31,-1,-1,-1,-1,-1,-1,-1,-1],"loss_changes":[7.104542E-3,4.558401E-3,1.4911033E-3,1.2479941E-3,7.449383E-3,0E0,0E0,1.0945611E-3,1.0916381E-4,8.2566217E-4,4.9238373E-3,6.4032525E-4,1.7297339E-4,0E0,2.2412452E-5,3.5598408E-4,0E0,0E0,0E0,0E0,2.730284E-4,2.9556133E-5,0E0,0E0,1.909124E-5,0E0,0E0,0E0,0E0,0E0,0E0,0E0,0E0],"parents":[2147483647,0,0,1,1,2,2,3,3,4,4,7,7,8,8,9,9,10,10,11,11,12,12,14,14,15,15,20,20,21,21,24,24],"right_children":[2,4,6,8,10,-1,-1,12,14,16,18,20,22,-1,24,26,-1,-1,-1,-1,28,30,-1,-1,32,-1,-1,-1,-1,-1,-1,-1,-1],"split_conditions":[9.9399506E1,4.4194E1,5.85175E1,4.4123E1,9.8749995E-1,2.2752E-2,6.892395E-3,6.5E0,2.3260251E2,6.65684E-2,3.5E0,2.32933E2,8.5E0,4.3946746E-4,9.76425E1,9.7547E1,1.8846132E-3,4.7485353E-3,2.6036454E-2,1.7257691E-3,9.835E-1,7.5E0,3.5118104E-3,8.922577E-4,9.68E-1,3.8758852E-3,9.446335E-3,1.1092072E-2,5.244255E-3,7.6999667E-4,-7.2898867E-4,1.1009217E-3,3.2247163E-3],"split_indices":[39,67,27,27,8,0,0,0,32,21,50,32,0,0,19,49,0,0,0,0,58,0,0,0,8,0,0,0,0,0,0,0,0],"split_type":[0,0,0,0,0,0,0,0,0,0,0,0,0,0,0,0,0,0,0,0,0,0,0,0,0,0,0,0,0,0,0,0,0],"sum_hessian":[5.1E1,4.6E1,5E0,2.8E1,1.8E1,3E0,2E0,1.6E1,1.2E1,1.3E1,5E0,1.1E1,5E0,4E0,8E0,9E0,4E0,2E0,3E0,2E0,9E0,3E0,2E0,2E0,6E0,4E0,5E0,4E0,5E0,2E0,1E0,2E0,4E0],"tree_param":{"num_deleted":"0","num_feature":"70","num_nodes":"33","size_leaf_vector":"0"}},{"base_weights":[2.1873178E-2,1.8024523E-2,4.8375446E-2,1.1222703E-2,2.745759E-2,5.8776855E-2,1.8381754E-2,9.422162E-3,3.081894E-2,5.952835E-2,1.7723799E-2,4.7029E-3,1.3198662E-2,1.4228821E-2,6.9885254E-2,2.2743225E-2,5.5675507E-3,5.000628E-3,4.1621923E-4,1.809001E-3,1.5895328E-2,9.819031E-3,2.872576E-2,2.4614334E-3,7.85319E-3,5.9233773E-3,2.3395538E-3,5.3215027E-3,-1.1356672E-3,2.9594104E-3,1.818657E-2,7.2364807E-3,3.1101227E-2,6.257534E-3,1.625061E-3,3.6025047E-4,-2.0637512E-3],"categories":[],"categories_nodes":[],"categories_segments":[],"categories_sizes":[],"default_left":[true,true,true,true,true,false,false,true,false,true,true,true,true,false,false,true,true,true,false,true,true,false,true,false,false,true,false,false,true,false,false,false,false,false,false,false,false],"id":26,"left_children":[1,3,5,7,9,-1,-1,11,-1,13,15,17,19,-1,-1,21,23,25,-1,27,29,-1,31,-1,-1,33,-1,-1,35,-1,-1,-1,-1,-1,-1,-1,-1],"loss_changes":[4.4319574E-3,2.7074665E-3,7.914379E-4,7.328503E-4,4.876163E-3,0E0,0E0,4.369521E-4,0E0,8.822661E-4,8.4965397E-4,1.5786354E-5,4.3195672E-4,0E0,0E0,5.684551E-4,2.3266664E-5,1.8063496E-5,0E0,4.7416062E-5,3.0185026E-4,0E0,1.3226597E-4,0E0,0E0,2.7579372E-6,0E0,0E0,4.9084792E-6,8.149018E-7,0E0,0E0,0E0,0E0,0E0,0E0,0E0],"parents":[2147483647,0,0,1,1,2,2,3,3,4,4,7,7,9,9,10,10,11,11,12,12,15,15,16,16,17,17,19,19,20,20,22,22,25,25,28,28],"right_children":[2,4,6,8,10,-1,-1,12,-1,14,16,18,20,-1,-1,22,24,26,-1,28,30,-1,32,-1,-1,34,-1,-1,36,-1,-1,-1,-1,-1,-1,-1,-1],"split_conditions":[9.9399506E1,4.4194E1,5.85175E1,4.8016315E0,4.5E0,1.7633058E-2,5.5145263E-3,9.85785E1,9.2456825E-3,3.5E0,6.65684E-2,1.49327545E1,9.4792E1,4.2686462E-3,2.0965576E-2,9.7547E1,5.7659894E-1,4.4314E1,1.2486578E-4,2.32974E2,2.326055E2,2.9457093E-3,4.2827003E1,7.3843007E-4,2.3559572E-3,1.05E1,7.0186617E-4,1.5964509E-3,4E0,8.878232E-4,5.4559708E-3,2.1709444E-3,9.330369E-3,1.8772603E-3,4.8751832E-4,1.08075146E-4,-6.191254E-4],"split_indices":[39,67,27,1,0,0,0,9,0,20,21,11,39,0,0,49,61,47,0,2,32,0,7,0,0,0,0,0,0,0,0,0,0,0,0,0,0],"split_type":[0,0,0,0,0,0,0,0,0,0,0,0,0,0,0,0,0,0,0,0,0,0,0,0,0,0,0,0,0,0,0,0,0,0,0,0,0],"sum_hessian":[5.1E1,4.6E1,5E0,2.8E1,1.8E1,3E0,2E0,2.7E1,1E0,3E0,1.5E1,1.3E1,1.4E1,1E0,2E0,1E1,5E0,1.2E1,1E0,3E0,1.1E1,4E0,6E0,3E0,2E0,8E0,4E0,1E0,2E0,2E0,9E0,1E0,5E0,7E0,1E0,1E0,1E0],"tree_param":{"num_deleted":"0","num_feature":"70","num_nodes":"37","size_leaf_vector":"0"}},{"base_weights":[1.6961185E-2,1.395012E-2,3.7720997E-2,3.5234988E-2,1.1698083E-2,4.5553207E-2,1.4704387E-2,4.6775818E-2,3.0624866E-4,8.227218E-3,2.0268122E-2,1.1288091E-2,3.801632E-3,6.1296737E-3,3.338496E-2,1.3546372E-2,2.2556304E-3,2.0060062E-3,6.160736E-3,7.736206E-3,-1.7547607E-3,3.796997E-2,5.22995E-3,3.6818187E-3,1.4780778E-2,2.314806E-3,5.138715E-4],"categories":[],"categories_nodes":[],"categories_segments":[],"categories_sizes":[],"default_left":[true,true,true,true,true,false,false,false,false,true,true,true,true,true,true,true,false,true,false,false,false,false,false,false,false,false,false],"id":27,"left_children":[1,3,5,7,9,-1,-1,-1,-1,11,13,15,17,19,21,23,-1,25,-1,-1,-1,-1,-1,-1,-1,-1,-1],"loss_changes":[2.7242638E-3,1.8407293E-3,4.117936E-4,1.5981016E-3,1.1420501E-3,0E0,0E0,0E0,0E0,4.0410995E-4,2.0207814E-3,3.5700318E-4,5.118255E-5,1.0224138E-4,5.7596527E-4,1.2823287E-4,5.3481926E-8,3.418194E-6,0E0,0E0,0E0,0E0,0E0,0E0,0E0,0E0,0E0],"parents":[2147483647,0,0,1,1,2,2,3,3,4,4,9,9,10,10,11,11,12,12,13,13,14,14,15,15,17,17],"right_children":[2,4,6,8,10,-1,-1,-1,-1,12,14,16,18,20,22,24,-1,26,-1,-1,-1,-1,-1,-1,-1,-1,-1],"split_conditions":[9.9399506E1,2.328455E2,5.85175E1,4.757928E0,9.9013504E1,1.3665963E-2,4.411316E-3,1.4032746E-2,9.18746E-5,4.4123E1,4.3514E1,9.2312753E-1,4.3757E1,7.5E0,6.4843E1,2.3484E2,6.7668915E-4,8.193497E0,1.8482209E-3,2.320862E-3,-5.264282E-4,1.13909915E-2,1.568985E-3,1.1045457E-3,4.4342335E-3,6.9444184E-4,1.5416145E-4],"split_indices":[39,12,27,21,9,0,0,0,0,27,37,21,57,0,7,32,0,41,0,0,0,0,0,0,0,0,0],"split_type":[0,0,0,0,0,0,0,0,0,0,0,0,0,0,0,0,0,0,0,0,0,0,0,0,0,0,0],"sum_hessian":[5.1E1,4.6E1,5E0,3E0,4.3E1,3E0,2E0,2E0,1E0,3.2E1,1.1E1,1.8E1,1.4E1,6E0,5E0,1.4E1,4E0,9E0,5E0,5E0,1E0,4E0,1E0,2E0,1.2E1,7E0,2E0],"tree_param":{"num_deleted":"0","num_feature":"70","num_nodes":"27","size_leaf_vector":"0"}},{"base_weights":[1.294813E-2,9.200052E-3,2.467505E-2,6.585356E-3,1.7765045E-2,5.1811216E-3,3.3774376E-2,1.1263656E-2,4.361674E-3,3.1671524E-3,2.4536133E-2,2.0914078E-3,8.769989E-3,7.733663E-3,4.116567E-2,1.631775E-2,5.174637E-3,5.097477E-3,1.3046861E-3,3.980001E-3,3.643036E-4,7.7400208E-3,3.0999184E-2,2.614975E-3,2.603531E-4,5.2261353E-3,4.7308348E-2,2.9716492E-3,1.8911362E-2,-1.4915466E-3,6.8061827E-3,3.5937468E-3,8.589173E-3,4.9318587E-3,2.153688E-3,9.586334E-3,2.3002625E-3,5.241235E-4,2.544403E-3],"categories":[],"categories_nodes":[],"categories_segments":[],"categories_sizes":[],"default_left":[true,true,true,true,true,true,true,true,true,true,true,true,false,false,true,true,true,true,false,false,false,false,false,false,false,false,false,false,false,false,false,true,true,false,true,false,false,false,false],"id":28,"left_children":[1,3,5,7,9,11,13,15,17,19,21,23,-1,-1,25,27,29,31,-1,-1,-1,-1,-1,-1,-1,-1,-1,-1,-1,-1,-1,33,35,-1,37,-1,-1,-1,-1],"loss_changes":[2.0585656E-3,8.012003E-4,1.9535902E-3,2.9417232E-4,8.118828E-4,3.7101243E-5,1.2214351E-3,2.2330624E-4,4.7333597E-5,7.663235E-6,4.1139033E-4,3.153904E-6,0E0,0E0,1.0773502E-3,1.16875046E-4,7.540884E-5,6.889342E-5,5.2398264E-7,0E0,0E0,0E0,0E0,0E0,0E0,0E0,0E0,0E0,0E0,0E0,0E0,1.828272E-5,9.304233E-6,0E0,4.3966756E-6,0E0,0E0,0E0,0E0],"parents":[2147483647,0,0,1,1,2,2,3,3,4,4,5,5,6,6,7,7,8,8,9,9,10,10,11,11,14,14,15,15,16,16,17,17,31,31,32,32,34,34],"right_children":[2,4,6,8,10,12,14,16,18,20,22,24,-1,-1,26,28,30,32,-1,-1,-1,-1,-1,-1,-1,-1,-1,-1,-1,-1,-1,34,36,-1,38,-1,-1,-1,-1],"split_conditions":[4.5937E1,9.8701996E1,1.042037E3,9.74E-1,3.983E1,6E0,9.6843994E1,9.8399997E-1,9.334685E-2,5.5E0,4.5E0,1.2050583E0,2.6309968E-3,2.320099E-3,4.2747E1,9.69E-1,9.7356995E1,9.84235E1,3.9140583E-4,1.1940004E-3,1.0929108E-4,2.3220063E-3,9.299755E-3,7.844925E-4,7.810593E-5,1.5678407E-3,1.4192505E-2,8.914948E-4,5.6734085E-3,-4.47464E-4,2.041855E-3,1.0182067E-1,1E1,1.4795577E-3,2.3730301E2,2.8759004E-3,6.9007877E-4,1.5723705E-4,7.6332095E-4],"split_indices":[27,49,52,28,57,0,59,68,11,0,20,1,0,0,7,8,49,69,0,0,0,0,0,0,0,0,0,0,0,0,0,21,0,0,12,0,0,0,0],"split_type":[0,0,0,0,0,0,0,0,0,0,0,0,0,0,0,0,0,0,0,0,0,0,0,0,0,0,0,0,0,0,0,0,0,0,0,0,0,0,0],"sum_hessian":[5.1E1,4E1,1.1E1,3.2E1,8E0,4E0,7E0,9E0,2.3E1,3E0,5E0,3E0,1E0,2E0,5E0,4E0,5E0,1.8E1,5E0,2E0,1E0,2E0,3E0,2E0,1E0,1E0,4E0,1E0,3E0,1E0,4E0,1.4E1,4E0,6E0,8E0,3E0,1E0,2E0,6E0],"tree_param":{"num_deleted":"0","num_feature":"70","num_nodes":"39","size_leaf_vector":"0"}},{"base_weights":[1.0005951E-2,7.108828E-3,1.9070625E-2,5.049272E-3,1.3870663E-2,4.325104E-3,2.5902748E-2,8.699417E-3,3.317992E-3,2.5405884E-3,1.9112268E-2,1.6794205E-3,7.4539185E-3,6.187439E-3,3.144328E-2,1.404953E-2,4.399436E-3,3.8821572E-3,9.784698E-4,3.1814575E-3,3.0899048E-4,6.1925254E-3,2.402401E-2,2.0917256E-3,2.2125244E-4,1.5640259E-3,7.7171326E-3,4.4403076E-3,3.595581E-2,2.5253296E-3,1.7049154E-2,5.7289125E-3,7.171631E-4,2.6753743E-3,6.726074E-3,2.3422241E-3,-1.2664795E-3,3.6631993E-3,1.6098022E-3,7.429123E-3,1.9569397E-3,2.167511E-3,7.3013303E-4],"categories":[],"categories_nodes":[],"categories_segments":[],"categories_sizes":[],"default_left":[true,true,true,true,true,true,true,true,true,true,true,true,false,true,true,true,true,true,false,false,false,false,false,false,false,false,false,false,false,false,false,false,true,true,true,false,false,false,true,false,false,false,false],"id":29,"left_children":[1,3,5,7,9,11,13,15,17,19,21,23,-1,25,27,29,31,33,-1,-1,-1,-1,-1,-1,-1,-1,-1,-1,-1,-1,-1,-1,35,37,39,-1,-1,-1,41,-1,-1,-1,-1],"loss_changes":[1.2300271E-3,5.009447E-4,1.0968866E-3,1.796764E-4,4.8593374E-4,2.8871E-5,6.793123E-4,1.6824383E-4,2.7878472E-5,4.737609E-6,2.3198128E-4,1.9420413E-6,0E0,9.147421E-6,5.714558E-4,9.52183E-5,3.0159892E-5,4.721305E-5,9.744062E-7,0E0,0E0,0E0,0E0,0E0,0E0,0E0,0E0,0E0,0E0,0E0,0E0,0E0,1.2637E-5,9.891955E-6,2.2263266E-6,0E0,0E0,0E0,2.8328213E-6,0E0,0E0,0E0,0E0],"parents":[2147483647,0,0,1,1,2,2,3,3,4,4,5,5,6,6,7,7,8,8,9,9,10,10,11,11,13,13,14,14,15,15,16,16,17,17,32,32,33,33,34,34,38,38],"right_children":[2,4,6,8,10,12,14,16,18,20,22,24,-1,26,28,30,32,34,-1,-1,-1,-1,-1,-1,-1,-1,-1,-1,-1,-1,-1,-1,36,38,40,-1,-1,-1,42,-1,-1,-1,-1],"split_conditions":[4.5937E1,9.8701996E1,1.042037E3,9.74E-1,3.983E1,6E0,9.6843994E1,9.77725E1,9.334685E-2,5.5E0,4.5E0,1.2050583E0,2.2361756E-3,5.5E0,4.2747E1,4.3031E1,4.70925E1,9.84235E1,2.9354097E-4,9.544373E-4,9.269715E-5,1.8577577E-3,7.207203E-3,6.275177E-4,6.637574E-5,4.692078E-4,2.3151399E-3,1.3320923E-3,1.0786743E-2,7.575989E-4,5.1147463E-3,1.7186739E-3,4E0,1.0182067E-1,1E1,7.026673E-4,-3.7994387E-4,1.0989598E-3,4.4943E1,2.2287369E-3,5.8708194E-4,6.502533E-4,2.1903992E-4],"split_indices":[27,49,52,28,57,0,59,69,11,0,20,1,0,0,7,7,7,69,0,0,0,0,0,0,0,0,0,0,0,0,0,0,0,21,0,0,0,0,27,0,0,0,0],"split_type":[0,0,0,0,0,0,0,0,0,0,0,0,0,0,0,0,0,0,0,0,0,0,0,0,0,0,0,0,0,0,0,0,0,0,0,0,0,0,0,0,0,0,0],"sum_hessian":[5.1E1,4E1,1.1E1,3.2E1,8E0,4E0,7E0,9E0,2.3E1,3E0,5E0,3E0,1E0,2E0,5E0,3E0,6E0,1.8E1,5E0,2E0,1E0,2E0,3E0,2E0,1E0,1E0,1E0,1E0,4E0,1E0,2E0,4E0,2E0,1.4E1,4E0,1E0,1E0,6E0,8E0,3E0,1E0,4E0,4E0],"tree_param":{"num_deleted":"0","num_feature":"70","num_nodes":"43","size_leaf_vector":"0"}},{"base_weights":[7.791464E-3,5.5399756E-3,1.4834762E-2,4.4787684E-3,1.423645E-2,3.6133765E-3,1.9993782E-2,6.0534477E-3,1.6606967E-3,1.7440796E-2,2.3117065E-3,6.512006E-4,5.3710938E-3,3.0782064E-2,1.12673445E-2,3.7363688E-3,8.9237215E-3,9.619792E-4,3.3416748E-3,1.4350891E-2,3.4001668E-3,1.8458366E-3,5.159855E-3,1.1812483E-2,1.6374588E-3,1.3776507E-3,3.1669936E-4,3.0261993E-3,-9.10759E-5,3.6697388E-3,1.4335632E-2,2.0713806E-3,1.6784668E-4,5.957286E-4,-1.0757446E-3,1.5768051E-2,4.3029785E-3],"categories":[],"categories_nodes":[],"categories_segments":[],"categories_sizes":[],"default_left":[true,true,true,true,true,true,true,true,true,false,false,false,false,false,true,true,true,true,false,false,false,true,false,true,true,false,false,false,true,false,true,false,false,false,false,false,false],"id":30,"left_children":[1,3,5,7,9,11,13,15,17,-1,-1,-1,-1,-1,19,21,23,25,-1,-1,-1,27,-1,29,31,-1,-1,-1,33,-1,35,-1,-1,-1,-1,-1,-1],"loss_changes":[7.4242684E-4,3.146174E-4,6.224513E-4,1.5857437E-4,1.12526E-4,2.2535678E-5,4.0631392E-4,1.2627325E-4,1.4403311E-5,0E0,0E0,4.2645297E-8,0E0,0E0,9.675743E-5,3.0842944E-5,1.9114028E-4,2.7823917E-6,0E0,0E0,0E0,1.8565688E-5,5.6737917E-8,9.120954E-5,2.2031127E-6,0E0,2.3228898E-7,0E0,3.3459514E-6,0E0,4.005269E-6,0E0,0E0,0E0,0E0,0E0,0E0],"parents":[2147483647,0,0,1,1,2,2,3,3,4,4,5,5,6,6,7,7,8,8,14,14,15,15,16,16,17,17,21,21,23,23,24,24,28,28,30,30],"right_children":[2,4,6,8,10,12,14,16,18,-1,-1,-1,-1,-1,20,22,24,26,-1,-1,-1,28,-1,30,32,-1,-1,-1,34,-1,36,-1,-1,-1,-1,-1,-1],"split_conditions":[4.5937E1,9.9291E1,1.042037E3,4.4123E1,4.3877E1,2.5E0,5.5E0,4.229332E3,4.5465E1,5.232239E-3,6.93512E-4,1.9536019E-4,1.6113282E-3,9.234619E-3,9.8882996E1,9.83935E1,1.5811075E-1,9.78265E1,1.0025025E-3,4.3052677E-3,1.02005E-3,5.5E0,1.5479565E-3,9.66895E1,4.3558502E1,4.132952E-4,9.500981E-5,9.078598E-4,7.5E0,1.1009217E-3,4.48065E1,6.214142E-4,5.0354007E-5,1.7871858E-4,-3.227234E-4,4.7304155E-3,1.2908936E-3],"split_indices":[27,49,52,27,7,0,10,62,67,0,0,0,0,0,9,59,21,49,0,0,0,0,0,49,7,0,0,0,0,0,57,0,0,0,0,0,0],"split_type":[0,0,0,0,0,0,0,0,0,0,0,0,0,0,0,0,0,0,0,0,0,0,0,0,0,0,0,0,0,0,0,0,0,0,0,0,0],"sum_hessian":[5.1E1,4E1,1.1E1,3.7E1,3E0,4E0,7E0,2.3E1,1.4E1,2E0,1E0,2E0,2E0,2E0,5E0,1.4E1,9E0,1.1E1,3E0,3E0,2E0,7E0,7E0,6E0,3E0,6E0,5E0,4E0,3E0,2E0,4E0,2E0,1E0,2E0,1E0,3E0,1E0],"tree_param":{"num_deleted":"0","num_feature":"70","num_nodes":"37","size_leaf_vector":"0"}},{"base_weights":[6.1066127E-3,4.306261E-3,1.17489295E-2,3.441387E-3,1.1445999E-2,2.8914928E-3,1.5816212E-2,2.0734072E-3,5.638395E-3,1.3951619E-2,1.964569E-3,8.4871054E-4,5.531311E-3,3.48409E-3,1.9346237E-2,9.259902E-4,3.0613313E-3,7.385254E-3,1.0169983E-3,8.163452E-4,4.40979E-3,5.1167808E-3,2.518177E-2,1.156701E-3,3.255129E-4,1.3501985E-3,4.335131E-3,3.1967163E-3,1.0934448E-2,1.4343262E-3,2.60671E-4,1.4769236E-3,3.8719177E-4,-5.408923E-4,2.2148131E-3,1.6072592E-3,5.1048277E-3,3.8776398E-3,1.2232462E-3,4.9006143E-3,1.3323466E-2],"categories":[],"categories_nodes":[],"categories_segments":[],"categories_sizes":[],"default_left":[true,true,true,true,true,true,true,true,true,false,false,false,false,true,true,true,true,true,true,false,false,false,false,true,false,true,true,true,true,false,false,false,false,false,false,false,false,false,false,false,false],"id":31,"left_children":[1,3,5,7,9,11,13,15,17,-1,-1,-1,-1,19,21,23,25,27,29,-1,-1,-1,-1,31,-1,33,35,37,39,-1,-1,-1,-1,-1,-1,-1,-1,-1,-1,-1,-1],"loss_changes":[4.7763018E-4,2.1378382E-4,3.865757E-4,1.02516904E-4,6.761856E-5,2.2268385E-5,2.8085755E-4,2.5504261E-5,1.05510175E-4,0E0,0E0,5.781483E-7,0E0,3.8086837E-6,3.6936905E-4,1.4244542E-6,2.248204E-5,1.13705E-4,1.2042951E-6,0E0,0E0,0E0,0E0,1.6458762E-6,3.5510647E-7,1.264343E-5,6.492657E-6,3.3193865E-6,6.7814835E-6,0E0,0E0,0E0,0E0,8.2039793E-7,0E0,0E0,0E0,0E0,0E0,0E0,0E0],"parents":[2147483647,0,0,1,1,2,2,3,3,4,4,5,5,6,6,7,7,8,8,13,13,14,14,15,15,16,16,17,17,18,18,23,23,25,25,26,26,27,27,28,28],"right_children":[2,4,6,8,10,12,14,16,18,-1,-1,-1,-1,20,22,24,26,28,30,-1,-1,-1,-1,32,-1,34,36,38,40,-1,-1,-1,-1,-1,-1,-1,-1,-1,-1,-1,-1],"split_conditions":[4.5937E1,9.9291E1,1.042037E3,4.4240997E1,4.3877E1,6E0,9.6843994E1,9.85785E1,6.65684E-2,4.185486E-3,5.893707E-4,2.5461317E-4,1.6593934E-3,5.5E0,4.4096497E1,9.8542496E1,9.7917E1,9.7547E1,9.6779495E1,2.4490358E-4,1.3229371E-3,1.5350343E-3,7.5545316E-3,4.4943E1,9.765387E-5,9.75E-1,3.9266E1,1.1624361E4,4.3390503E1,4.3029786E-4,7.82013E-5,4.430771E-4,1.16157535E-4,-1.622677E-4,6.6444394E-4,4.8217777E-4,1.5314483E-3,1.163292E-3,3.669739E-4,1.4701843E-3,3.99704E-3],"split_indices":[27,49,52,67,7,0,59,9,21,0,0,0,0,0,7,29,59,49,39,0,0,0,0,27,0,18,27,2,27,0,0,0,0,0,0,0,0,0,0,0,0],"split_type":[0,0,0,0,0,0,0,0,0,0,0,0,0,0,0,0,0,0,0,0,0,0,0,0,0,0,0,0,0,0,0,0,0,0,0,0,0,0,0,0,0],"sum_hessian":[5.1E1,4E1,1.1E1,3.7E1,3E0,4E0,7E0,2.4E1,1.3E1,2E0,1E0,3E0,1E0,2E0,5E0,1.2E1,1.2E1,9E0,4E0,1E0,1E0,2E0,3E0,8E0,4E0,6E0,6E0,5E0,4E0,2E0,2E0,5E0,3E0,2E0,4E0,2E0,4E0,3E0,2E0,2E0,2E0],"tree_param":{"num_deleted":"0","num_feature":"70","num_nodes":"41","size_leaf_vector":"0"}},{"base_weights":[4.8139235E-3,2.780676E-3,7.9280855E-3,1.9225995E-3,8.52108E-3,1.707306E-2,4.5747757E-3,1.5602029E-3,6.216049E-3,2.7694702E-3,1.9956589E-2,6.140969E-3,9.409587E-4,2.2192562E-3,5.7834847E-4,1.8859863E-3,8.3029615E-3,2.8103192E-3,6.6725415E-4,5.5646895E-5,8.0447725E-4,1.0343552E-2,4.1866302E-3,4.388428E-3,1.4727116E-3,1.1348724E-3,-8.354187E-4],"categories":[],"categories_nodes":[],"categories_segments":[],"categories_sizes":[],"default_left":[true,true,true,true,false,true,true,true,false,false,false,true,false,true,true,false,true,true,true,false,false,false,false,false,false,false,false],"id":32,"left_children":[1,3,5,7,-1,9,11,13,-1,-1,-1,15,-1,17,19,-1,21,23,25,-1,-1,-1,-1,-1,-1,-1,-1],"loss_changes":[3.072113E-4,1.4616564E-4,5.3521316E-4,3.6979633E-5,0E0,1.5095493E-4,8.528176E-5,1.7482234E-5,0E0,0E0,0E0,8.5532374E-5,6.9399084E-7,1.3719429E-5,1.491806E-6,5.569782E-7,1.549357E-5,1.8867795E-5,5.1641573E-6,1.8952194E-7,3.4273944E-7,0E0,0E0,0E0,5.74908E-7,1.0327312E-7,0E0],"parents":[2147483647,0,0,1,1,2,2,3,3,5,5,6,6,7,7,11,11,13,13,14,14,16,16,17,17,18,18],"right_children":[2,4,6,8,-1,10,12,14,-1,-1,-1,16,-1,18,20,-1,22,24,26,-1,-1,-1,-1,-1,-1,-1,-1],"split_conditions":[4.4240997E1,5.6231E1,4.5E0,4.8016315E0,2.556324E-3,3.5E0,6.65684E-2,4.4123E1,1.8648148E-3,8.308411E-4,5.986977E-3,9.7547E1,2.8228763E-4,4.3625E1,2.3260251E2,5.657959E-4,4.35355E1,9.815E-1,7.5E0,1.669407E-5,2.4134318E-4,3.1030655E-3,1.2559891E-3,1.3165284E-3,4.418135E-4,3.4046173E-4,-2.5062563E-4],"split_indices":[67,37,0,1,0,20,21,27,0,0,0,49,0,67,32,0,57,38,0,0,0,0,0,0,0,0,0],"split_type":[0,0,0,0,0,0,0,0,0,0,0,0,0,0,0,0,0,0,0,0,0,0,0,0,0,0,0],"sum_hessian":[5.1E1,3.2E1,1.9E1,2.9E1,3E0,4E0,1.5E1,2.8E1,1E0,1E0,3E0,1E1,5E0,1.6E1,1.2E1,4E0,6E0,1.1E1,5E0,4E0,8E0,3E0,3E0,4E0,7E0,4E0,1E0],"tree_param":{"num_deleted":"0","num_feature":"70","num_nodes":"27","size_leaf_vector":"0"}},{"base_weights":[3.725625E-3,2.1433758E-3,6.1500547E-3,1.4771541E-3,6.6041946E-3,1.3313293E-2,3.5271645E-3,1.1637211E-3,5.2833557E-3,2.3536682E-3,1.5464783E-2,4.7454834E-3,7.05719E-4,1.6608519E-3,4.2410998E-4,8.201599E-4,6.1149597E-3,2.002716E-4,1.1444092E-3,2.193292E-3,3.19163E-4,8.014679E-3,3.3721924E-3,3.353119E-3,1.4341143E-3,-3.2901764E-4,1.0770162E-3,3.9342246E-3,8.049011E-4],"categories":[],"categories_nodes":[],"categories_segments":[],"categories_sizes":[],"default_left":[true,true,true,true,false,true,true,true,false,false,false,true,true,true,false,false,true,false,false,true,true,false,false,true,false,false,false,false,false],"id":33,"left_children":[1,3,5,7,-1,9,11,13,-1,-1,-1,15,17,19,-1,-1,21,-1,-1,23,25,-1,-1,27,-1,-1,-1,-1,-1],"loss_changes":[1.862928E-4,8.831709E-5,3.288096E-4,2.9641327E-5,0E0,8.149858E-5,5.1649753E-5,9.958436E-6,0E0,0E0,0E0,5.411677E-5,1.1012162E-6,1.14442555E-5,9.360888E-7,1.3727299E-7,1.4656864E-5,1.1464485E-7,0E0,5.7574216E-6,3.3017116E-6,0E0,0E0,2.756471E-6,1.3274803E-7,5.774018E-7,0E0,0E0,0E0],"parents":[2147483647,0,0,1,1,2,2,3,3,5,5,6,6,7,7,11,11,12,12,13,13,16,16,19,19,20,20,23,23],"right_children":[2,4,6,8,-1,10,12,14,-1,-1,-1,16,18,20,-1,-1,22,-1,-1,24,26,-1,-1,28,-1,-1,-1,-1,-1],"split_conditions":[4.4240997E1,5.6231E1,4.5E0,4.8016315E0,1.9812584E-3,3.5E0,6.65684E-2,4.4123E1,1.5850068E-3,7.061005E-4,4.639435E-3,9.6764496E1,5.7659894E-1,6.5E0,1.27233E-4,2.4604797E-4,4.35355E1,6.0081486E-5,3.4332275E-4,9.705E-1,8.5E0,2.4044039E-3,1.0116578E-3,4.846818E-2,4.302343E-4,-9.87053E-5,3.2310488E-4,1.1802674E-3,2.4147035E-4],"split_indices":[67,37,0,1,0,20,21,27,0,0,0,9,61,0,0,0,57,0,0,18,0,0,0,11,0,0,0,0,0],"split_type":[0,0,0,0,0,0,0,0,0,0,0,0,0,0,0,0,0,0,0,0,0,0,0,0,0,0,0,0,0],"sum_hessian":[5.1E1,3.2E1,1.9E1,2.9E1,3E0,4E0,1.5E1,2.8E1,1E0,1E0,3E0,1E1,5E0,1.6E1,1.2E1,3E0,7E0,3E0,2E0,1.1E1,5E0,3E0,4E0,3E0,8E0,3E0,2E0,2E0,1E0],"tree_param":{"num_deleted":"0","num_feature":"70","num_nodes":"29","size_leaf_vector":"0"}},{"base_weights":[2.899626E-3,1.6750242E-3,4.775238E-3,1.2662672E-3,7.3776245E-3,1.0388183E-2,2.7227402E-3,9.0740056E-4,3.5514832E-3,1.9989014E-3,1.1985779E-2,3.65448E-3,5.607605E-4,1.5403747E-3,5.4554344E-4,6.3705444E-4,4.7063828E-3,2.5772094E-3,4.196167E-4,3.15547E-4,1.3866425E-3,6.2122345E-3,2.5604249E-3,2.9678345E-3,5.0735474E-4,7.675171E-4,-6.599426E-4],"categories":[],"categories_nodes":[],"categories_segments":[],"categories_sizes":[],"default_left":[true,true,true,true,false,true,true,true,false,false,false,true,false,true,true,false,true,true,true,false,false,false,false,false,false,false,false],"id":34,"left_children":[1,3,5,7,-1,9,11,13,-1,-1,-1,15,-1,17,19,-1,21,23,25,-1,-1,-1,-1,-1,-1,-1,-1],"loss_changes":[1.11439E-4,6.758022E-5,2.0212686E-4,2.3020188E-5,0E0,4.3054984E-5,3.0181152E-5,5.8019996E-6,0E0,0E0,0E0,3.191619E-5,7.2333205E-7,1.0538968E-5,3.4314444E-6,2.7945498E-7,9.946001E-6,2.5369409E-6,2.7599917E-6,9.0404455E-7,0E0,0E0,0E0,0E0,0E0,4.1015733E-7,0E0],"parents":[2147483647,0,0,1,1,2,2,3,3,5,5,6,6,7,7,11,11,13,13,14,14,16,16,17,17,18,18],"right_children":[2,4,6,8,-1,10,12,14,-1,-1,-1,16,-1,18,20,-1,22,24,26,-1,-1,-1,-1,-1,-1,-1,-1],"split_conditions":[4.4240997E1,1.15E1,4.5E0,9.9285E1,2.2132874E-3,3.5E0,6.65684E-2,9.69035E1,1.065445E-3,5.9967046E-4,3.5957338E-3,9.6764496E1,1.6822816E-4,4.3577E1,8.5E0,1.9111634E-4,4.35355E1,6.3526295E-2,9.59995E1,9.46641E-5,4.1599275E-4,1.8636704E-3,7.681275E-4,8.903504E-4,1.5220643E-4,2.3025513E-4,-1.979828E-4],"split_indices":[67,0,0,49,0,20,21,29,0,0,0,9,0,67,0,0,57,1,29,0,0,0,0,0,0,0,0],"split_type":[0,0,0,0,0,0,0,0,0,0,0,0,0,0,0,0,0,0,0,0,0,0,0,0,0,0,0],"sum_hessian":[5.1E1,3.2E1,1.9E1,3.1E1,1E0,4E0,1.5E1,2.8E1,3E0,1E0,3E0,1E1,5E0,9E0,1.9E1,3E0,7E0,4E0,5E0,1.6E1,3E0,3E0,4E0,3E0,1E0,4E0,1E0],"tree_param":{"num_deleted":"0","num_feature":"70","num_nodes":"27","size_leaf_vector":"0"}},{"base_weights":[2.261586E-3,5.966282E-3,1.8285637E-3,9.702046E-3,2.4175644E-4,9.842655E-4,3.620402E-3,5.922847E-4,2.1841675E-3,7.082367E-3,1.7176542E-3,2.652617E-4,1.0438398E-3,1.1511644E-4,2.854665E-3,8.217812E-3,1.2702942E-3,6.011963E-4,2.2697449E-3,7.3337555E-4,9.099643E-6,3.274282E-4,1.5862783E-3,3.2333373E-3,4.8065186E-4,2.5177002E-3,3.9100647E-4],"categories":[],"categories_nodes":[],"categories_segments":[],"categories_sizes":[],"default_left":[true,true,true,false,false,true,true,true,true,true,true,true,true,false,true,false,false,false,true,false,false,false,false,false,false,false,false],"id":35,"left_children":[1,3,5,-1,-1,7,9,11,13,15,17,19,21,-1,23,-1,-1,-1,25,-1,-1,-1,-1,-1,-1,-1,-1],"loss_changes":[7.250946E-5,1.0458189E-4,6.9053174E-5,0E0,4.1174042E-7,1.469786E-5,8.664363E-5,3.71017E-6,1.0769734E-5,2.255739E-5,5.4156844E-6,2.0318475E-6,3.75531E-6,5.3061444E-7,3.8397266E-6,0E0,0E0,0E0,2.2764652E-6,0E0,9.1339086E-7,4.459459E-7,8.71506E-7,0E0,0E0,0E0,0E0],"parents":[2147483647,0,0,1,1,2,2,5,5,6,6,7,7,8,8,9,9,10,10,11,11,12,12,14,14,18,18],"right_children":[2,4,6,-1,-1,8,10,12,14,16,18,20,22,-1,24,-1,-1,-1,26,-1,-1,-1,-1,-1,-1,-1,-1],"split_conditions":[9.4477005E1,1.1730946E-1,9.8792E1,2.910614E-3,7.2526935E-5,9.8936005E1,9.8634995E1,9.82825E1,4.11885E1,5.85175E1,4.34675E1,4.5E0,4.3665E1,3.4534933E-5,1.05E1,2.4653436E-3,3.8108826E-4,1.803589E-4,5.9628E1,2.2001268E-4,2.729893E-6,9.822846E-5,4.758835E-4,9.700012E-4,1.4419557E-4,7.553101E-4,1.1730195E-4],"split_indices":[39,41,29,0,0,69,19,59,37,27,67,0,57,0,0,0,0,0,17,0,0,0,0,0,0,0,0],"split_type":[0,0,0,0,0,0,0,0,0,0,0,0,0,0,0,0,0,0,0,0,0,0,0,0,0,0,0],"sum_hessian":[5.1E1,4E0,4.7E1,2E0,2E0,3.3E1,1.4E1,2.6E1,7E0,4E0,1E1,1.6E1,1E1,2E0,5E0,3E0,1E0,4E0,6E0,5E0,1.1E1,5E0,5E0,4E0,1E0,5E0,1E0],"tree_param":{"num_deleted":"0","num_feature":"70","num_nodes":"27","size_leaf_vector":"0"}},{"base_weights":[1.7530391E-3,4.7722817E-3,1.402013E-3,7.761637E-3,1.9216537E-4,7.465482E-4,2.7942657E-3,2.9296875E-3,5.9161405E-4,5.5274963E-3,1.297864E-3,1.4443397E-4,9.1351336E-4,6.3695908E-3,1.0795593E-3,2.2888184E-3,6.401539E-4,5.493164E-4,-1.12938884E-4,1.3510386E-3,1.4303625E-4,6.1035156E-4,1.6450882E-3,1.9289652E-3,5.289714E-4],"categories":[],"categories_nodes":[],"categories_segments":[],"categories_sizes":[],"default_left":[true,true,true,false,false,true,true,false,true,true,true,true,true,false,false,false,false,false,false,true,false,false,true,false,false],"id":36,"left_children":[1,3,5,-1,-1,7,9,-1,11,13,15,17,19,-1,-1,-1,-1,-1,-1,21,-1,-1,23,-1,-1],"loss_changes":[4.8420523E-5,6.696646E-5,4.1717438E-5,0E0,4.2530826E-7,9.767013E-6,5.4176227E-5,0E0,4.618306E-6,1.185156E-5,5.7041707E-6,1.6251254E-6,6.211714E-6,0E0,0E0,7.7610275E-7,2.986269E-7,6.721825E-8,5.6775264E-7,1.6095019E-6,8.1724045E-7,1.7392449E-7,1.5143523E-6,0E0,0E0],"parents":[2147483647,0,0,1,1,2,2,5,5,6,6,8,8,9,9,10,10,11,11,12,12,19,19,22,22],"right_children":[2,4,6,-1,-1,8,10,-1,12,14,16,18,20,-1,-1,-1,-1,-1,-1,22,-1,-1,24,-1,-1],"split_conditions":[9.4477005E1,1.1730946E-1,9.8792E1,2.3284913E-3,5.7649613E-5,9.385E-1,9.8634995E1,8.789063E-4,9.7907E1,5.85175E1,9.9109E1,4.5E0,9.7893E1,1.9108773E-3,3.238678E-4,6.866455E-4,1.9204618E-4,1.6479492E-4,-3.3881668E-5,4.3834E1,4.2910877E-5,1.8310547E-4,2.4655433E-1,5.7868956E-4,1.5869141E-4],"split_indices":[39,41,29,0,0,8,19,0,59,27,29,0,29,0,0,0,0,0,0,7,0,0,31,0,0],"split_type":[0,0,0,0,0,0,0,0,0,0,0,0,0,0,0,0,0,0,0,0,0,0,0,0,0],"sum_hessian":[5.1E1,4E0,4.7E1,2E0,2E0,3.3E1,1.4E1,1E0,3.2E1,4E0,1E1,1.4E1,1.8E1,3E0,1E0,3E0,7E0,5E0,9E0,1.1E1,7E0,4E0,7E0,5E0,2E0],"tree_param":{"num_deleted":"0","num_feature":"70","num_nodes":"25","size_leaf_vector":"0"}},{"base_weights":[1.3703957E-3,8.036156E-4,2.5954247E-3,1.217322E-3,1.8454343E-4,1.0822297E-3,4.386357E-3,2.3378644E-3,6.5100193E-4,3.3315022E-3,1.0347366E-4,1.9699098E-3,6.95165E-3,3.1026205E-4,3.086853E-3,1.0897318E-3,3.525127E-4,-5.1116943E-4,3.935496E-4,2.3441315E-3,2.3651123E-4,3.616333E-3,4.8446655E-4],"categories":[],"categories_nodes":[],"categories_segments":[],"categories_sizes":[],"default_left":[true,true,true,true,false,true,true,true,true,false,true,true,false,false,true,false,false,false,false,false,false,false,false],"id":37,"left_children":[1,3,5,7,-1,9,11,13,15,-1,17,19,-1,-1,21,-1,-1,-1,-1,-1,-1,-1,-1],"loss_changes":[3.401901E-5,9.251571E-6,3.8613434E-5,1.243893E-5,9.099315E-7,2.1670168E-5,2.9698145E-5,9.672822E-6,1.7111543E-6,9.4253846E-7,1.627516E-6,2.6889647E-6,0E0,1.1691978E-7,5.1375646E-6,0E0,6.692453E-7,0E0,1.6181974E-7,0E0,0E0,0E0,0E0],"parents":[2147483647,0,0,1,1,2,2,3,3,5,5,6,6,7,7,8,8,10,10,11,11,14,14],"right_children":[2,4,6,8,-1,10,12,14,16,-1,18,20,-1,-1,22,-1,-1,-1,-1,-1,-1,-1,-1],"split_conditions":[9.8749995E-1,4.4123E1,2.338844E6,9.71345E1,5.536303E-5,9.9412E1,3.7371355E-1,4.33155E1,9.6591995E1,9.994507E-4,9.8099995E-1,6.3526295E-2,2.085495E-3,9.307862E-5,1.15E1,3.2691954E-4,1.0575381E-4,-1.5335083E-4,1.1806488E-4,7.0323946E-4,7.095337E-5,1.0849E-3,1.4533997E-4],"split_indices":[8,27,63,9,0,9,1,47,29,0,48,1,0,0,10,0,0,0,0,0,0,0,0],"split_type":[0,0,0,0,0,0,0,0,0,0,0,0,0,0,0,0,0,0,0,0,0,0,0],"sum_hessian":[5.1E1,3.6E1,1.5E1,2.1E1,1.5E1,9E0,6E0,6E0,1.5E1,2E0,7E0,4E0,2E0,2E0,4E0,5E0,1E1,2E0,5E0,3E0,1E0,3E0,1E0],"tree_param":{"num_deleted":"0","num_feature":"70","num_nodes":"23","size_leaf_vector":"0"}},{"base_weights":[1.0681313E-3,6.6762144E-4,2.347529E-3,9.6702576E-4,8.41856E-5,4.4703484E-3,1.1432171E-3,4.5181724E-4,1.6753457E-3,1.1730194E-4,5.882263E-3,5.260408E-4,3.0403137E-3,1.7316E-4,1.3141632E-3,2.196312E-3,2.1457672E-4,3.7059785E-4,-2.5634764E-4,5.849202E-4,2.6359558E-3,1.0503134E-3,3.1661987E-3],"categories":[],"categories_nodes":[],"categories_segments":[],"categories_sizes":[],"default_left":[true,true,true,true,false,true,true,true,true,false,false,false,false,true,false,true,false,false,false,false,true,false,false],"id":38,"left_children":[1,3,5,7,-1,9,11,13,15,-1,-1,-1,-1,17,-1,19,-1,-1,-1,-1,21,-1,-1],"loss_changes":[2.507813E-5,7.080602E-6,2.556786E-5,9.096224E-6,7.6960947E-7,2.3894521E-5,8.938259E-6,3.8575213E-6,7.899849E-6,0E0,0E0,7.177473E-7,0E0,1.2822168E-6,0E0,4.1256826E-6,4.0093556E-7,2.2507186E-7,1.5773497E-7,0E0,1.7191524E-6,0E0,0E0],"parents":[2147483647,0,0,1,1,2,2,3,3,5,5,6,6,7,7,8,8,13,13,15,15,20,20],"right_children":[2,4,6,8,-1,10,12,14,16,-1,-1,-1,-1,18,-1,20,-1,-1,-1,-1,22,-1,-1],"split_conditions":[4.5937E1,4.4123E1,4.3688E1,4.2280527E3,2.5255682E-5,2.328985E2,1.15E1,4.372E1,1.5811075E-1,3.5190584E-5,1.764679E-3,1.5781225E-4,9.1209414E-4,6.5E0,3.94249E-4,9.66895E1,6.4373016E-5,1.1117936E-4,-7.6904296E-5,1.7547607E-4,4.1466E1,3.1509402E-4,9.498597E-4],"split_indices":[27,27,47,62,0,2,0,27,21,0,0,0,0,40,0,49,0,0,0,0,27,0,0],"split_type":[0,0,0,0,0,0,0,0,0,0,0,0,0,0,0,0,0,0,0,0,0,0,0],"sum_hessian":[5.1E1,4E1,1.1E1,2.6E1,1.4E1,3E0,8E0,1.6E1,1E1,1E0,2E0,7E0,1E0,1.3E1,3E0,7E0,3E0,9E0,4E0,2E0,5E0,2E0,3E0],"tree_param":{"num_deleted":"0","num_feature":"70","num_nodes":"23","size_leaf_vector":"0"}},{"base_weights":[8.402306E-4,5.1482423E-4,1.8820167E-3,2.4827762E-4,9.602865E-4,1.5206337E-4,2.7279854E-3,5.8078766E-4,-1.6622245E-5,1.2831255E-3,5.7983398E-5,4.7073364E-3,1.2836456E-3,1.7717149E-4,1.3437271E-3,4.348755E-4,1.9175211E-3,5.065918E-4,2.5844574E-3,5.6711835E-4,2.450943E-3],"categories":[],"categories_nodes":[],"categories_segments":[],"categories_sizes":[],"default_left":[true,true,true,true,true,false,true,true,false,true,false,false,true,false,false,false,true,false,false,false,false],"id":39,"left_children":[1,3,5,7,9,-1,11,13,-1,15,-1,-1,17,-1,-1,-1,19,-1,-1,-1,-1],"loss_changes":[1.6659294E-5,4.6297773E-6,1.7147006E-5,2.3878642E-6,4.2950805E-6,3.4872824E-7,1.6828293E-5,3.4571462E-6,3.464065E-7,5.0855033E-6,5.421093E-7,0E0,4.7555395E-6,6.9427034E-7,0E0,3.0190563E-7,2.9320327E-6,5.6298404E-8,0E0,0E0,0E0],"parents":[2147483647,0,0,1,1,2,2,3,3,4,4,6,6,7,7,9,9,12,12,16,16],"right_children":[2,4,6,8,10,-1,12,14,-1,16,-1,-1,18,-1,-1,-1,20,-1,-1,-1,-1],"split_conditions":[4.5937E1,4.4240997E1,1.042037E3,9.815E-1,6.65684E-2,4.561901E-5,5.5E0,9.77E-1,-4.986674E-6,9.68685E1,1.739502E-5,1.412201E-3,1.15E1,5.315145E-5,4.0311815E-4,1.3046265E-4,5.5E0,1.5197755E-4,7.753373E-4,1.701355E-4,7.3528296E-4],"split_indices":[27,67,52,38,21,0,10,38,0,29,0,0,0,0,0,0,10,0,0,0,0],"split_type":[0,0,0,0,0,0,0,0,0,0,0,0,0,0,0,0,0,0,0,0,0],"sum_hessian":[5.1E1,4E1,1.1E1,2.6E1,1.4E1,4E0,7E0,1.1E1,1.5E1,1E1,4E0,2E0,5E0,8E0,3E0,5E0,5E0,4E0,1E0,2E0,3E0],"tree_param":{"num_deleted":"0","num_feature":"70","num_nodes":"21","size_leaf_vector":"0"}},{"base_weights":[6.6341116E-4,2.1231652E-3,4.9753237E-4,3.5349529E-3,3.6557515E-6,3.267839E-4,1.4509474E-3,-1.0322122E-5,5.3463073E-4,2.7542114E-3,3.7879945E-4,-1.4342864E-4,7.029034E-4,4.4466654E-4,1.1558533E-3,1.4167785E-3,3.3569336E-4],"categories":[],"categories_nodes":[],"categories_segments":[],"categories_sizes":[],"default_left":[true,true,true,false,false,true,true,false,true,false,false,false,true,false,true,false,false],"id":40,"left_children":[1,3,5,-1,-1,7,9,-1,11,-1,-1,-1,13,-1,15,-1,-1],"loss_changes":[1.1535052E-5,1.4948562E-5,7.339974E-6,0E0,2.4805016E-7,2.9483085E-6,8.73775E-6,8.070564E-7,3.067386E-6,0E0,1.5342033E-7,1.8870963E-7,1.942366E-6,6.488101E-7,1.0224003E-6,0E0,0E0],"parents":[2147483647,0,0,1,1,2,2,5,5,6,6,8,8,12,12,14,14],"right_children":[2,4,6,-1,-1,8,10,-1,12,-1,-1,-1,14,-1,16,-1,-1],"split_conditions":[9.4477005E1,1.1730946E-1,9.9306E1,1.060486E-3,1.0967254E-6,9.7907E1,5.2696E1,-3.0966366E-6,2E0,8.2626345E-4,1.1363984E-4,-4.3028595E-5,9.86875E1,1.3339997E-4,1.4288955E6,4.250336E-4,1.0070801E-4],"split_indices":[39,41,29,0,0,59,27,0,20,0,0,0,49,0,3,0,0],"split_type":[0,0,0,0,0,0,0,0,0,0,0,0,0,0,0,0,0],"sum_hessian":[5.1E1,4E0,4.7E1,2E0,2E0,4.1E1,6E0,1.6E1,2.5E1,2E0,4E0,5E0,2E1,1.4E1,6E0,4E0,2E0],"tree_param":{"num_deleted":"0","num_feature":"70","num_nodes":"17","size_leaf_vector":"0"}},{"base_weights":[5.1498873E-4,2.9159174E-4,1.235346E-3,4.4921594E-4,-1.1571248E-5,3.1852722E-3,7.6850975E-4,1.8972509E-4,8.094094E-4,1.830101E-3,1.4165044E-4,1.0007223E-3,-3.4332275E-5,3.5476685E-4,2.2036235E-3],"categories":[],"categories_nodes":[],"categories_segments":[],"categories_sizes":[],"default_left":[true,true,true,true,false,false,true,false,true,true,false,false,false,false,false],"id":41,"left_children":[1,3,5,7,-1,-1,9,-1,11,13,-1,-1,-1,-1,-1],"loss_changes":[8.007917E-6,1.9644167E-6,8.475641E-6,2.3700413E-6,5.5710916E-7,0E0,7.060917E-6,9.3931106E-7,1.8099618E-6,1.4225088E-6,3.9134625E-7,5.1630013E-7,1.6728154E-7,0E0,0E0],"parents":[2147483647,0,0,1,1,2,2,3,3,6,6,8,8,9,9],"right_children":[2,4,6,8,-1,-1,10,-1,12,14,-1,-1,-1,-1,-1],"split_conditions":[4.5937E1,4.4123E1,9.6599996E-1,4.2280527E3,-3.4713746E-6,9.555817E-4,9.8604996E1,5.6917528E-5,7.515435E-1,9.82975E1,4.2495132E-5,3.002167E-4,-1.0299683E-5,1.0643006E-4,6.610871E-4],"split_indices":[27,27,28,62,0,0,19,0,21,9,0,0,0,0,0],"split_type":[0,0,0,0,0,0,0,0,0,0,0,0,0,0,0],"sum_hessian":[5.1E1,4E1,1.1E1,2.6E1,1.4E1,1E0,1E1,1.6E1,1E1,3E0,7E0,8E0,2E0,1E0,2E0],"tree_param":{"num_deleted":"0","num_feature":"70","num_nodes":"15","size_leaf_vector":"0"}},{"base_weights":[4.0126077E-4,2.1305025E-4,1.0108749E-3,3.025111E-4,-1.937896E-4,2.708435E-3,6.103299E-4,1.5694162E-4,5.5631E-4,1.4724731E-3,1.02967024E-4,1.7983573E-4,9.028117E-4],"categories":[],"categories_nodes":[],"categories_segments":[],"categories_sizes":[],"default_left":[true,true,true,true,false,false,true,false,true,false,false,false,false],"id":42,"left_children":[1,3,5,7,-1,-1,9,-1,11,-1,-1,-1,-1],"loss_changes":[5.750894E-6,1.5508692E-6,6.5063523E-6,1.1688344E-6,3.4577099E-7,0E0,4.659998E-6,6.943734E-7,1.40303E-6,8.2698534E-7,3.9993938E-7,1.4720024E-7,9.94221E-7],"parents":[2147483647,0,0,1,1,2,2,3,3,6,6,8,8],"right_children":[2,4,6,8,-1,-1,10,-1,12,-1,-1,-1,-1],"split_conditions":[4.5937E1,1.4181504E-1,9.6599996E-1,4.4240997E1,-5.8136884E-5,8.125306E-4,9.8604996E1,4.708249E-5,9.781799E1,4.4174196E-4,3.0890107E-5,5.395072E-5,2.7084353E-4],"split_indices":[27,11,28,67,0,0,19,0,49,0,0,0,0],"split_type":[0,0,0,0,0,0,0,0,0,0,0,0,0],"sum_hessian":[5.1E1,4E1,1.1E1,3.3E1,7E0,1E0,1E1,2.2E1,1.1E1,3E0,7E0,6E0,5E0],"tree_param":{"num_deleted":"0","num_feature":"70","num_nodes":"13","size_leaf_vector":"0"}},{"base_weights":[3.1171166E-4,1.291573E-3,2.2536151E-4,1.9111633E-3,-2.835989E-4,1.4510621E-4,1.0919571E-3,6.719147E-5,7.7056885E-4],"categories":[],"categories_nodes":[],"categories_segments":[],"categories_sizes":[],"default_left":[true,true,true,false,false,true,false,false,false],"id":43,"left_children":[1,3,5,-1,-1,7,-1,-1,-1],"loss_changes":[4.10871E-6,4.445849E-6,3.2494456E-6,2.665838E-7,0E0,2.1899314E-6,6.440132E-7,7.891286E-7,5.048155E-7],"parents":[2147483647,0,0,1,1,2,2,5,5],"right_children":[2,4,6,-1,-1,8,-1,-1,-1],"split_conditions":[2.328455E2,4.757928E0,1.6553402E4,5.73349E-4,-8.507967E-5,4.65335E1,3.2758713E-4,2.015744E-5,2.3117066E-4],"split_indices":[12,21,42,0,0,57,0,0,0],"split_type":[0,0,0,0,0,0,0,0,0],"sum_hessian":[5.1E1,3E0,4.8E1,2E0,1E0,4.5E1,3E0,4.1E1,4E0],"tree_param":{"num_deleted":"0","num_feature":"70","num_nodes":"9","size_leaf_vector":"0"}},{"base_weights":[2.3763455E-4,9.729223E-5,6.973346E-4,2.0141602E-3,3.9451773E-4,9.95636E-4,4.464388E-5],"categories":[],"categories_nodes":[],"categories_segments":[],"categories_sizes":[],"default_left":[true,false,true,false,true,false,false],"id":44,"left_children":[1,-1,3,-1,5,-1,-1],"loss_changes":[3.286954E-6,8.464847E-7,3.990462E-6,0E0,2.2690224E-6,9.728246E-7,2.8259709E-7],"parents":[2147483647,0,0,2,2,4,4],"right_children":[2,-1,4,-1,6,-1,-1],"split_conditions":[4.5937E1,2.918767E-5,9.6599996E-1,6.042481E-4,9.8604996E1,2.986908E-4,1.3393164E-5],"split_indices":[27,0,28,0,19,0,0],"split_type":[0,0,0,0,0,0,0],"sum_hessian":[5.1E1,4E1,1.1E1,1E0,1E1,3E0,7E0],"tree_param":{"num_deleted":"0","num_feature":"70","num_nodes":"7","size_leaf_vector":"0"}},{"base_weights":[1.8354792E-4,5.480015E-6,4.6818255E-4,1.2551036E-4,1.0866438E-3,4.3654442E-4,-2.478872E-4,4.6844484E-4,1.7547607E-3],"categories":[],"categories_nodes":[],"categories_segments":[],"categories_sizes":[],"default_left":[true,false,true,true,true,false,false,false,false],"id":45,"left_children":[1,-1,3,5,7,-1,-1,-1,-1],"loss_changes":[2.6330174E-6,7.5321054E-7,4.102204E-6,1.7341648E-6,2.069196E-6,4.078497E-7,3.9065227E-7,4.578925E-7,0E0],"parents":[2147483647,0,0,2,2,3,3,4,4],"right_children":[2,-1,4,6,8,-1,-1,-1,-1],"split_conditions":[9.8731E1,1.6440046E-6,2.338844E6,4.7565002E1,3.7371355E-1,1.3096334E-4,-7.436616E-5,1.4053346E-4,5.264282E-4],"split_indices":[9,0,63,17,1,0,0,0,0],"split_type":[0,0,0,0,0,0,0,0,0],"sum_hessian":[5.1E1,3.2E1,1.9E1,1.3E1,6E0,7E0,6E0,4E0,2E0],"tree_param":{"num_deleted":"0","num_feature":"70","num_nodes":"9","size_leaf_vector":"0"}},{"base_weights":[1.4365866E-4,7.519722E-4,7.7299774E-5,1.3605753E-3,-1.0728836E-4,-3.7624555E-5,3.326416E-4],"categories":[],"categories_nodes":[],"categories_segments":[],"categories_sizes":[],"default_left":[true,true,true,false,false,false,false],"id":46,"left_children":[1,3,5,-1,-1,-1,-1],"loss_changes":[2.040957E-6,2.7607173E-6,1.421075E-6,0E0,5.9026547E-8,6.907831E-7,5.803996E-7],"parents":[2147483647,0,0,1,1,2,2],"right_children":[2,4,6,-1,-1,-1,-1],"split_conditions":[9.4477005E1,1.1730946E-1,9.8792E1,4.081726E-4,-3.2186508E-5,-1.1287367E-5,9.979248E-5],"split_indices":[39,41,29,0,0,0,0],"split_type":[0,0,0,0,0,0,0],"sum_hessian":[5.1E1,4E0,4.7E1,2E0,2E0,3.3E1,1.4E1],"tree_param":{"num_deleted":"0","num_feature":"70","num_nodes":"7","size_leaf_vector":"0"}},{"base_weights":[1.0810448E-4,6.01244E-4,5.448361E-5,1.0884603E-3,-8.6387E-5],"categories":[],"categories_nodes":[],"categories_segments":[],"categories_sizes":[],"default_left":[true,true,false,false,false],"id":47,"left_children":[1,3,-1,-1,-1],"loss_changes":[1.3422557E-6,1.7691539E-6,9.768887E-7,0E0,6.162919E-8],"parents":[2147483647,0,0,1,1],"right_children":[2,4,-1,-1,-1],"split_conditions":[9.4477005E1,1.1730946E-1,1.6345084E-5,3.265381E-4,-2.59161E-5],"split_indices":[39,41,0,0,0],"split_type":[0,0,0,0,0],"sum_hessian":[5.1E1,4E0,4.7E1,2E0,2E0],"tree_param":{"num_deleted":"0","num_feature":"70","num_nodes":"5","size_leaf_vector":"0"}},{"base_weights":[8.248137E-5,-4.0961033E-5,2.8203725E-4,5.2503176E-5,7.0081436E-4,2.3796558E-4,-3.2892227E-4],"categories":[],"categories_nodes":[],"categories_segments":[],"categories_sizes":[],"default_left":[true,false,true,true,false,false,false],"id":48,"left_children":[1,-1,3,5,-1,-1,-1],"loss_changes":[1.2925028E-6,7.00571E-7,1.8856775E-6,1.0686333E-6,8.6624755E-7,3.9681026E-7,1.0425475E-7],"parents":[2147483647,0,0,2,2,3,3],"right_children":[2,-1,4,6,-1,-1,-1],"split_conditions":[9.8731E1,-1.228831E-5,2.338844E6,2.9522144E3,2.1024431E-4,7.138967E-5,-9.867668E-5],"split_indices":[9,0,63,22,0,0,0],"split_type":[0,0,0,0,0,0,0],"sum_hessian":[5.1E1,3.2E1,1.9E1,1.3E1,6E0,9E0,4E0],"tree_param":{"num_deleted":"0","num_feature":"70","num_nodes":"7","size_leaf_vector":"0"}},{"base_weights":[6.204385E-5],"categories":[],"categories_nodes":[],"categories_segments":[],"categories_sizes":[],"default_left":[false],"id":49,"left_children":[-1],"loss_changes":[9.368454E-7],"parents":[2147483647],"right_children":[-1],"split_conditions":[1.8613156E-5],"split_indices":[0],"split_type":[0],"sum_hessian":[5.1E1],"tree_param":{"num_deleted":"0","num_feature":"70","num_nodes":"1","size_leaf_vector":"0"}},{"base_weights":[4.578554E-5],"categories":[],"categories_nodes":[],"categories_segments":[],"categories_sizes":[],"default_left":[false],"id":50,"left_children":[-1],"loss_changes":[9.4956897E-7],"parents":[2147483647],"right_children":[-1],"split_conditions":[1.3735662E-5],"split_indices":[0],"split_type":[0],"sum_hessian":[5.1E1],"tree_param":{"num_deleted":"0","num_feature":"70","num_nodes":"1","size_leaf_vector":"0"}},{"base_weights":[3.1015046E-5],"categories":[],"categories_nodes":[],"categories_segments":[],"categories_sizes":[],"default_left":[false],"id":51,"left_children":[-1],"loss_changes":[9.645516E-7],"parents":[2147483647],"right_children":[-1],"split_conditions":[9.304515E-6],"split_indices":[0],"split_type":[0],"sum_hessian":[5.1E1],"tree_param":{"num_deleted":"0","num_feature":"70","num_nodes":"1","size_leaf_vector":"0"}},{"base_weights":[2.3326049E-5],"categories":[],"categories_nodes":[],"categories_segments":[],"categories_sizes":[],"default_left":[false],"id":52,"left_children":[-1],"loss_changes":[9.707118E-7],"parents":[2147483647],"right_children":[-1],"split_conditions":[6.997815E-6],"split_indices":[0],"split_type":[0],"sum_hessian":[5.1E1],"tree_param":{"num_deleted":"0","num_feature":"70","num_nodes":"1","size_leaf_vector":"0"}},{"base_weights":[1.5882346E-5],"categories":[],"categories_nodes":[],"categories_segments":[],"categories_sizes":[],"default_left":[false],"id":53,"left_children":[-1],"loss_changes":[9.782274E-7],"parents":[2147483647],"right_children":[-1],"split_conditions":[4.764704E-6],"split_indices":[0],"split_type":[0],"sum_hessian":[5.1E1],"tree_param":{"num_deleted":"0","num_feature":"70","num_nodes":"1","size_leaf_vector":"0"}},{"base_weights":[9.665122E-6],"categories":[],"categories_nodes":[],"categories_segments":[],"categories_sizes":[],"default_left":[false],"id":54,"left_children":[-1],"loss_changes":[9.868239E-7],"parents":[2147483647],"right_children":[-1],"split_conditions":[2.8995366E-6],"split_indices":[0],"split_type":[0],"sum_hessian":[5.1E1],"tree_param":{"num_deleted":"0","num_feature":"70","num_nodes":"1","size_leaf_vector":"0"}},{"base_weights":[8.39967E-6],"categories":[],"categories_nodes":[],"categories_segments":[],"categories_sizes":[],"default_left":[false],"id":55,"left_children":[-1],"loss_changes":[9.850811E-7],"parents":[2147483647],"right_children":[-1],"split_conditions":[2.519901E-6],"split_indices":[0],"split_type":[0],"sum_hessian":[5.1E1],"tree_param":{"num_deleted":"0","num_feature":"70","num_nodes":"1","size_leaf_vector":"0"}},{"base_weights":[7.2603043E-6],"categories":[],"categories_nodes":[],"categories_segments":[],"categories_sizes":[],"default_left":[false],"id":56,"left_children":[-1],"loss_changes":[9.830704E-7],"parents":[2147483647],"right_children":[-1],"split_conditions":[2.1780913E-6],"split_indices":[0],"split_type":[0],"sum_hessian":[5.1E1],"tree_param":{"num_deleted":"0","num_feature":"70","num_nodes":"1","size_leaf_vector":"0"}},{"base_weights":[6.146156E-6],"categories":[],"categories_nodes":[],"categories_segments":[],"categories_sizes":[],"default_left":[false],"id":57,"left_children":[-1],"loss_changes":[9.814482E-7],"parents":[2147483647],"right_children":[-1],"split_conditions":[1.8438469E-6],"split_indices":[0],"split_type":[0],"sum_hessian":[5.1E1],"tree_param":{"num_deleted":"0","num_feature":"70","num_nodes":"1","size_leaf_vector":"0"}},{"base_weights":[5.92837E-6],"categories":[],"categories_nodes":[],"categories_segments":[],"categories_sizes":[],"default_left":[false],"id":58,"left_children":[-1],"loss_changes":[9.803666E-7],"parents":[2147483647],"right_children":[-1],"split_conditions":[1.778511E-6],"split_indices":[0],"split_type":[0],"sum_hessian":[5.1E1],"tree_param":{"num_deleted":"0","num_feature":"70","num_nodes":"1","size_leaf_vector":"0"}},{"base_weights":[5.7197535E-6],"categories":[],"categories_nodes":[],"categories_segments":[],"categories_sizes":[],"default_left":[false],"id":59,"left_children":[-1],"loss_changes":[9.794935E-7],"parents":[2147483647],"right_children":[-1],"split_conditions":[1.7159261E-6],"split_indices":[0],"split_type":[0],"sum_hessian":[5.1E1],"tree_param":{"num_deleted":"0","num_feature":"70","num_nodes":"1","size_leaf_vector":"0"}},{"base_weights":[5.5134296E-6],"categories":[],"categories_nodes":[],"categories_segments":[],"categories_sizes":[],"default_left":[false],"id":60,"left_children":[-1],"loss_changes":[9.786116E-7],"parents":[2147483647],"right_children":[-1],"split_conditions":[1.654029E-6],"split_indices":[0],"split_type":[0],"sum_hessian":[5.1E1],"tree_param":{"num_deleted":"0","num_feature":"70","num_nodes":"1","size_leaf_vector":"0"}},{"base_weights":[5.3071058E-6],"categories":[],"categories_nodes":[],"categories_segments":[],"categories_sizes":[],"default_left":[false],"id":61,"left_children":[-1],"loss_changes":[9.7773E-7],"parents":[2147483647],"right_children":[-1],"split_conditions":[1.5921318E-6],"split_indices":[0],"split_type":[0],"sum_hessian":[5.1E1],"tree_param":{"num_deleted":"0","num_feature":"70","num_nodes":"1","size_leaf_vector":"0"}},{"base_weights":[5.1030747E-6],"categories":[],"categories_nodes":[],"categories_segments":[],"categories_sizes":[],"default_left":[false],"id":62,"left_children":[-1],"loss_changes":[9.768395E-7],"parents":[2147483647],"right_children":[-1],"split_conditions":[1.5309225E-6],"split_indices":[0],"split_type":[0],"sum_hessian":[5.1E1],"tree_param":{"num_deleted":"0","num_feature":"70","num_nodes":"1","size_leaf_vector":"0"}},{"base_weights":[4.908213E-6],"categories":[],"categories_nodes":[],"categories_segments":[],"categories_sizes":[],"default_left":[false],"id":63,"left_children":[-1],"loss_changes":[9.761571E-7],"parents":[2147483647],"right_children":[-1],"split_conditions":[1.4724641E-6],"split_indices":[0],"split_type":[0],"sum_hessian":[5.1E1],"tree_param":{"num_deleted":"0","num_feature":"70","num_nodes":"1","size_leaf_vector":"0"}},{"base_weights":[4.7156445E-6],"categories":[],"categories_nodes":[],"categories_segments":[],"categories_sizes":[],"default_left":[false],"id":64,"left_children":[-1],"loss_changes":[9.754658E-7],"parents":[2147483647],"right_children":[-1],"split_conditions":[1.4146934E-6],"split_indices":[0],"split_type":[0],"sum_hessian":[5.1E1],"tree_param":{"num_deleted":"0","num_feature":"70","num_nodes":"1","size_leaf_vector":"0"}},{"base_weights":[4.5230754E-6],"categories":[],"categories_nodes":[],"categories_segments":[],"categories_sizes":[],"default_left":[false],"id":65,"left_children":[-1],"loss_changes":[9.747745E-7],"parents":[2147483647],"right_children":[-1],"split_conditions":[1.3569227E-6],"split_indices":[0],"split_type":[0],"sum_hessian":[5.1E1],"tree_param":{"num_deleted":"0","num_feature":"70","num_nodes":"1","size_leaf_vector":"0"}},{"base_weights":[4.332799E-6],"categories":[],"categories_nodes":[],"categories_segments":[],"categories_sizes":[],"default_left":[false],"id":66,"left_children":[-1],"loss_changes":[9.740742E-7],"parents":[2147483647],"right_children":[-1],"split_conditions":[1.2998398E-6],"split_indices":[0],"split_type":[0],"sum_hessian":[5.1E1],"tree_param":{"num_deleted":"0","num_feature":"70","num_nodes":"1","size_leaf_vector":"0"}},{"base_weights":[4.151693E-6],"categories":[],"categories_nodes":[],"categories_segments":[],"categories_sizes":[],"default_left":[false],"id":67,"left_children":[-1],"loss_changes":[9.735817E-7],"parents":[2147483647],"right_children":[-1],"split_conditions":[1.2455079E-6],"split_indices":[0],"split_type":[0],"sum_hessian":[5.1E1],"tree_param":{"num_deleted":"0","num_feature":"70","num_nodes":"1","size_leaf_vector":"0"}},{"base_weights":[3.972879E-6],"categories":[],"categories_nodes":[],"categories_segments":[],"categories_sizes":[],"default_left":[false],"id":68,"left_children":[-1],"loss_changes":[9.730801E-7],"parents":[2147483647],"right_children":[-1],"split_conditions":[1.1918637E-6],"split_indices":[0],"split_type":[0],"sum_hessian":[5.1E1],"tree_param":{"num_deleted":"0","num_feature":"70","num_nodes":"1","size_leaf_vector":"0"}},{"base_weights":[3.794065E-6],"categories":[],"categories_nodes":[],"categories_segments":[],"categories_sizes":[],"default_left":[false],"id":69,"left_children":[-1],"loss_changes":[9.725784E-7],"parents":[2147483647],"right_children":[-1],"split_conditions":[1.1382195E-6],"split_indices":[0],"split_type":[0],"sum_hessian":[5.1E1],"tree_param":{"num_deleted":"0","num_feature":"70","num_nodes":"1","size_leaf_vector":"0"}},{"base_weights":[3.615251E-6],"categories":[],"categories_nodes":[],"categories_segments":[],"categories_sizes":[],"default_left":[false],"id":70,"left_children":[-1],"loss_changes":[9.720768E-7],"parents":[2147483647],"right_children":[-1],"split_conditions":[1.0845754E-6],"split_indices":[0],"split_type":[0],"sum_hessian":[5.1E1],"tree_param":{"num_deleted":"0","num_feature":"70","num_nodes":"1","size_leaf_vector":"0"}},{"base_weights":[3.4387294E-6],"categories":[],"categories_nodes":[],"categories_segments":[],"categories_sizes":[],"default_left":[false],"id":71,"left_children":[-1],"loss_changes":[9.729131E-7],"parents":[2147483647],"right_children":[-1],"split_conditions":[1.0316189E-6],"split_indices":[0],"split_type":[0],"sum_hessian":[5.1E1],"tree_param":{"num_deleted":"0","num_feature":"70","num_nodes":"1","size_leaf_vector":"0"}},{"base_weights":[3.271378E-6],"categories":[],"categories_nodes":[],"categories_segments":[],"categories_sizes":[],"default_left":[false],"id":72,"left_children":[-1],"loss_changes":[9.749018E-7],"parents":[2147483647],"right_children":[-1],"split_conditions":[9.814135E-7],"split_indices":[0],"split_type":[0],"sum_hessian":[5.1E1],"tree_param":{"num_deleted":"0","num_feature":"70","num_nodes":"1","size_leaf_vector":"0"}},{"base_weights":[3.106319E-6],"categories":[],"categories_nodes":[],"categories_segments":[],"categories_sizes":[],"default_left":[false],"id":73,"left_children":[-1],"loss_changes":[9.768651E-7],"parents":[2147483647],"right_children":[-1],"split_conditions":[9.318957E-7],"split_indices":[0],"split_type":[0],"sum_hessian":[5.1E1],"tree_param":{"num_deleted":"0","num_feature":"70","num_nodes":"1","size_leaf_vector":"0"}},{"base_weights":[3.0512992E-6],"categories":[],"categories_nodes":[],"categories_segments":[],"categories_sizes":[],"default_left":[false],"id":74,"left_children":[-1],"loss_changes":[9.7752E-7],"parents":[2147483647],"right_children":[-1],"split_conditions":[9.153898E-7],"split_indices":[0],"split_type":[0],"sum_hessian":[5.1E1],"tree_param":{"num_deleted":"0","num_feature":"70","num_nodes":"1","size_leaf_vector":"0"}},{"base_weights":[2.9962796E-6],"categories":[],"categories_nodes":[],"categories_segments":[],"categories_sizes":[],"default_left":[false],"id":75,"left_children":[-1],"loss_changes":[9.781752E-7],"parents":[2147483647],"right_children":[-1],"split_conditions":[8.988839E-7],"split_indices":[0],"split_type":[0],"sum_hessian":[5.1E1],"tree_param":{"num_deleted":"0","num_feature":"70","num_nodes":"1","size_leaf_vector":"0"}},{"base_weights":[2.94126E-6],"categories":[],"categories_nodes":[],"categories_segments":[],"categories_sizes":[],"default_left":[false],"id":76,"left_children":[-1],"loss_changes":[9.788304E-7],"parents":[2147483647],"right_children":[-1],"split_conditions":[8.82378E-7],"split_indices":[0],"split_type":[0],"sum_hessian":[5.1E1],"tree_param":{"num_deleted":"0","num_feature":"70","num_nodes":"1","size_leaf_vector":"0"}},{"base_weights":[2.888533E-6],"categories":[],"categories_nodes":[],"categories_segments":[],"categories_sizes":[],"default_left":[false],"id":77,"left_children":[-1],"loss_changes":[9.794586E-7],"parents":[2147483647],"right_children":[-1],"split_conditions":[8.665599E-7],"split_indices":[0],"split_type":[0],"sum_hessian":[5.1E1],"tree_param":{"num_deleted":"0","num_feature":"70","num_nodes":"1","size_leaf_vector":"0"}},{"base_weights":[2.8358056E-6],"categories":[],"categories_nodes":[],"categories_segments":[],"categories_sizes":[],"default_left":[false],"id":78,"left_children":[-1],"loss_changes":[9.80087E-7],"parents":[2147483647],"right_children":[-1],"split_conditions":[8.5074174E-7],"split_indices":[0],"split_type":[0],"sum_hessian":[5.1E1],"tree_param":{"num_deleted":"0","num_feature":"70","num_nodes":"1","size_leaf_vector":"0"}},{"base_weights":[2.7830783E-6],"categories":[],"categories_nodes":[],"categories_segments":[],"categories_sizes":[],"default_left":[false],"id":79,"left_children":[-1],"loss_changes":[9.807155E-7],"parents":[2147483647],"right_children":[-1],"split_conditions":[8.349235E-7],"split_indices":[0],"split_type":[0],"sum_hessian":[5.1E1],"tree_param":{"num_deleted":"0","num_feature":"70","num_nodes":"1","size_leaf_vector":"0"}},{"base_weights":[2.7303513E-6],"categories":[],"categories_nodes":[],"categories_segments":[],"categories_sizes":[],"default_left":[false],"id":80,"left_children":[-1],"loss_changes":[9.813443E-7],"parents":[2147483647],"right_children":[-1],"split_conditions":[8.191054E-7],"split_indices":[0],"split_type":[0],"sum_hessian":[5.1E1],"tree_param":{"num_deleted":"0","num_feature":"70","num_nodes":"1","size_leaf_vector":"0"}},{"base_weights":[2.686794E-6],"categories":[],"categories_nodes":[],"categories_segments":[],"categories_sizes":[],"default_left":[false],"id":81,"left_children":[-1],"loss_changes":[9.818639E-7],"parents":[2147483647],"right_children":[-1],"split_conditions":[8.0603826E-7],"split_indices":[0],"split_type":[0],"sum_hessian":[5.1E1],"tree_param":{"num_deleted":"0","num_feature":"70","num_nodes":"1","size_leaf_vector":"0"}},{"base_weights":[2.6432367E-6],"categories":[],"categories_nodes":[],"categories_segments":[],"categories_sizes":[],"default_left":[false],"id":82,"left_children":[-1],"loss_changes":[9.823837E-7],"parents":[2147483647],"right_children":[-1],"split_conditions":[7.9297104E-7],"split_indices":[0],"split_type":[0],"sum_hessian":[5.1E1],"tree_param":{"num_deleted":"0","num_feature":"70","num_nodes":"1","size_leaf_vector":"0"}},{"base_weights":[2.5996794E-6],"categories":[],"categories_nodes":[],"categories_segments":[],"categories_sizes":[],"default_left":[false],"id":83,"left_children":[-1],"loss_changes":[9.829035E-7],"parents":[2147483647],"right_children":[-1],"split_conditions":[7.7990387E-7],"split_indices":[0],"split_type":[0],"sum_hessian":[5.1E1],"tree_param":{"num_deleted":"0","num_feature":"70","num_nodes":"1","size_leaf_vector":"0"}},{"base_weights":[2.5561224E-6],"categories":[],"categories_nodes":[],"categories_segments":[],"categories_sizes":[],"default_left":[false],"id":84,"left_children":[-1],"loss_changes":[9.834234E-7],"parents":[2147483647],"right_children":[-1],"split_conditions":[7.6683676E-7],"split_indices":[0],"split_type":[0],"sum_hessian":[5.1E1],"tree_param":{"num_deleted":"0","num_feature":"70","num_nodes":"1","size_leaf_vector":"0"}},{"base_weights":[2.5148574E-6],"categories":[],"categories_nodes":[],"categories_segments":[],"categories_sizes":[],"default_left":[false],"id":85,"left_children":[-1],"loss_changes":[9.839162E-7],"parents":[2147483647],"right_children":[-1],"split_conditions":[7.544573E-7],"split_indices":[0],"split_type":[0],"sum_hessian":[5.1E1],"tree_param":{"num_deleted":"0","num_feature":"70","num_nodes":"1","size_leaf_vector":"0"}},{"base_weights":[2.4735928E-6],"categories":[],"categories_nodes":[],"categories_segments":[],"categories_sizes":[],"default_left":[false],"id":86,"left_children":[-1],"loss_changes":[9.84409E-7],"parents":[2147483647],"right_children":[-1],"split_conditions":[7.420779E-7],"split_indices":[0],"split_type":[0],"sum_hessian":[5.1E1],"tree_param":{"num_deleted":"0","num_feature":"70","num_nodes":"1","size_leaf_vector":"0"}},{"base_weights":[2.432328E-6],"categories":[],"categories_nodes":[],"categories_segments":[],"categories_sizes":[],"default_left":[false],"id":87,"left_children":[-1],"loss_changes":[9.84902E-7],"parents":[2147483647],"right_children":[-1],"split_conditions":[7.2969846E-7],"split_indices":[0],"split_type":[0],"sum_hessian":[5.1E1],"tree_param":{"num_deleted":"0","num_feature":"70","num_nodes":"1","size_leaf_vector":"0"}},{"base_weights":[2.3910632E-6],"categories":[],"categories_nodes":[],"categories_segments":[],"categories_sizes":[],"default_left":[false],"id":88,"left_children":[-1],"loss_changes":[9.853951E-7],"parents":[2147483647],"right_children":[-1],"split_conditions":[7.17319E-7],"split_indices":[0],"split_type":[0],"sum_hessian":[5.1E1],"tree_param":{"num_deleted":"0","num_feature":"70","num_nodes":"1","size_leaf_vector":"0"}},{"base_weights":[2.3497985E-6],"categories":[],"categories_nodes":[],"categories_segments":[],"categories_sizes":[],"default_left":[false],"id":89,"left_children":[-1],"loss_changes":[9.858883E-7],"parents":[2147483647],"right_children":[-1],"split_conditions":[7.0493957E-7],"split_indices":[0],"split_type":[0],"sum_hessian":[5.1E1],"tree_param":{"num_deleted":"0","num_feature":"70","num_nodes":"1","size_leaf_vector":"0"}},{"base_weights":[2.3085338E-6],"categories":[],"categories_nodes":[],"categories_segments":[],"categories_sizes":[],"default_left":[false],"id":90,"left_children":[-1],"loss_changes":[9.863816E-7],"parents":[2147483647],"right_children":[-1],"split_conditions":[6.9256015E-7],"split_indices":[0],"split_type":[0],"sum_hessian":[5.1E1],"tree_param":{"num_deleted":"0","num_feature":"70","num_nodes":"1","size_leaf_vector":"0"}},{"base_weights":[2.2672689E-6],"categories":[],"categories_nodes":[],"categories_segments":[],"categories_sizes":[],"default_left":[false],"id":91,"left_children":[-1],"loss_changes":[9.868751E-7],"parents":[2147483647],"right_children":[-1],"split_conditions":[6.801807E-7],"split_indices":[0],"split_type":[0],"sum_hessian":[5.1E1],"tree_param":{"num_deleted":"0","num_feature":"70","num_nodes":"1","size_leaf_vector":"0"}},{"base_weights":[2.2260042E-6],"categories":[],"categories_nodes":[],"categories_segments":[],"categories_sizes":[],"default_left":[false],"id":92,"left_children":[-1],"loss_changes":[9.873687E-7],"parents":[2147483647],"right_children":[-1],"split_conditions":[6.6780126E-7],"split_indices":[0],"split_type":[0],"sum_hessian":[5.1E1],"tree_param":{"num_deleted":"0","num_feature":"70","num_nodes":"1","size_leaf_vector":"0"}},{"base_weights":[2.1847395E-6],"categories":[],"categories_nodes":[],"categories_segments":[],"categories_sizes":[],"default_left":[false],"id":93,"left_children":[-1],"loss_changes":[9.878623E-7],"parents":[2147483647],"right_children":[-1],"split_conditions":[6.554219E-7],"split_indices":[0],"split_type":[0],"sum_hessian":[5.1E1],"tree_param":{"num_deleted":"0","num_feature":"70","num_nodes":"1","size_leaf_vector":"0"}},{"base_weights":[2.1457672E-6],"categories":[],"categories_nodes":[],"categories_segments":[],"categories_sizes":[],"default_left":[false],"id":94,"left_children":[-1],"loss_changes":[9.883288E-7],"parents":[2147483647],"right_children":[-1],"split_conditions":[6.437302E-7],"split_indices":[0],"split_type":[0],"sum_hessian":[5.1E1],"tree_param":{"num_deleted":"0","num_feature":"70","num_nodes":"1","size_leaf_vector":"0"}},{"base_weights":[2.106795E-6],"categories":[],"categories_nodes":[],"categories_segments":[],"categories_sizes":[],"default_left":[false],"id":95,"left_children":[-1],"loss_changes":[9.887953E-7],"parents":[2147483647],"right_children":[-1],"split_conditions":[6.320385E-7],"split_indices":[0],"split_type":[0],"sum_hessian":[5.1E1],"tree_param":{"num_deleted":"0","num_feature":"70","num_nodes":"1","size_leaf_vector":"0"}},{"base_weights":[2.0678226E-6],"categories":[],"categories_nodes":[],"categories_segments":[],"categories_sizes":[],"default_left":[false],"id":96,"left_children":[-1],"loss_changes":[9.892618E-7],"parents":[2147483647],"right_children":[-1],"split_conditions":[6.203468E-7],"split_indices":[0],"split_type":[0],"sum_hessian":[5.1E1],"tree_param":{"num_deleted":"0","num_feature":"70","num_nodes":"1","size_leaf_vector":"0"}},{"base_weights":[2.0288503E-6],"categories":[],"categories_nodes":[],"categories_segments":[],"categories_sizes":[],"default_left":[false],"id":97,"left_children":[-1],"loss_changes":[9.897285E-7],"parents":[2147483647],"right_children":[-1],"split_conditions":[6.086551E-7],"split_indices":[0],"split_type":[0],"sum_hessian":[5.1E1],"tree_param":{"num_deleted":"0","num_feature":"70","num_nodes":"1","size_leaf_vector":"0"}},{"base_weights":[1.9898782E-6],"categories":[],"categories_nodes":[],"categories_segments":[],"categories_sizes":[],"default_left":[false],"id":98,"left_children":[-1],