{"learner":{"attributes":{"best_iteration":"99","best_ntree_limit":"100","scikit_learn":"{\"n_estimators\": 100, \"objective\": \"reg:squarederror\", \"max_depth\": 60, \"learning_rate\": null, \"verbosity\": null, \"booster\": null, \"tree_method\": null, \"gamma\": null, \"min_child_weight\": null, \"max_delta_step\": null, \"subsample\": null, \"colsample_bytree\": null, \"colsample_bylevel\": null, \"colsample_bynode\": null, \"reg_alpha\": null, \"reg_lambda\": null, \"scale_pos_weight\": null, \"base_score\": null, \"missing\": NaN, \"num_parallel_tree\": null, \"random_state\": null, \"n_jobs\": null, \"monotone_constraints\": null, \"interaction_constraints\": null, \"importance_type\": null, \"gpu_id\": null, \"validate_parameters\": null, \"predictor\": null, \"enable_categorical\": false, \"kwargs\": {\"nthread\": 1}, \"_estimator_type\": \"regressor\"}"},"feature_names":[],"feature_types":[],"gradient_booster":{"model":{"gbtree_model_param":{"num_trees":"100","size_leaf_vector":"0"},"tree_info":[0,0,0,0,0,0,0,0,0,0,0,0,0,0,0,0,0,0,0,0,0,0,0,0,0,0,0,0,0,0,0,0,0,0,0,0,0,0,0,0,0,0,0,0,0,0,0,0,0,0,0,0,0,0,0,0,0,0,0,0,0,0,0,0,0,0,0,0,0,0,0,0,0,0,0,0,0,0,0,0,0,0,0,0,0,0,0,0,0,0,0,0,0,0,0,0,0,0,0,0],"trees":[{"base_weights":[3.0773516E1,3.4315468E1,2.1462702E1,3.698969E1,2.3663519E1,6.246984E0,2.2023249E1],"categories":[],"categories_nodes":[],"categories_segments":[],"categories_sizes":[],"default_left":[true,true,true,false,false,false,false],"id":0,"left_children":[1,3,5,-1,-1,-1,-1],"loss_changes":[9.78375E2,1.5017969E2,7.4160156E0,0E0,0E0,0E0,0E0],"parents":[2147483647,0,0,1,1,2,2],"right_children":[2,4,6,-1,-1,-1,-1],"split_conditions":[2.3348718E-3,6.7414274E-3,9.603E1,1.1096907E1,7.099056E0,1.8740953E0,6.606975E0],"split_indices":[51,61,19,0,0,0,0],"split_type":[0,0,0,0,0,0,0],"sum_hessian":[5.1E1,3.5E1,1.6E1,2.6E1,9E0,1E0,1.5E1],"tree_param":{"num_deleted":"0","num_feature":"70","num_nodes":"7","size_leaf_vector":"0"}},{"base_weights":[2.205448E1,2.4335613E1,1.2422733E1,2.6179329E1,1.6927359E1,2.8438038E1,1.6130785E1],"categories":[],"categories_nodes":[],"categories_segments":[],"categories_sizes":[],"default_left":[true,true,false,true,false,false,false],"id":1,"left_children":[1,3,-1,5,-1,-1,-1],"loss_changes":[8.401914E2,1.1686133E2,0E0,2.4486914E2,0E0,0E0,0E0],"parents":[2147483647,0,0,1,1,3,3],"right_children":[2,4,-1,6,-1,-1,-1],"split_conditions":[3.46377E-1,1.1507405E-2,3.7268202E0,1.1730946E-1,5.078208E0,8.531412E0,4.839236E0],"split_indices":[31,21,0,41,0,0,0],"split_type":[0,0,0,0,0,0,0],"sum_hessian":[5.1E1,4E1,1.1E1,3E1,1E1,2.3E1,7E0],"tree_param":{"num_deleted":"0","num_feature":"70","num_nodes":"7","size_leaf_vector":"0"}},{"base_weights":[1.5864592E1,1.7450754E1,8.366095E0,1.9199472E1,1.1479007E1,1.9834888E1,6.657293E0,1.2005153E1,2.8457022E0,2.1261925E1,1.2312497E1],"categories":[],"categories_nodes":[],"categories_segments":[],"categories_sizes":[],"default_left":[true,true,false,true,true,true,false,false,false,false,false],"id":2,"left_children":[1,3,-1,5,7,9,-1,-1,-1,-1,-1],"loss_changes":[4.7248633E2,2.1820996E2,0E0,1.1500879E2,2.0345459E1,4.951953E1,0E0,0E0,0E0,0E0,0E0],"parents":[2147483647,0,0,1,1,3,3,4,4,5,5],"right_children":[2,4,-1,6,8,10,-1,-1,-1,-1,-1],"split_conditions":[4.846818E-2,6.7414274E-3,2.5098286E0,1.2291934E0,1.1859619E4,2.353383E-1,1.997188E0,3.601546E0,8.537107E-1,6.3785777E0,3.6937492E0],"split_indices":[11,61,0,31,2,51,0,0,0,0,0],"split_type":[0,0,0,0,0,0,0,0,0,0,0],"sum_hessian":[5.1E1,4.1E1,1E1,3E1,1.1E1,2.8E1,2E0,1E1,1E0,2.2E1,6E0],"tree_param":{"num_deleted":"0","num_feature":"70","num_nodes":"11","size_leaf_vector":"0"}},{"base_weights":[1.1471264E1,1.2608975E1,6.0844316E0,1.3828969E1,8.406576E0,1.4231743E1,5.325834E0,8.73102E0,2.4188466E0],"categories":[],"categories_nodes":[],"categories_segments":[],"categories_sizes":[],"default_left":[true,true,false,true,true,false,false,false,false],"id":3,"left_children":[1,3,-1,5,7,-1,-1,-1,-1],"loss_changes":[2.4197168E2,9.907568E1,0E0,3.0374512E1,2.1932373E0,0E0,0E0,0E0,0E0],"parents":[2147483647,0,0,1,1,3,3,4,4],"right_children":[2,4,-1,6,8,-1,-1,-1,-1],"split_conditions":[4.846818E-2,6.7414274E-3,1.8253295E0,1.2291934E0,1.1859619E4,4.269523E0,1.5977502E0,2.619306E0,7.25654E-1],"split_indices":[11,61,0,31,2,0,0,0,0],"split_type":[0,0,0,0,0,0,0,0,0],"sum_hessian":[5.1E1,4.1E1,1E1,3E1,1.1E1,2.8E1,2E0,1E1,1E0],"tree_param":{"num_deleted":"0","num_feature":"70","num_nodes":"9","size_leaf_vector":"0"}},{"base_weights":[8.242145E0,9.472134E0,4.576696E0,1.047968E1,5.603036E0,5.3353887E0,2.5494254E0,1.1373607E1,5.1573625E0,1.1934516E1,5.5854287E0],"categories":[],"categories_nodes":[],"categories_segments":[],"categories_sizes":[],"default_left":[true,true,true,true,false,false,false,true,false,false,false],"id":4,"left_children":[1,3,5,7,-1,-1,-1,9,-1,-1,-1],"loss_changes":[1.9108911E2,8.941724E1,9.468964E0,7.931714E1,0E0,0E0,0E0,1.126001E1,0E0,0E0,0E0],"parents":[2147483647,0,0,1,1,2,2,3,3,7,7],"right_children":[2,4,6,8,-1,-1,-1,10,-1,-1,-1],"split_conditions":[1.3194804E-1,1.1507405E-2,8.265404E-2,1.2877038E-1,1.6809108E0,1.6006167E0,7.6482767E-1,3.8705587E-1,1.5472088E0,3.580355E0,1.6756287E0],"split_indices":[51,21,61,41,0,0,0,31,0,0,0],"split_type":[0,0,0,0,0,0,0,0,0,0,0],"sum_hessian":[5.1E1,3.7E1,1.4E1,2.8E1,9E0,9E0,5E0,2.3E1,5E0,2E1,3E0],"tree_param":{"num_deleted":"0","num_feature":"70","num_nodes":"11","size_leaf_vector":"0"}},{"base_weights":[5.978146E0,6.9737496E0,3.5181534E0,7.7834377E0,4.090217E0,4.028016E0,1.912069E0,8.319515E0,3.7607949E0,2.3508005E0,8.483966E0],"categories":[],"categories_nodes":[],"categories_segments":[],"categories_sizes":[],"default_left":[true,true,true,true,false,false,false,true,false,false,false],"id":5,"left_children":[1,3,5,7,-1,-1,-1,9,-1,-1,-1],"loss_changes":[1.0282251E2,5.2215454E1,6.219162E0,2.6936157E1,0E0,0E0,0E0,2.6317139E0,0E0,0E0,0E0],"parents":[2147483647,0,0,1,1,2,2,3,3,7,7],"right_children":[2,4,6,8,-1,-1,-1,10,-1,-1,-1],"split_conditions":[2.3348718E-3,1.1507405E-2,8.265404E-2,1.2877038E-1,1.2270652E0,1.2084049E0,5.7362074E-1,2.32536E2,1.1282386E0,7.052402E-1,2.5451899E0],"split_indices":[51,21,61,41,0,0,0,22,0,0,0],"split_type":[0,0,0,0,0,0,0,0,0,0,0],"sum_hessian":[5.1E1,3.5E1,1.6E1,2.6E1,9E0,1.1E1,5E0,2.2E1,4E0,1E0,2.1E1],"tree_param":{"num_deleted":"0","num_feature":"70","num_nodes":"11","size_leaf_vector":"0"}},{"base_weights":[4.3267746E0,4.815767E0,1.7914321E0,5.243127E0,2.8811648E0,2.0541806E0,8.83764E-1,4.519624E0,7.866203E0,4.729121E0,2.027987E0,4.82646E0,1.1478319E0],"categories":[],"categories_nodes":[],"categories_segments":[],"categories_sizes":[],"default_left":[true,true,true,true,false,false,false,true,false,true,false,false,false],"id":6,"left_children":[1,3,5,7,-1,-1,-1,9,-1,11,-1,-1,-1],"loss_changes":[5.5840576E1,2.0444885E1,5.694771E-1,2.8973022E1,0E0,0E0,0E0,5.547119E0,0E0,3.5234985E0,0E0,0E0,0E0],"parents":[2147483647,0,0,1,1,2,2,3,3,7,7,9,9],"right_children":[2,4,6,8,-1,-1,-1,10,-1,12,-1,-1,-1],"split_conditions":[1.4181504E-1,5.373483E-2,1.05E1,1.1393428E4,8.643495E-1,6.162542E-1,2.651292E-1,2.9475412E0,2.359861E0,9.97E-1,6.083961E-1,1.447938E0,3.443496E-1],"split_indices":[11,41,0,42,0,0,0,21,0,68,0,0,0],"split_type":[0,0,0,0,0,0,0,0,0,0,0,0,0],"sum_hessian":[5.1E1,4.2E1,9E0,3.3E1,9E0,6E0,3E0,2.8E1,5E0,2.5E1,3E0,2.4E1,1E0],"tree_param":{"num_deleted":"0","num_feature":"70","num_nodes":"13","size_leaf_vector":"0"}},{"base_weights":[3.1538634E0,3.6713877E0,1.759972E0,4.164656E0,2.1268752E0,2.0790794E0,8.8161296E-1,5.4814353E0,3.2017424E0,9.306399E-1,2.2893007E0,2.1631818E0,6.190281E-1,1.2742119E0,5.8073254E0],"categories":[],"categories_nodes":[],"categories_segments":[],"categories_sizes":[],"default_left":[true,true,true,true,true,true,false,true,false,false,false,false,false,false,false],"id":7,"left_children":[1,3,5,7,9,11,-1,13,-1,-1,-1,-1,-1,-1,-1],"loss_changes":[3.1049866E1,1.9331085E1,2.6517143E0,1.6684357E1,6.7749023E-3,1.1657715E-2,0E0,6.311157E0,0E0,0E0,0E0,0E0,0E0,0E0,0E0],"parents":[2147483647,0,0,1,1,2,2,3,3,4,4,5,5,7,7],"right_children":[2,4,6,8,10,12,-1,14,-1,-1,-1,-1,-1,-1,-1],"split_conditions":[1.1507405E-2,2.3348718E-3,9.334685E-2,9.6554E1,3.8887497E1,9.874049E1,2.644839E-1,2.32974E2,9.605228E-1,2.79192E-1,6.867902E-1,6.489546E-1,1.8570843E-1,3.8226357E-1,1.7421976E0],"split_indices":[21,51,11,29,7,69,0,2,0,0,0,0,0,0,0],"split_type":[0,0,0,0,0,0,0,0,0,0,0,0,0,0,0],"sum_hessian":[5.1E1,3.6E1,1.5E1,2.6E1,1E1,1E1,5E0,9E0,1.7E1,2E0,8E0,9E0,1E0,1E0,8E0],"tree_param":{"num_deleted":"0","num_feature":"70","num_nodes":"15","size_leaf_vector":"0"}},{"base_weights":[2.3067446E0,2.6794567E0,1.3006766E0,2.2338402E0,4.270121E0,1.5312337E0,6.612094E-1,1.4267449E0,2.6064055E0,4.7083797E0,8.202839E-1,1.8400097E-1,7.198509E-1,1.8109051E0,1.0083017E0,1.5121088E0,3.0793262E0,3.2941418E0,1.265227E0],"categories":[],"categories_nodes":[],"categories_segments":[],"categories_sizes":[],"default_left":[true,true,true,true,true,false,true,true,true,false,false,false,false,false,false,false,true,false,false],"id":8,"left_children":[1,3,5,7,9,-1,11,13,15,-1,-1,-1,-1,-1,-1,-1,17,-1,-1],"loss_changes":[1.601352E1,1.6687805E1,1.3464737E0,5.6029053E0,6.7212524E0,0E0,3.5452127E-2,1.0305214E-1,5.694031E0,0E0,0E0,0E0,0E0,0E0,0E0,0E0,8.9821625E-1,0E0,0E0],"parents":[2147483647,0,0,1,1,2,2,3,3,4,4,6,6,7,7,8,8,16,16],"right_children":[2,4,6,8,10,-1,12,14,16,-1,-1,-1,-1,-1,-1,-1,18,-1,-1],"split_conditions":[1.1507405E-2,1.13922295E4,9.334685E-2,4.32395E1,6.3362595E6,4.593701E-1,4.3774002E1,9.64E-1,9.79E-1,1.412514E0,2.4608518E-1,5.5200294E-2,2.1595527E-1,5.4327154E-1,3.0249053E-1,4.5363265E-1,9.8972E1,9.8824257E-1,3.795681E-1],"split_indices":[21,12,11,7,3,0,7,8,58,0,0,0,0,0,0,0,29,0,0],"split_type":[0,0,0,0,0,0,0,0,0,0,0,0,0,0,0,0,0,0,0],"sum_hessian":[5.1E1,3.6E1,1.5E1,3E1,6E0,1E1,5E0,1.1E1,1.9E1,5E0,1E0,1E0,4E0,4E0,7E0,7E0,1.2E1,1E1,2E0],"tree_param":{"num_deleted":"0","num_feature":"70","num_nodes":"19","size_leaf_vector":"0"}},{"base_weights":[1.7119584E0,1.947319E0,7.651463E-1,1.6512794E0,3.149328E0,8.0626863E-1,1.5640068E-1,1.7973281E0,8.103237E-1,3.531285E0,4.2879295E-1,2.3693848E-1,8.3950776E-1,2.0470376E0,1.1181767E0,6.17101E-1,2.1716359E0,1.2872813E0,5.4269934E-1,2.5411918E0,1.227878E0,2.6795387E0,5.096874E-1],"categories":[],"categories_nodes":[],"categories_segments":[],"categories_sizes":[],"default_left":[true,true,true,true,true,true,false,true,false,false,false,false,false,true,true,false,true,false,false,true,false,false,false],"id":9,"left_children":[1,3,5,7,9,11,-1,13,-1,-1,-1,-1,-1,15,17,-1,19,-1,-1,21,-1,-1,-1],"loss_changes":[1.0097824E1,9.389099E0,1.7429543E-1,2.8423004E0,5.7597046E0,9.253025E-3,0E0,2.6291733E0,0E0,0E0,0E0,0E0,0E0,2.223236E0,2.7455235E-1,0E0,3.157608E0,0E0,0E0,2.006897E0,0E0,0E0,0E0],"parents":[2147483647,0,0,1,1,2,2,3,3,4,4,5,5,7,7,13,13,14,14,16,16,19,19],"right_children":[2,4,6,8,10,12,-1,14,-1,-1,-1,-1,-1,16,18,-1,20,-1,-1,22,-1,-1,-1],"split_conditions":[3.46377E-1,1.1393428E4,1.6579135E4,9.91465E1,6.3363805E6,9.62095E1,4.6920206E-2,1.1507405E-2,2.4309713E-1,1.0593855E0,1.286379E-1,7.108155E-2,2.5185233E-1,3.8774002E1,8.5E0,1.8513031E-1,4.4342003E1,3.861844E-1,1.628098E-1,8.701585E-1,3.683634E-1,8.038617E-1,1.5290624E-1],"split_indices":[31,42,12,29,3,19,0,21,0,0,0,0,0,27,0,0,47,0,0,41,0,0,0],"split_type":[0,0,0,0,0,0,0,0,0,0,0,0,0,0,0,0,0,0,0,0,0,0,0],"sum_hessian":[5.1E1,4E1,1.1E1,3.4E1,6E0,1E1,1E0,2.8E1,6E0,5E0,1E0,1E0,9E0,1.9E1,9E0,2E0,1.7E1,6E0,3E0,1.1E1,6E0,1E1,1E0],"tree_param":{"num_deleted":"0","num_feature":"70","num_nodes":"23","size_leaf_vector":"0"}},{"base_weights":[1.2726057E0,1.437577E0,5.270235E-1,1.6475385E0,7.7537817E-1,5.531378E-1,1.3294029E-1,1.3662721E0,2.416699E0,3.261659E-1,8.888749E-1,3.5666052E-1,6.782829E-1,1.7989137E0,1.0568576E0,2.6484623E0,5.130596E-1,1.0193046E0,4.7101164E-1,7.4315596E-1,2.2029333E0,2.1508408E-1,1.0960257E0,9.4240695E-1,2.5975947E0,1.1402653E0,2.1621513E-1],"categories":[],"categories_nodes":[],"categories_segments":[],"categories_sizes":[],"default_left":[true,true,true,true,true,true,false,true,true,false,true,false,false,true,true,false,false,false,false,false,true,false,true,false,false,false,false],"id":10,"left_children":[1,3,5,7,9,11,-1,13,15,-1,17,-1,-1,19,21,-1,-1,-1,-1,-1,23,-1,25,-1,-1,-1,-1],"loss_changes":[5.6383514E0,4.5620575E0,3.96688E-2,3.4046402E0,3.2188892E-1,3.9651394E-3,0E0,1.4454422E0,1.729538E0,0E0,1.04112625E-2,0E0,0E0,2.2017994E0,3.2476234E-1,0E0,0E0,0E0,0E0,0E0,5.3689575E-1,0E0,3.762188E-1,0E0,0E0,0E0,0E0],"parents":[2147483647,0,0,1,1,2,2,3,3,4,4,5,5,7,7,8,8,10,10,13,13,14,14,20,20,22,22],"right_children":[2,4,6,8,10,12,-1,14,16,-1,18,-1,-1,20,22,-1,-1,-1,-1,-1,24,-1,26,-1,-1,-1,-1],"split_conditions":[4.846818E-2,6.7414274E-3,1.6579135E4,1.13922295E4,4.3909E1,4.3388496E1,3.988209E-2,9.78365E1,6.3362595E6,9.784978E-2,7.955466E3,1.0699816E-1,2.0348488E-1,9.7083496E1,4.07285E1,7.9453874E-1,1.539179E-1,3.057914E-1,1.413035E-1,2.229468E-1,5E0,6.4525224E-2,9.905E-1,2.827221E-1,7.7927846E-1,3.420796E-1,6.4864546E-2],"split_indices":[11,61,12,12,47,67,0,19,3,0,32,0,0,59,17,0,0,0,0,0,10,0,28,0,0,0,0],"split_type":[0,0,0,0,0,0,0,0,0,0,0,0,0,0,0,0,0,0,0,0,0,0,0,0,0,0,0],"sum_hessian":[5.1E1,4.1E1,1E1,3E1,1.1E1,9E0,1E0,2.4E1,6E0,3E0,8E0,5E0,4E0,8E0,1.6E1,5E0,1E0,5E0,3E0,3E0,5E0,1E0,1.5E1,2E0,3E0,1.4E1,1E0],"tree_param":{"num_deleted":"0","num_feature":"70","num_nodes":"27","size_leaf_vector":"0"}},{"base_weights":[9.6005815E-1,1.0980302E0,4.0864882E-1,9.6037084E-1,2.1312866E0,4.8547745E-1,2.5090727E-1,1.1831956E0,6.752727E-1,1.2687774E0,2.753067E-1,7.605436E-1,2.8440553E-1,1.3990791E0,4.6295118E-1,8.038296E-1,3.194561E-1,7.448673E-2,3.1826353E-1,1.7468306E0,7.521016E-1,2.510376E-1,9.023197E-1],"categories":[],"categories_nodes":[],"categories_segments":[],"categories_sizes":[],"default_left":[true,true,true,true,false,false,false,true,true,true,false,true,true,true,false,false,false,false,false,false,true,false,false],"id":11,"left_children":[1,3,5,7,-1,-1,-1,9,11,13,-1,15,17,19,-1,-1,-1,-1,-1,-1,21,-1,-1],"loss_changes":[3.5074043E0,3.7849045E0,2.3618937E-2,1.6150436E0,0E0,0E0,0E0,1.20467E0,4.1695976E-1,1.2423058E0,0E0,2.9604912E-2,1.1830717E-2,2.061018E0,0E0,0E0,0E0,0E0,0E0,0E0,3.0036592E-1,0E0,0E0],"parents":[2147483647,0,0,1,1,2,2,3,3,7,7,8,8,9,9,11,11,12,12,13,13,20,20],"right_children":[2,4,6,8,-1,-1,-1,10,12,14,-1,16,18,20,-1,-1,-1,-1,-1,-1,22,-1,-1],"split_conditions":[3.46377E-1,6.3362595E6,2.3422381E-1,4.44425E1,6.39386E-1,1.4564323E-1,7.527219E-2,3.0153513E-1,1.1507405E-2,8.701585E-1,8.259201E-2,2.7561924E-1,7E0,9.78795E1,1.3888536E-1,2.4114889E-1,9.583683E-2,2.234602E-2,9.547906E-2,5.240492E-1,9.8563E1,7.531128E-2,2.7069592E-1],"split_indices":[31,43,11,67,0,0,0,11,21,41,0,51,0,39,0,0,0,0,0,0,9,0,0],"split_type":[0,0,0,0,0,0,0,0,0,0,0,0,0,0,0,0,0,0,0,0,0,0,0],"sum_hessian":[5.1E1,4E1,1.1E1,3.7E1,3E0,6E0,5E0,1.9E1,1.8E1,1.7E1,2E0,1.4E1,4E0,1.4E1,3E0,1.2E1,2E0,1E0,3E0,8E0,6E0,2E0,4E0],"tree_param":{"num_deleted":"0","num_feature":"70","num_nodes":"23","size_leaf_vector":"0"}},{"base_weights":[7.183226E-1,8.2889485E-1,3.228445E-1,6.918595E-1,1.6497704E0,3.5874233E-1,1.5238881E-1,8.4669894E-1,4.6899784E-1,5.273519E-1,1.1133108E0,5.1961094E-1,1.7460251E-1,6.374213E-1,3.2939053E-1,1.4816837E0,4.4860116E-1,5.641057E-1,1.6842842E-1,3.0970764E-1,6.525912E-1],"categories":[],"categories_nodes":[],"categories_segments":[],"categories_sizes":[],"default_left":[true,true,true,true,false,false,false,true,true,true,true,true,false,false,false,false,false,true,false,false,false],"id":12,"left_children":[1,3,5,7,-1,-1,-1,9,11,13,15,17,-1,-1,-1,-1,-1,19,-1,-1,-1],"loss_changes":[2.0063E0,3.3581486E0,2.4878502E-2,8.451805E-1,0E0,0E0,0E0,1.1157274E0,1.6257906E-1,2.9723883E-2,1.783926E0,1.23749495E-1,0E0,0E0,0E0,0E0,0E0,6.8014145E-2,0E0,0E0,0E0],"parents":[2147483647,0,0,1,1,2,2,3,3,7,7,8,8,9,9,10,10,11,11,17,17],"right_children":[2,4,6,8,-1,-1,-1,10,12,14,16,18,-1,-1,-1,-1,-1,20,-1,-1,-1],"split_conditions":[5.373483E-2,1.1408389E4,4.4696194E-1,4.37715E1,4.9493113E-1,1.07622705E-1,4.5716643E-2,1.7010445E6,9.905E-1,5.5E0,9.8450005E-1,5.14467E0,5.2380756E-2,1.9122641E-1,9.881716E-2,4.4450513E-1,1.3458036E-1,9.82E-1,5.052853E-2,9.2912294E-2,1.9577737E-1],"split_indices":[41,42,1,27,0,0,0,53,28,10,38,31,0,0,0,0,0,38,0,0,0],"split_type":[0,0,0,0,0,0,0,0,0,0,0,0,0,0,0,0,0,0,0,0,0],"sum_hessian":[5.1E1,3.9E1,1.2E1,3.5E1,4E0,9E0,3E0,1.9E1,1.6E1,1E1,9E0,1.3E1,3E0,5E0,5E0,5E0,4E0,1.1E1,2E0,4E0,7E0],"tree_param":{"num_deleted":"0","num_feature":"70","num_nodes":"21","size_leaf_vector":"0"}},{"base_weights":[5.3953743E-1,6.4151466E-1,2.452259E-1,1.0826073E0,5.069903E-1,8.851576E-2,2.7702713E-1,3.807653E-1,1.2530937E0,6.143367E-1,2.201292E-1,3.4279504E-1,1.8107931E-1,1.3652306E0,3.4620476E-1,8.951373E-1,4.236206E-1,3.3983865E-1,1.0235971E0,2.2041194E-1,5.031837E-1,5.5632114E-1,1.937561E-1],"categories":[],"categories_nodes":[],"categories_segments":[],"categories_sizes":[],"default_left":[true,true,true,true,true,false,true,false,true,true,false,false,false,false,false,true,true,false,false,false,true,false,false],"id":13,"left_children":[1,3,5,7,9,-1,11,-1,13,15,-1,-1,-1,-1,-1,17,19,-1,-1,-1,21,-1,-1],"loss_changes":[1.4033651E0,1.7059612E0,5.023235E-2,4.801016E-1,8.19365E-1,0E0,1.3650417E-2,0E0,1.375246E-1,7.989712E-1,0E0,0E0,0E0,0E0,0E0,2.2281027E-1,1.3161087E-1,0E0,0E0,0E0,5.663109E-2,0E0,0E0],"parents":[2147483647,0,0,1,1,2,2,3,3,4,4,6,6,8,8,9,9,15,15,16,16,20,20],"right_children":[2,4,6,8,10,-1,12,-1,14,16,-1,-1,-1,-1,-1,18,20,-1,-1,-1,22,-1,-1],"split_conditions":[6.7414274E-3,9.59105E1,4.3497498E1,9.7645E1,2.3348718E-3,2.6554728E-2,4.4523003E1,1.1422959E-1,1.0182067E-1,9.6477005E1,6.6038765E-2,1.02838516E-1,5.4323796E-2,4.0956917E-1,1.0386143E-1,2.36485E3,9.8E-1,1.019516E-1,3.0707914E-1,6.612358E-2,9.9511E1,1.6689634E-1,5.8126833E-2],"split_indices":[61,69,37,9,51,0,27,0,21,29,0,0,0,0,0,2,48,0,0,0,39,0,0],"split_type":[0,0,0,0,0,0,0,0,0,0,0,0,0,0,0,0,0,0,0,0,0,0,0],"sum_hessian":[5.1E1,3.7E1,1.4E1,7E0,3E1,3E0,1.1E1,2E0,5E0,2.1E1,9E0,5E0,6E0,4E0,1E0,7E0,1.4E1,2E0,5E0,5E0,9E0,7E0,2E0],"tree_param":{"num_deleted":"0","num_feature":"70","num_nodes":"23","size_leaf_vector":"0"}},{"base_weights":[4.0801442E-1,4.8574105E-1,1.8390599E-1,8.3628225E-1,3.7960976E-1,2.2673674E-1,8.18704E-2,3.046112E-1,9.627374E-1,2.547719E-1,5.560387E-1,2.7946535E-1,1.18115045E-1,2.3845673E-2,8.870621E-2,1.0836951E-1,2.9634807E-1,2.7808842E-1,7.8764087E-1,4.3633193E-1,2.057783E-1,2.170124E-1,8.583641E-1,3.8995743E-2,2.1855697E-1,2.4059367E-1,8.694013E-2],"categories":[],"categories_nodes":[],"categories_segments":[],"categories_sizes":[],"default_left":[true,true,true,true,true,true,true,false,false,true,true,false,false,false,false,false,true,false,true,false,true,false,false,false,true,false,false],"id":14,"left_children":[1,3,5,7,9,11,13,-1,-1,15,17,-1,-1,-1,-1,-1,19,-1,21,-1,23,-1,-1,-1,25,-1,-1],"loss_changes":[8.164673E-1,1.0962687E0,4.699087E-2,2.4459982E-1,5.411124E-1,2.4265647E-2,2.6461482E-4,0E0,0E0,8.96219E-2,5.5345297E-1,0E0,0E0,0E0,0E0,0E0,1.0038698E-1,0E0,5.5864334E-2,0E0,1.4921099E-2,0E0,0E0,0E0,8.086741E-3,0E0,0E0],"parents":[2147483647,0,0,1,1,2,2,3,3,4,4,5,5,6,6,9,9,10,10,16,16,18,18,20,20,24,24],"right_children":[2,4,6,8,10,12,14,-1,-1,16,18,-1,-1,-1,-1,-1,20,-1,22,-1,24,-1,-1,-1,26,-1,-1],"split_conditions":[6.7414274E-3,9.59105E1,9.8367004E1,9.7645E1,9.855E-1,3.46377E-1,6.5E0,9.138337E-2,2.8882122E-1,3E0,5.5E0,8.383961E-2,3.5434514E-2,7.153702E-3,2.6611865E-2,3.2510854E-2,6E0,8.342653E-2,4.2181E1,1.3089958E-1,4.0206497E1,6.5103725E-2,2.5750923E-1,1.1698723E-2,8.289034E-2,7.21781E-2,2.608204E-2],"split_indices":[61,69,69,9,68,31,0,0,0,40,0,0,0,0,0,0,10,0,37,0,27,0,0,0,1,0,0],"split_type":[0,0,0,0,0,0,0,0,0,0,0,0,0,0,0,0,0,0,0,0,0,0,0,0,0,0,0],"sum_hessian":[5.1E1,3.7E1,1.4E1,7E0,3E1,9E0,5E0,2E0,5E0,1.9E1,1.1E1,5E0,4E0,1E0,4E0,5E0,1.4E1,6E0,5E0,4E0,1E1,1E0,4E0,1E0,9E0,7E0,2E0],"tree_param":{"num_deleted":"0","num_feature":"70","num_nodes":"27","size_leaf_vector":"0"}},{"base_weights":[3.089301E-1,3.7553915E-1,1.3558847E-1,7.1918553E-1,2.9936987E-1,1.6837549E-1,6.938008E-2,2.4368794E-1,8.960123E-1,4.67275E-1,2.2393171E-1,1.9730242E-1,7.565951E-2,2.026844E-2,7.418728E-2,1.7216568E-1,6.689293E-1,3.0509454E-1,1.5489438E-1,2.2726288E-1,8.160082E-2,4.5012474E-2,1.9270086E-1,1.2857723E-1,3.6237663E-1,9.615163E-2,1.833727E-1,2.1893151E-1,8.419132E-2],"categories":[],"categories_nodes":[],"categories_segments":[],"categories_sizes":[],"default_left":[true,true,true,true,true,true,true,false,false,true,true,true,false,false,false,true,false,true,true,false,false,false,false,false,false,false,true,false,false],"id":15,"left_children":[1,3,5,7,9,11,13,-1,-1,15,17,19,-1,-1,-1,21,-1,23,25,-1,-1,-1,-1,-1,-1,-1,27,-1,-1],"loss_changes":[5.494795E-1,7.5318336E-1,2.3050487E-2,2.8613663E-1,3.0068874E-1,1.189208E-2,1.4896691E-4,0E0,0E0,4.2042375E-1,8.722091E-2,5.7204664E-3,0E0,0E0,0E0,4.3816417E-3,0E0,5.4519415E-2,7.461846E-3,0E0,0E0,0E0,0E0,0E0,0E0,0E0,1.3308823E-2,0E0,0E0],"parents":[2147483647,0,0,1,1,2,2,3,3,4,4,5,5,6,6,9,9,10,10,11,11,15,15,17,17,18,18,26,26],"right_children":[2,4,6,8,10,12,14,-1,-1,16,18,20,-1,-1,-1,22,-1,24,26,-1,-1,-1,-1,-1,-1,-1,28,-1,-1],"split_conditions":[1.1507405E-2,9.5602005E1,4.42625E1,9.7645E1,9.63E1,9.334685E-2,5.5E0,7.3106386E-2,2.6880372E-1,5.5E0,4.42545E1,2.2913186E-1,2.2697855E-2,6.0805324E-3,2.2256184E-2,3E0,2.006788E-1,4.23595E1,2.022482E6,6.817887E-2,2.4480248E-2,1.3503742E-2,5.781026E-2,3.8573172E-2,1.0871299E-1,2.8845489E-2,8.265404E-2,6.567945E-2,2.5257397E-2],"split_indices":[21,69,57,9,29,11,0,0,0,20,37,61,0,0,0,10,0,47,63,0,0,0,0,0,0,0,61,0,0],"split_type":[0,0,0,0,0,0,0,0,0,0,0,0,0,0,0,0,0,0,0,0,0,0,0,0,0,0,0,0,0],"sum_hessian":[5.1E1,3.6E1,1.5E1,5E0,3.1E1,9E0,6E0,2E0,3E0,8E0,2.3E1,6E0,3E0,1E0,5E0,4E0,4E0,9E0,1.4E1,4E0,2E0,1E0,3E0,3E0,6E0,6E0,8E0,5E0,3E0],"tree_param":{"num_deleted":"0","num_feature":"70","num_nodes":"29","size_leaf_vector":"0"}},{"base_weights":[2.3595643E-1,2.86688E-1,1.03892386E-1,5.604159E-1,2.2640502E-1,1.2939826E-1,5.261367E-2,7.827339E-1,2.5357342E-1,4.291691E-1,1.8211126E-1,1.3893181E-1,2.1798134E-2,2.1347681E-2,6.0850523E-2,1.5328789E-1,5.619939E-1,1.3968182E-1,2.8944507E-1,1.6262086E-1,6.8665266E-2,2.9808998E-1,1.1794381E-1,3.1672668E-1,6.2877655E-2,1.3580233E-1,6.282643E-2,7.598337E-2,1.5811348E-1,1.6577932E-1,4.4560432E-2],"categories":[],"categories_nodes":[],"categories_segments":[],"categories_sizes":[],"default_left":[true,true,true,true,true,true,true,false,false,true,true,true,false,false,false,false,false,true,true,false,false,false,true,false,false,true,false,false,true,false,false],"id":16,"left_children":[1,3,5,7,9,11,13,-1,-1,15,17,19,-1,-1,-1,-1,-1,21,23,-1,-1,-1,25,-1,-1,27,-1,-1,29,-1,-1],"loss_changes":[3.1860566E-1,4.8366117E-1,1.4118403E-2,2.1081913E-1,2.0924139E-1,7.229671E-3,5.03717E-4,0E0,0E0,9.707248E-2,8.708495E-2,3.8145185E-3,0E0,0E0,0E0,0E0,0E0,4.059863E-2,2.3352861E-2,0E0,0E0,0E0,1.2138635E-2,0E0,0E0,8.00544E-3,0E0,0E0,1.3176203E-3,0E0,0E0],"parents":[2147483647,0,0,1,1,2,2,3,3,4,4,5,5,6,6,9,9,10,10,11,11,17,17,18,18,22,22,25,25,28,28],"right_children":[2,4,6,8,10,12,14,-1,-1,16,18,20,-1,-1,-1,-1,-1,22,24,-1,-1,-1,26,-1,-1,28,-1,-1,30,-1,-1],"split_conditions":[1.1507405E-2,9.5602005E1,4.42625E1,9.6557495E1,9.665E-1,4.8729074E-1,4.34315E1,2.3482019E-1,7.607203E-2,5.5E0,7.962319E3,9.5E0,6.5394402E-3,6.4043044E-3,1.8255157E-2,4.598637E-2,1.6859818E-1,9.67E-1,6.3363805E6,4.878626E-2,2.0599581E-2,8.9426994E-2,3.0171895E3,9.501801E-2,1.8863298E-2,1.033095E3,1.8847931E-2,2.279501E-2,4.64765E1,4.97338E-2,1.3368131E-2],"split_indices":[21,69,57,39,18,11,37,0,0,0,42,0,0,0,0,0,0,58,3,0,0,0,52,0,0,42,0,0,17,0,0],"split_type":[0,0,0,0,0,0,0,0,0,0,0,0,0,0,0,0,0,0,0,0,0,0,0,0,0,0,0,0,0,0,0],"sum_hessian":[5.1E1,3.6E1,1.5E1,5E0,3.1E1,9E0,6E0,2E0,3E0,4E0,2.7E1,8E0,1E0,2E0,4E0,2E0,2E0,2.1E1,6E0,5E0,3E0,1E0,2E1,5E0,1E0,1.4E1,6E0,5E0,9E0,8E0,1E0],"tree_param":{"num_deleted":"0","num_feature":"70","num_nodes":"31","size_leaf_vector":"0"}},{"base_weights":[1.8313336E-1,2.2320963E-1,7.901114E-2,1.884425E-1,5.5442303E-1,1.368955E-1,6.0963698E-2,2.6704064E-1,1.2332753E-1,6.685487E-2,1.7077764E-2,9.356467E-2,3.4442216E-1,2.376566E-1,9.106954E-2,2.455012E-2,7.2860815E-2,1.04420856E-1,1.9641876E-2,9.2619576E-2,3.9579535E-1,5.0864358E-2,1.0693344E-1,4.699491E-1,1.1555608E-1,5.4229736E-2,1.5336037E-2,5.5740356E-2,1.2556243E-1,5.1656086E-2,1.4158852E-1],"categories":[],"categories_nodes":[],"categories_segments":[],"categories_sizes":[],"default_left":[true,true,true,true,false,false,true,true,true,true,false,true,true,false,true,false,false,false,false,false,true,true,true,false,false,false,false,false,true,false,false],"id":17,"left_children":[1,3,5,7,-1,-1,9,11,13,15,-1,17,19,-1,21,-1,-1,-1,-1,-1,23,25,27,-1,-1,-1,-1,-1,29,-1,-1],"loss_changes":[1.9935119E-1,3.2159066E-1,8.368984E-3,1.4619362E-1,0E0,0E0,2.4778247E-3,1.6913176E-1,5.5805266E-2,1.2602173E-3,0E0,2.7640983E-3,9.27006E-2,0E0,6.041497E-3,0E0,0E0,0E0,0E0,0E0,1.1194074E-1,5.2955E-6,4.44521E-3,0E0,0E0,0E0,0E0,0E0,2.1615326E-3,0E0,0E0],"parents":[2147483647,0,0,1,1,2,2,3,3,6,6,7,7,8,8,9,9,11,11,12,12,14,14,20,20,21,21,22,22,28,28],"right_children":[2,4,6,8,-1,-1,10,12,14,16,-1,18,20,-1,22,-1,-1,-1,-1,-1,24,26,28,-1,-1,-1,-1,-1,30,-1,-1],"split_conditions":[1.1507405E-2,1.1482517E4,2.372125E2,9.76925E1,1.6632691E-1,4.106865E-2,9.8537994E1,4.34725E1,9.62025E1,2.951379E3,5.1233293E-3,1.446831E0,2E0,7.129698E-2,4.33265E1,7.3650363E-3,2.1858245E-2,3.1326257E-2,5.892563E-3,2.7785873E-2,1.1400924E4,7.967259E3,9.807851E1,1.4098473E-1,3.4666825E-2,1.6268922E-2,4.6008113E-3,1.6722107E-2,4.3639E1,1.5496827E-2,4.2476557E-2],"split_indices":[21,2,12,19,0,0,49,57,59,2,0,11,0,0,7,0,0,0,0,0,2,32,59,0,0,0,0,0,17,0,0],"split_type":[0,0,0,0,0,0,0,0,0,0,0,0,0,0,0,0,0,0,0,0,0,0,0,0,0,0,0,0,0,0,0],"sum_hessian":[5.1E1,3.6E1,1.5E1,3.4E1,2E0,2E0,1.3E1,1.4E1,2E1,1.1E1,2E0,5E0,9E0,3E0,1.7E1,2E0,9E0,4E0,1E0,2E0,7E0,6E0,1.1E1,5E0,2E0,5E0,1E0,4E0,7E0,2E0,5E0],"tree_param":{"num_deleted":"0","num_feature":"70","num_nodes":"31","size_leaf_vector":"0"}},{"base_weights":[1.4067915E-1,1.7084247E-1,5.4886818E-2,1.4337227E-1,4.4353738E-1,1.2409973E-1,4.1078772E-2,1.97196E-1,9.5536456E-2,1.9063473E-2,4.53499E-2,1.315714E-1,3.6117697E-1,1.5428297E-1,6.175232E-2,1.1464119E-2,4.7592066E-2,1.7551279E-1,5.1054318E-2,8.0578804E-2,4.278501E-1,6.2161922E-2,2.0783329E-1,4.290078E-2,9.0875246E-2,2.0874023E-2,6.092596E-2,4.660649E-2,1.7483393E-2],"categories":[],"categories_nodes":[],"categories_segments":[],"categories_sizes":[],"default_left":[true,true,true,true,false,false,true,true,true,false,true,true,true,true,true,false,false,false,true,false,false,false,false,true,false,false,false,false,false],"id":18,"left_children":[1,3,5,7,-1,-1,9,11,13,-1,15,17,19,21,23,-1,-1,-1,25,-1,-1,-1,-1,27,-1,-1,-1,-1,-1],"loss_changes":[1.2518752E-1,2.210666E-1,9.237561E-3,7.38498E-2,0E0,0E0,4.5189634E-4,1.24658465E-1,3.2151386E-2,0E0,2.9015355E-4,3.7033737E-2,4.035777E-2,2.1612465E-2,4.336562E-3,0E0,0E0,0E0,5.158037E-4,0E0,0E0,0E0,0E0,2.2124313E-4,0E0,0E0,0E0,0E0,0E0],"parents":[2147483647,0,0,1,1,2,2,3,3,6,6,7,7,8,8,10,10,11,11,12,12,13,13,14,14,18,18,23,23],"right_children":[2,4,6,8,-1,-1,10,12,14,-1,16,18,20,22,24,-1,-1,-1,26,-1,-1,-1,-1,28,-1,-1,-1,-1,-1],"split_conditions":[6.7414274E-3,1.1482517E4,4.097E1,9.78365E1,1.3306122E-1,3.722992E-2,4.397E1,9.8905E1,9.77425E1,5.719042E-3,6E0,1.1507405E-2,2E0,9.82E-1,9.9026E1,3.4392357E-3,1.427762E-2,5.2653838E-2,5.5E0,2.4173642E-2,1.2835504E-1,1.8648578E-2,6.234999E-2,3.1746042E-1,2.7262574E-2,6.2622074E-3,1.8277789E-2,1.3981947E-2,5.245018E-3],"split_indices":[61,2,7,19,0,0,7,9,69,0,0,51,0,28,69,0,0,0,10,0,0,0,0,21,0,0,0,0,0],"split_type":[0,0,0,0,0,0,0,0,0,0,0,0,0,0,0,0,0,0,0,0,0,0,0,0,0,0,0,0,0],"sum_hessian":[5.1E1,3.7E1,1.4E1,3.5E1,2E0,1E0,1.3E1,1.5E1,2E1,3E0,1E1,1.2E1,3E0,6E0,1.4E1,1E0,9E0,7E0,5E0,1E0,2E0,3E0,3E0,1E1,4E0,2E0,3E0,8E0,2E0],"tree_param":{"num_deleted":"0","num_feature":"70","num_nodes":"29","size_leaf_vector":"0"}},{"base_weights":[1.0906997E-1,2.6494026E-1,9.411995E-2,6.965002E-2,4.254055E-1,1.8531609E-1,7.708523E-2,2.95269E-1,8.228111E-2,2.8266111E-2,9.2983484E-2,9.847307E-2,8.756638E-3,2.9713891E-2,6.170273E-3,1.4186946E-1,6.431398E-2,8.0937915E-2,2.7737427E-1,8.8505365E-2,4.0757988E-2,2.2058964E-2,1.067009E-1,5.1349323E-2,1.1539154E-1,4.4016752E-2,1.52231855E-2,4.8522312E-2,1.5827814E-2],"categories":[],"categories_nodes":[],"categories_segments":[],"categories_sizes":[],"default_left":[true,true,true,false,false,true,true,false,true,true,true,false,false,false,false,true,true,true,false,true,true,false,false,false,false,true,false,false,false],"id":19,"left_children":[1,3,5,-1,-1,7,9,-1,11,13,15,-1,-1,-1,-1,17,19,21,-1,23,25,-1,-1,-1,-1,27,-1,-1,-1],"loss_changes":[9.62376E-2,9.5719665E-2,6.183639E-2,0E0,0E0,5.500792E-2,3.0745685E-2,0E0,5.090233E-3,2.005361E-4,3.5724968E-2,0E0,0E0,0E0,0E0,6.837161E-2,8.929446E-3,1.1298366E-2,0E0,4.0645674E-3,4.1167997E-4,0E0,0E0,0E0,0E0,6.290749E-4,0E0,0E0,0E0],"parents":[2147483647,0,0,1,1,2,2,5,5,6,6,8,8,9,9,10,10,15,15,16,16,17,17,19,19,20,20,25,25],"right_children":[2,4,6,-1,-1,8,10,-1,12,14,16,-1,-1,-1,-1,18,20,22,-1,24,26,-1,-1,-1,-1,28,-1,-1,-1],"split_conditions":[9.5114E1,1.15E1,9.655E-1,2.0895006E-2,1.2762165E-1,4.3634E1,9.75E-1,8.8580705E-2,8E0,1.15E1,4.3909E1,2.9541923E-2,2.6269914E-3,8.914168E-3,1.851082E-3,9.86E-1,9.7775E1,4.36285E1,8.3212286E-2,4.32875E1,4.6447502E1,6.6176895E-3,3.2010272E-2,1.5404797E-2,3.461746E-2,9.9376E1,4.566956E-3,1.4556694E-2,4.7483444E-3],"split_indices":[59,30,18,0,0,47,18,0,0,0,27,0,0,0,0,28,49,17,0,57,7,0,0,0,0,59,0,0,0],"split_type":[0,0,0,0,0,0,0,0,0,0,0,0,0,0,0,0,0,0,0,0,0,0,0,0,0,0,0,0,0],"sum_hessian":[5.1E1,3E0,4.8E1,2E0,1E0,6E0,4.2E1,2E0,4E0,1.1E1,3.1E1,3E0,1E0,1E1,1E0,1E1,2.1E1,8E0,2E0,9E0,1.2E1,3E0,5E0,5E0,4E0,1E1,2E0,8E0,2E0],"tree_param":{"num_deleted":"0","num_feature":"70","num_nodes":"29","size_leaf_vector":"0"}},{"base_weights":[8.549821E-2,2.2258711E-1,7.256241E-2,5.5719376E-2,3.6159515E-1,1.4697157E-1,5.8761798E-2,6.824303E-2,1.5336037E-2,2.3621495E-1,6.403122E-2,3.9788824E-2,8.829188E-2,7.631731E-2,7.443428E-3,4.7457833E-2,1.4684081E-2,2.2189839E-1,5.3355355E-2,2.6194466E-2,5.852802E-2,7.435465E-2,2.1733966E-2,1.2931442E-2,3.42186E-2,7.689667E-2,3.1798225E-2,1.634852E-2,9.096527E-2],"categories":[],"categories_nodes":[],"categories_segments":[],"categories_sizes":[],"default_left":[true,true,true,true,false,true,true,false,false,false,true,true,true,false,false,true,false,false,true,true,true,true,false,false,false,false,false,false,false],"id":20,"left_children":[1,3,5,7,-1,9,11,-1,-1,-1,13,15,17,-1,-1,19,-1,-1,21,23,25,27,-1,-1,-1,-1,-1,-1,-1],"loss_changes":[7.606292E-2,7.263598E-2,4.168144E-2,4.706625E-4,0E0,3.6688015E-2,2.0578727E-2,0E0,0E0,0E0,2.9081497E-3,4.6939217E-3,6.28445E-2,0E0,0E0,3.4100674E-3,0E0,0E0,7.6803565E-3,5.153222E-4,3.937695E-3,6.2209964E-3,0E0,0E0,0E0,0E0,0E0,0E0,0E0],"parents":[2147483647,0,0,1,1,2,2,3,3,5,5,6,6,10,10,11,11,12,12,15,15,18,18,19,19,20,20,21,21],"right_children":[2,4,6,8,-1,10,12,-1,-1,-1,14,16,18,-1,-1,20,-1,-1,22,24,26,28,-1,-1,-1,-1,-1,-1,-1],"split_conditions":[9.5114E1,1.15E1,9.655E-1,9.5E0,1.0847855E-1,4.3634E1,9.855E-1,2.0472908E-2,4.6008113E-3,7.086449E-2,8E0,2.2719213E-1,4.5E0,2.2895195E-2,2.2330284E-3,9.79E-1,4.4052247E-3,6.656952E-2,6.7414274E-3,9.5E0,9.78975E1,2.948207E3,6.52019E-3,3.8794328E-3,1.0265579E-2,2.3069002E-2,9.539468E-3,4.904556E-3,2.7289582E-2],"split_indices":[59,30,18,0,0,47,48,0,0,0,0,21,20,0,0,58,0,0,61,10,39,2,0,0,0,0,0,0,0],"split_type":[0,0,0,0,0,0,0,0,0,0,0,0,0,0,0,0,0,0,0,0,0,0,0,0,0,0,0,0,0],"sum_hessian":[5.1E1,3E0,4.8E1,2E0,1E0,6E0,4.2E1,1E0,1E0,2E0,4E0,2.7E1,1.5E1,3E0,1E0,2E1,7E0,2E0,1.3E1,8E0,1.2E1,7E0,6E0,4E0,4E0,6E0,6E0,2E0,5E0],"tree_param":{"num_deleted":"0","num_feature":"70","num_nodes":"29","size_leaf_vector":"0"}},{"base_weights":[6.727152E-2,1.8919897E-1,5.5945378E-2,4.7361374E-2,3.0735588E-1,1.1659268E-1,4.4771504E-2,5.8006287E-2,1.3035774E-2,1.889712E-1,4.984703E-2,2.9679434E-2,6.838441E-2,5.914545E-2,6.3266754E-3,6.864294E-2,2.404213E-2,1.775182E-1,4.0113993E-2,2.8340189E-2,1.0828972E-2,8.319727E-2,2.6000341E-2,9.482861E-3,3.128326E-2,1.1507034E-2,3.0412674E-3,9.757042E-3,3.0330658E-2,3.2541275E-2,6.2065125E-3,4.0433884E-2,1.4161301E-2,1.2011846E-2,3.477566E-2,3.726439E-2,1.4058431E-2],"categories":[],"categories_nodes":[],"categories_segments":[],"categories_sizes":[],"default_left":[true,true,true,true,false,true,true,false,false,false,true,true,true,false,false,false,true,false,true,true,true,false,true,false,true,false,false,false,true,true,false,false,false,false,true,false,false],"id":21,"left_children":[1,3,5,7,-1,9,11,-1,-1,-1,13,15,17,-1,-1,-1,19,-1,21,23,25,-1,27,-1,29,-1,-1,-1,31,33,-1,-1,-1,-1,35,-1,-1],"loss_changes":[6.122555E-2,5.247958E-2,2.7985558E-2,3.4002215E-4,0E0,2.4397016E-2,1.3294198E-2,0E0,0E0,0E0,1.6491581E-3,4.4998527E-3,4.224316E-2,0E0,0E0,0E0,1.1696685E-3,0E0,6.349718E-3,7.578172E-4,7.2484254E-6,0E0,5.481262E-4,0E0,3.0278228E-4,0E0,0E0,0E0,8.9766737E-4,2.7033873E-4,0E0,0E0,0E0,0E0,1.4639646E-4,0E0,0E0],"parents":[2147483647,0,0,1,1,2,2,3,3,5,5,6,6,10,10,11,11,12,12,16,16,18,18,19,19,20,20,22,22,24,24,28,28,29,29,34,34],"right_children":[2,4,6,8,-1,10,12,-1,-1,-1,14,16,18,-1,-1,-1,20,-1,22,24,26,-1,28,-1,30,-1,-1,-1,32,34,-1,-1,-1,-1,36,-1,-1],"split_conditions":[9.5114E1,1.15E1,9.655E-1,9.5E0,9.220677E-2,4.3634E1,9.855E-1,1.7401887E-2,3.9107325E-3,5.6691363E-2,8E0,9.57485E1,4.5E0,1.7743636E-2,1.8980027E-3,2.0592881E-2,2.2719213E-1,5.3255465E-2,9.7474E1,4.1678E1,1.15E1,2.4959182E-2,4.436E1,2.8448582E-3,6.1467276E0,3.4521103E-3,9.1238023E-4,2.9271126E-3,4.5779503E1,9.62E-1,1.8619538E-3,1.21301655E-2,4.2483904E-3,3.6035539E-3,9.334685E-2,1.1179318E-2,4.217529E-3],"split_indices":[59,30,18,0,0,47,48,0,0,0,0,19,20,0,0,0,21,0,49,67,0,0,67,0,31,0,0,0,67,28,0,0,0,0,11,0,0],"split_type":[0,0,0,0,0,0,0,0,0,0,0,0,0,0,0,0,0,0,0,0,0,0,0,0,0,0,0,0,0,0,0,0,0,0,0,0,0],"sum_hessian":[5.1E1,3E0,4.8E1,2E0,1E0,6E0,4.2E1,1E0,1E0,2E0,4E0,2.7E1,1.5E1,3E0,1E0,2E0,2.5E1,2E0,1.3E1,1.8E1,7E0,2E0,1.1E1,3E0,1.5E1,6E0,1E0,3E0,8E0,1.4E1,1E0,4E0,4E0,2E0,1.2E1,1E1,2E0],"tree_param":{"num_deleted":"0","num_feature":"70","num_nodes":"37","size_leaf_vector":"0"}},{"base_weights":[5.355215E-2,1.6081953E-1,4.370273E-2,4.0257137E-2,2.6125336E-1,9.2520304E-2,3.4739338E-2,4.9304962E-2,1.1080742E-2,1.7584038E-1,4.9326897E-2,2.2513254E-2,5.396378E-2,6.5104485E-2,1.1847814E-2,5.491511E-2,1.7908683E-2,1.4201355E-1,3.1241417E-2,1.4722824E-2,6.764984E-2,2.1085238E-2,8.125782E-3,6.6557564E-2,1.9808928E-2,7.3485374E-3,2.3201585E-2,2.4977548E-2,1.0477384E-2,2.4704387E-2,8.45464E-3,8.846283E-3,2.9660797E-2,5.1016808E-3,1.4152527E-2,9.6098585E-3,2.6419321E-2,2.8329086E-2,1.1246999E-2],"categories":[],"categories_nodes":[],"categories_segments":[],"categories_sizes":[],"default_left":[true,true,true,true,false,true,true,false,false,false,true,true,true,false,false,true,true,false,true,false,false,true,false,false,true,false,true,true,true,true,false,false,false,false,false,false,true,false,false],"id":22,"left_children":[1,3,5,7,-1,9,11,-1,-1,-1,13,15,17,-1,-1,19,21,-1,23,-1,-1,25,-1,-1,27,-1,29,31,33,35,-1,-1,-1,-1,-1,-1,37,-1,-1],"loss_changes":[4.791087E-2,3.7916854E-2,1.8226884E-2,2.456135E-4,0E0,1.6518485E-2,8.891806E-3,0E0,0E0,0E0,2.7766312E-3,3.1940471E-3,2.757448E-2,0E0,0E0,5.3951703E-4,6.3664E-4,0E0,4.3340875E-3,0E0,0E0,3.8186368E-4,0E0,0E0,3.1707482E-4,0E0,1.4572125E-4,2.6643928E-4,4.6337198E-5,1.0851957E-4,0E0,0E0,0E0,0E0,0E0,0E0,2.908986E-5,0E0,0E0],"parents":[2147483647,0,0,1,1,2,2,3,3,5,5,6,6,10,10,11,11,12,12,15,15,16,16,18,18,21,21,24,24,26,26,27,27,28,28,29,29,36,36],"right_children":[2,4,6,8,-1,10,12,-1,-1,-1,14,16,18,-1,-1,20,22,-1,24,-1,-1,26,-1,-1,28,-1,30,32,34,36,-1,-1,-1,-1,-1,-1,38,-1,-1],"split_conditions":[9.5114E1,1.15E1,9.655E-1,9.5E0,7.837601E-2,4.30495E1,9.855E-1,1.479149E-2,3.3242228E-3,5.2752115E-2,4.3628E1,9.57485E1,4.5E0,1.9531347E-2,3.5543442E-3,5E0,2.2719213E-1,4.2604066E-2,9.7474E1,4.4168476E-3,2.0294953E-2,4.1678E1,2.4377347E-3,1.996727E-2,8.939546E-2,2.2045614E-3,9.686758E-1,4.5015503E1,9.8749995E-1,9.62E-1,2.5363923E-3,2.653885E-3,8.89824E-3,1.5305043E-3,4.245758E-3,2.8829577E-3,9.334685E-2,8.498726E-3,3.3740997E-3],"split_indices":[59,30,18,0,0,47,48,0,0,0,27,19,20,0,0,0,21,0,49,0,0,67,0,0,61,0,61,67,8,28,0,0,0,0,0,0,11,0,0],"split_type":[0,0,0,0,0,0,0,0,0,0,0,0,0,0,0,0,0,0,0,0,0,0,0,0,0,0,0,0,0,0,0,0,0,0,0,0,0,0,0],"sum_hessian":[5.1E1,3E0,4.8E1,2E0,1E0,6E0,4.2E1,1E0,1E0,1E0,5E0,2.7E1,1.5E1,3E0,2E0,2E0,2.5E1,2E0,1.3E1,1E0,1E0,1.8E1,7E0,2E0,1.1E1,3E0,1.5E1,6E0,5E0,1.3E1,2E0,2E0,4E0,3E0,2E0,2E0,1.1E1,9E0,2E0],"tree_param":{"num_deleted":"0","num_feature":"70","num_nodes":"39","size_leaf_vector":"0"}},{"base_weights":[4.3233946E-2,1.3669586E-1,3.4722075E-2,3.4217834E-2,2.2206497E-1,9.102726E-2,2.9071145E-2,4.1908264E-2,9.418488E-3,2.1727243E-2,1.4946365E-1,5.5686712E-2,2.2866126E-2,6.4853667E-3,1.03266716E-1,4.4250216E-2,1.7637195E-2,1.4408588E-2,6.302929E-2,1.4849424E-2,5.3422928E-2,2.0398308E-2,8.025646E-3,1.2442059E-2,2.608808E-2,4.1262307E-3,9.422996E-3,1.2210464E-2,3.4748077E-2,1.2005488E-2,5.2700043E-3,1.3954163E-2,2.617836E-3,3.6010742E-3,1.2966156E-2],"categories":[],"categories_nodes":[],"categories_segments":[],"categories_sizes":[],"default_left":[true,true,true,true,false,true,true,false,false,false,false,true,true,false,false,true,true,false,false,true,false,true,true,false,true,false,true,true,false,true,false,false,false,false,false],"id":23,"left_children":[1,3,5,7,-1,9,11,-1,-1,-1,-1,13,15,-1,-1,17,19,-1,-1,21,-1,23,25,-1,27,-1,29,31,-1,33,-1,-1,-1,-1,-1],"loss_changes":[3.662149E-2,2.7395256E-2,1.2944385E-2,1.7744023E-4,0E0,1.2951136E-2,6.323565E-3,0E0,0E0,0E0,0E0,1.8058281E-2,3.5803728E-3,0E0,0E0,3.014625E-3,2.4988595E-3,0E0,0E0,1.0479502E-3,0E0,4.449878E-4,4.8300135E-5,0E0,6.5733073E-4,0E0,5.4706703E-5,4.710356E-5,0E0,1.7510029E-6,0E0,0E0,0E0,0E0,0E0],"parents":[2147483647,0,0,1,1,2,2,3,3,5,5,6,6,11,11,12,12,15,15,16,16,19,19,21,21,22,22,24,24,26,26,27,27,29,29],"right_children":[2,4,6,8,-1,10,12,-1,-1,-1,-1,14,16,-1,-1,18,20,-1,-1,22,-1,24,26,-1,28,-1,30,32,-1,34,-1,-1,-1,-1,-1],"split_conditions":[9.5114E1,1.15E1,9.555E-1,9.5E0,6.661949E-2,4E0,4.0835E1,1.2572479E-2,2.8255463E-3,6.5181735E-3,4.48391E-2,9.8399997E-1,9.63675E1,1.94561E-3,3.0980015E-2,9.6382996E1,9.9978E1,4.322577E-3,1.8908788E-2,4.3821503E1,1.6026879E-2,9.78E-1,9.7996E1,3.7326177E-3,2.3624727E3,1.2378693E-3,9.82E-1,6E0,1.0424424E-2,4.07285E1,1.5810013E-3,4.186249E-3,7.8535086E-4,1.0803223E-3,3.8898468E-3],"split_indices":[59,30,28,0,0,0,67,0,0,0,0,48,19,0,0,9,59,0,0,57,0,58,59,0,32,0,28,0,0,17,0,0,0,0,0],"split_type":[0,0,0,0,0,0,0,0,0,0,0,0,0,0,0,0,0,0,0,0,0,0,0,0,0,0,0,0,0,0,0,0,0,0,0],"sum_hessian":[5.1E1,3E0,4.8E1,2E0,1E0,3E0,4.5E1,1E0,1E0,2E0,1E0,7E0,3.8E1,4E0,3E0,6E0,3.2E1,3E0,3E0,3.1E1,1E0,1.6E1,1.5E1,8E0,8E0,5E0,1E1,4E0,4E0,5E0,5E0,3E0,1E0,1E0,4E0],"tree_param":{"num_deleted":"0","num_feature":"70","num_nodes":"35","size_leaf_vector":"0"}},{"base_weights":[3.4734562E-2,1.1619139E-1,2.7376156E-2,2.908516E-2,1.8875504E-1,7.655907E-2,2.2504246E-2,3.5621643E-2,8.006096E-3,1.7382303E-2,1.2704468E-1,4.309678E-2,1.7703105E-2,1.0982831E-2,9.295908E-2,3.8049318E-2,1.4290701E-2,4.9289702E-3,2.0626068E-2,1.0246277E-2,5.316925E-2,1.203983E-2,4.5410156E-2,1.4616699E-2,4.393673E-3,1.6734576E-2,6.7800796E-3,4.99022E-3,1.338323E-3,8.959634E-3,1.9633807E-2,9.373665E-3,2.4914742E-3,1.9569397E-3,9.800593E-3,2.08532E-2,2.500534E-3,1.0919253E-2,2.6388986E-2],"categories":[],"categories_nodes":[],"categories_segments":[],"categories_sizes":[],"default_left":[true,true,true,true,false,true,true,false,false,false,false,true,true,true,false,true,true,false,false,false,false,true,false,true,true,true,true,false,false,true,true,false,false,false,false,true,false,false,false],"id":24,"left_children":[1,3,5,7,-1,9,11,-1,-1,-1,-1,13,15,17,-1,19,21,-1,-1,-1,-1,23,-1,25,27,29,31,-1,-1,33,35,-1,-1,-1,-1,37,-1,-1,-1],"loss_changes":[2.7987525E-2,1.9793015E-2,1.0018215E-2,1.2815837E-4,0E0,9.741969E-3,3.7849676E-3,0E0,0E0,0E0,0E0,1.1789252E-2,2.1639988E-3,2.486076E-4,0E0,1.5571136E-3,1.9048755E-3,0E0,0E0,0E0,0E0,6.056861E-4,0E0,3.0146306E-4,1.1548065E-5,2.5237398E-4,5.450583E-5,0E0,0E0,2.2043649E-5,2.1945452E-4,0E0,0E0,0E0,0E0,3.7175836E-4,0E0,0E0,0E0],"parents":[2147483647,0,0,1,1,2,2,3,3,5,5,6,6,11,11,12,12,13,13,15,15,16,16,21,21,23,23,24,24,25,25,26,26,29,29,30,30,35,35],"right_children":[2,4,6,8,-1,10,12,-1,-1,-1,-1,14,16,18,-1,20,22,-1,-1,-1,-1,24,-1,26,28,30,32,-1,-1,34,36,-1,-1,-1,-1,38,-1,-1,-1],"split_conditions":[9.5114E1,1.15E1,9.555E-1,9.5E0,5.6626514E-2,4E0,4.0835E1,1.06864935E-2,2.4018288E-3,5.214691E-3,3.8113404E-2,9.86E-1,9.6650004E-1,1.9885431E-1,2.7887726E-2,3E0,6.1813004E1,1.4786911E-3,6.187821E-3,3.0738832E-3,1.5950777E-2,2.2719213E-1,1.3623048E-2,6.7414274E-3,1.676614E0,9.785E-1,8.5E0,1.4970661E-3,4.0149692E-4,9.5E0,6.41225E1,2.8120996E-3,7.474423E-4,5.8708194E-4,2.9401782E-3,5.5E0,7.5016025E-4,3.275776E-3,7.916696E-3],"split_indices":[59,30,28,0,0,0,67,0,0,0,0,48,8,1,0,0,57,0,0,0,0,21,0,61,51,58,0,0,0,10,37,0,0,0,0,0,0,0,0],"split_type":[0,0,0,0,0,0,0,0,0,0,0,0,0,0,0,0,0,0,0,0,0,0,0,0,0,0,0,0,0,0,0,0,0,0,0,0,0,0,0],"sum_hessian":[5.1E1,3E0,4.8E1,2E0,1E0,3E0,4.5E1,1E0,1E0,2E0,1E0,7E0,3.8E1,5E0,2E0,4E0,3.4E1,4E0,1E0,2E0,2E0,3.3E1,1E0,2.4E1,9E0,1.8E1,6E0,7E0,2E0,6E0,1.2E1,3E0,3E0,1E0,5E0,1.1E1,1E0,5E0,6E0],"tree_param":{"num_deleted":"0","num_feature":"70","num_nodes":"39","size_leaf_vector":"0"}},{"base_weights":[2.8202113E-2,9.8763466E-2,2.1866448E-2,2.4723053E-2,1.6044235E-1,6.442356E-2,1.7690472E-2,3.027916E-2,6.80542E-3,1.3905843E-2,1.0798836E-1,2.9240036E-2,1.1723787E-2,3.088951E-3,1.7769814E-2,4.920578E-2,5.6192875E-3,3.4381866E-2,9.067186E-3,1.0908127E-2,7.000275E-2,7.303238E-3,2.1095276E-3,2.7509054E-2,6.7674434E-3,2.2506714E-3,1.3043721E-2,7.7962875E-2,1.9081116E-2,2.1848679E-3,8.036613E-3,2.4859111E-3,4.901886E-4,8.367432E-3,3.534057E-3,1.0884285E-2,5.7763187E-3,4.025883E-3,8.8055927E-4,2.4662018E-3,1.1734554E-2,6.5865517E-3,2.711773E-3,1.0585785E-3,4.264474E-3,1.8177032E-3,7.0081437E-3],"categories":[],"categories_nodes":[],"categories_segments":[],"categories_sizes":[],"default_left":[true,true,true,true,false,true,true,false,false,true,false,true,true,false,false,true,true,false,true,true,true,true,true,false,true,false,false,false,false,false,false,false,false,true,true,true,true,true,false,false,false,true,false,false,false,false,false],"id":25,"left_children":[1,3,5,7,-1,9,11,-1,-1,13,-1,15,17,-1,-1,19,21,-1,23,25,27,29,31,-1,33,-1,-1,-1,-1,-1,-1,-1,-1,35,37,39,41,43,-1,-1,-1,45,-1,-1,-1,-1,-1],"loss_changes":[2.1087147E-2,1.4300298E-2,7.568475E-3,9.2594535E-5,0E0,7.3015075E-3,2.827176E-3,0E0,0E0,7.049844E-5,0E0,6.7975875E-3,1.6144444E-3,0E0,0E0,5.608201E-3,3.187571E-5,0E0,1.0861803E-3,4.4598128E-5,5.390942E-4,1.209497E-6,1.219405E-6,0E0,1.15283765E-4,0E0,0E0,0E0,0E0,0E0,0E0,0E0,0E0,5.4514967E-5,1.0810632E-5,2.8321287E-5,9.451731E-6,1.8574647E-6,0E0,0E0,0E0,3.3453398E-6,0E0,0E0,2.0612788E-7,0E0,0E0],"parents":[2147483647,0,0,1,1,2,2,3,3,5,5,6,6,9,9,11,11,12,12,15,15,16,16,18,18,19,19,20,20,21,21,22,22,24,24,33,33,34,34,35,35,36,36,37,37,41,41],"right_children":[2,4,6,8,-1,10,12,-1,-1,14,-1,16,18,-1,-1,20,22,-1,24,26,28,30,32,-1,34,-1,-1,-1,-1,-1,-1,-1,-1,36,38,40,42,44,-1,-1,-1,46,-1,-1,-1,-1,-1],"split_conditions":[9.5114E1,1.15E1,9.555E-1,9.5E0,4.8132706E-2,4E0,4.35195E1,9.083748E-3,2.041626E-3,2.326745E2,3.239651E-2,9.7877E1,9.64E-1,9.2668534E-4,5.3309444E-3,9.6493E1,3.5E0,1.03145605E-2,9.585E-1,6E0,9.8450005E-1,5E0,9.87855E1,8.252717E-3,2.2719213E-1,6.752014E-4,3.9131166E-3,2.3388863E-2,5.724335E-3,6.554604E-4,2.4109841E-3,7.457734E-4,1.4705659E-4,2.9515493E3,9.8537994E1,4.5156998E1,4.4966003E1,6.5E0,2.641678E-4,7.398606E-4,3.5203663E-3,4.389E1,8.135319E-4,3.1757355E-4,1.2793422E-3,5.45311E-4,2.1024432E-3],"split_indices":[59,30,28,0,0,0,7,0,0,2,0,39,68,0,0,39,0,0,18,0,8,10,9,0,21,0,0,0,0,0,0,0,0,2,49,7,17,0,0,0,0,7,0,0,0,0,0],"split_type":[0,0,0,0,0,0,0,0,0,0,0,0,0,0,0,0,0,0,0,0,0,0,0,0,0,0,0,0,0,0,0,0,0,0,0,0,0,0,0,0,0,0,0,0,0,0,0],"sum_hessian":[5.1E1,3E0,4.8E1,2E0,1E0,3E0,4.5E1,1E0,1E0,2E0,1E0,1.4E1,3.1E1,1E0,1E0,7E0,7E0,2E0,2.9E1,3E0,4E0,4E0,3E0,2E0,2.7E1,1E0,2E0,3E0,1E0,1E0,3E0,2E0,1E0,1.7E1,1E1,7E0,1E1,8E0,2E0,1E0,6E0,7E0,3E0,1E0,7E0,1E0,6E0],"tree_param":{"num_deleted":"0","num_feature":"70","num_nodes":"47","size_leaf_vector":"0"}},{"base_weights":[2.2889797E-2,8.394909E-2,1.7438227E-2,2.1015167E-2,1.3637543E-1,5.4759502E-2,1.3813807E-2,2.5737762E-2,5.7849884E-3,1.18198395E-2,9.1789246E-2,2.8972864E-2,1.0350056E-2,2.6254654E-3,1.5104294E-2,7.0645013E-3,6.3131966E-2,2.1367481E-2,7.6993885E-3,3.1147003E-3,1.3406754E-2,7.387638E-3,3.0005455E-2,6.258428E-3,2.690506E-2,9.045124E-3,3.2675127E-3,4.5263767E-3,1.2056774E-2,3.7447123E-3,1.373291E-3,1.531601E-3,6.016922E-3,1.5473048E-2,3.918171E-3,3.9873123E-3,4.1675568E-4,6.8411827E-3,1.3599396E-3,4.2915344E-3,1.6851043E-2],"categories":[],"categories_nodes":[],"categories_segments":[],"categories_sizes":[],"default_left":[true,true,true,true,false,true,true,false,false,true,false,true,true,false,false,true,false,true,true,false,false,false,false,true,false,true,true,true,true,true,false,false,true,true,false,false,false,false,false,false,false],"id":26,"left_children":[1,3,5,7,-1,9,11,-1,-1,13,-1,15,17,-1,-1,19,-1,21,23,-1,-1,-1,-1,25,-1,27,29,31,33,35,-1,-1,37,39,-1,-1,-1,-1,-1,-1,-1],"loss_changes":[1.5845267E-2,1.0331625E-2,5.8716927E-3,6.688526E-5,0E0,5.275244E-3,2.11546E-3,0E0,0E0,5.0939707E-5,0E0,5.540965E-3,9.744214E-4,0E0,0E0,1.0854579E-4,0E0,6.2363315E-4,7.448788E-4,0E0,0E0,0E0,0E0,2.371578E-4,0E0,1.6316865E-4,1.0224103E-5,2.6495254E-5,1.8960726E-4,8.833973E-6,2.9347575E-8,0E0,9.889249E-6,2.0131585E-5,0E0,0E0,0E0,0E0,0E0,0E0,0E0],"parents":[2147483647,0,0,1,1,2,2,3,3,5,5,6,6,9,9,11,11,12,12,15,15,17,17,18,18,23,23,25,25,26,26,27,27,28,28,29,29,32,32,33,33],"right_children":[2,4,6,8,-1,10,12,-1,-1,14,-1,16,18,-1,-1,20,-1,22,24,-1,-1,-1,-1,26,-1,28,30,32,34,36,-1,-1,38,40,-1,-1,-1,-1,-1,-1,-1],"split_conditions":[9.5114E1,1.15E1,9.555E-1,9.5E0,4.091263E-2,4E0,4.0835E1,7.721329E-3,1.7354966E-3,2.326745E2,2.7536774E-2,9.86E-1,9.63675E1,7.8763964E-4,4.5312885E-3,1.9885431E-1,1.893959E-2,9.6382996E1,9.9978E1,9.3441014E-4,4.0220264E-3,2.2162916E-3,9.001637E-3,4.3767E1,8.0715185E-3,9.865E-1,9.643305E-1,9.81E-1,9.8950005E-1,9.97E-1,4.1198733E-4,4.594803E-4,4.4893E1,4.5E0,1.1754513E-3,1.1961937E-3,1.2502671E-4,2.0523549E-3,4.079819E-4,1.2874603E-3,5.055313E-3],"split_indices":[59,30,28,0,0,0,67,0,0,2,0,48,19,0,0,1,0,9,59,0,0,0,0,57,0,18,21,28,18,48,0,0,17,0,0,0,0,0,0,0,0],"split_type":[0,0,0,0,0,0,0,0,0,0,0,0,0,0,0,0,0,0,0,0,0,0,0,0,0,0,0,0,0,0,0,0,0,0,0,0,0,0,0,0,0],"sum_hessian":[5.1E1,3E0,4.8E1,2E0,1E0,3E0,4.5E1,1E0,1E0,2E0,1E0,7E0,3.8E1,1E0,1E0,5E0,2E0,6E0,3.2E1,4E0,1E0,3E0,3E0,3.1E1,1E0,1.5E1,1.6E1,7E0,8E0,1.2E1,4E0,3E0,4E0,5E0,3E0,1.1E1,1E0,3E0,1E0,1E0,4E0],"tree_param":{"num_deleted":"0","num_feature":"70","num_nodes":"41","size_leaf_vector":"0"}},{"base_weights":[1.8687688E-2,7.135677E-2,1.400679E-2,1.7862955E-2,1.1591911E-1,4.654503E-2,1.0872883E-2,2.1877289E-2,4.917145E-3,1.0046641E-2,7.8020096E-2,2.8128434E-2,8.559772E-3,2.231598E-3,1.2838364E-2,7.115841E-3,5.60894E-2,1.1082024E-2,2.7236938E-3,1.8901825E-3,1.1396408E-2,1.6643178E-2,7.279145E-3,4.8241615E-3,1.7122789E-3,3.6407472E-3,2.355303E-2,1.950709E-2,4.693087E-3,4.0372214E-4,1.9582112E-3,3.021698E-2,4.5954385E-3,9.351094E-3,3.4486135E-3,8.678436E-4,2.3587544E-3,5.0119674E-3,1.8494924E-3,2.5787354E-3,6.1922073E-3,2.2258759E-3,8.225441E-4],"categories":[],"categories_nodes":[],"categories_segments":[],"categories_sizes":[],"default_left":[true,true,true,true,false,true,true,false,false,true,false,true,true,false,false,true,false,true,true,false,false,true,true,false,true,false,true,false,true,false,true,false,false,false,true,false,false,true,true,false,false,false,false],"id":27,"left_children":[1,3,5,7,-1,9,11,-1,-1,13,-1,15,17,-1,-1,19,-1,21,23,-1,-1,25,27,-1,29,-1,31,-1,33,-1,35,-1,-1,-1,37,-1,-1,39,41,-1,-1,-1,-1],"loss_changes":[1.18205305E-2,7.4645802E-3,4.4905413E-3,4.8332557E-5,0E0,3.8113166E-3,1.5952708E-3,0E0,0E0,3.680223E-5,0E0,2.538539E-3,5.880585E-4,0E0,0E0,6.793381E-5,0E0,4.921553E-4,2.1481916E-5,0E0,0E0,9.0254284E-4,5.092728E-4,0E0,2.7494061E-6,0E0,7.454667E-4,0E0,6.629675E-5,0E0,1.8836254E-6,0E0,0E0,0E0,2.8230279E-5,0E0,0E0,4.1345193E-6,1.6478552E-6,0E0,0E0,0E0,0E0],"parents":[2147483647,0,0,1,1,2,2,3,3,5,5,6,6,9,9,11,11,12,12,15,15,17,17,18,18,21,21,22,22,24,24,26,26,28,28,30,30,34,34,37,37,38,38],"right_children":[2,4,6,8,-1,10,12,-1,-1,14,-1,16,18,-1,-1,20,-1,22,24,-1,-1,26,28,-1,30,-1,32,-1,34,-1,36,-1,-1,-1,38,-1,-1,40,42,-1,-1,-1,-1],"split_conditions":[9.5114E1,1.15E1,9.555E-1,9.5E0,3.4775734E-2,4E0,2.327915E2,6.563187E-3,1.4751435E-3,2.326745E2,2.3406029E-2,6E0,2.11269E-2,6.6947937E-4,3.8515092E-3,4E0,1.6826821E-2,9.74335E1,9.6611496E1,5.670548E-4,3.4189227E-3,9.785E-1,9.6447E1,1.4472485E-3,9.7520996E1,1.0922241E-3,9.84055E1,5.852127E-3,9.6976E1,1.21116645E-4,2.951379E3,9.065094E-3,1.3786316E-3,2.8053285E-3,1.4289045E6,2.603531E-4,7.0762634E-4,4.5156998E1,9.5E0,7.736206E-4,1.8576622E-3,6.6776277E-4,2.4676323E-4],"split_indices":[59,30,28,0,0,0,62,0,0,2,0,10,21,0,0,0,0,29,49,0,0,58,59,0,9,0,49,0,19,0,2,0,0,0,3,0,0,7,20,0,0,0,0],"split_type":[0,0,0,0,0,0,0,0,0,0,0,0,0,0,0,0,0,0,0,0,0,0,0,0,0,0,0,0,0,0,0,0,0,0,0,0,0,0,0,0,0,0,0],"sum_hessian":[5.1E1,3E0,4.8E1,2E0,1E0,3E0,4.5E1,1E0,1E0,2E0,1E0,4E0,4.1E1,1E0,1E0,3E0,1E0,2.8E1,1.3E1,2E0,1E0,1E1,1.8E1,3E0,1E1,4E0,6E0,2E0,1.6E1,2E0,8E0,4E0,2E0,2E0,1.4E1,3E0,5E0,6E0,8E0,3E0,3E0,5E0,3E0],"tree_param":{"num_deleted":"0","num_feature":"70","num_nodes":"43","size_leaf_vector":"0"}},{"base_weights":[1.5347664E-2,6.065321E-2,1.1336035E-2,1.5183131E-2,9.853172E-2,3.956318E-2,8.635065E-3,1.8594742E-2,4.1799545E-3,8.539836E-3,6.6316605E-2,2.385292E-2,6.6178185E-3,1.8968582E-3,1.0912895E-2,5.9781075E-3,4.7676086E-2,8.576492E-3,2.0878655E-3,1.5125275E-3,9.687424E-3,6.1434833E-3,1.4195204E-2,3.739357E-3,1.2975172E-3,1.3519605E-2,3.1787648E-3,2.5122324E-2,6.365776E-3,1.4851888E-3,3.0199686E-4,1.8237114E-2,2.723058E-3,4.9120584E-3,1.092275E-3,3.1542778E-3,8.525848E-3,5.630493E-3,1.5983582E-3,6.036123E-3,1.5983582E-3],"categories":[],"categories_nodes":[],"categories_segments":[],"categories_sizes":[],"default_left":[true,true,true,true,false,true,true,false,false,true,false,true,true,false,false,true,false,true,true,false,false,true,true,false,true,true,true,false,true,false,false,false,false,true,false,false,false,true,false,false,false],"id":28,"left_children":[1,3,5,7,-1,9,11,-1,-1,13,-1,15,17,-1,-1,19,-1,21,23,-1,-1,25,27,-1,29,31,33,-1,35,-1,-1,-1,-1,37,-1,-1,-1,39,-1,-1,-1],"loss_changes":[8.763385E-3,5.3933347E-3,3.3941618E-3,3.4890487E-5,0E0,2.7535898E-3,1.2542612E-3,0E0,0E0,2.659233E-5,0E0,1.8441603E-3,3.5474682E-4,0E0,0E0,5.1604497E-5,0E0,3.0923286E-4,1.3421668E-5,0E0,0E0,4.38123E-4,5.245018E-4,0E0,1.6066169E-6,2.5593606E-4,5.6115183E-5,0E0,1.4729521E-5,8.192874E-7,0E0,0E0,0E0,1.242655E-5,3.409732E-7,0E0,0E0,1.8009887E-6,0E0,0E0,0E0],"parents":[2147483647,0,0,1,1,2,2,3,3,5,5,6,6,9,9,11,11,12,12,15,15,17,17,18,18,21,21,22,22,24,24,25,25,26,26,28,28,33,33,37,37],"right_children":[2,4,6,8,-1,10,12,-1,-1,14,-1,16,18,-1,-1,20,-1,22,24,-1,-1,26,28,-1,30,32,34,-1,36,-1,-1,-1,-1,38,-1,-1,-1,40,-1,-1,-1],"split_conditions":[9.5114E1,1.15E1,9.555E-1,9.5E0,2.9559517E-2,4E0,2.327915E2,5.578423E-3,1.2539864E-3,2.326745E2,1.9894982E-2,6E0,2.11269E-2,5.690575E-4,3.2738687E-3,4E0,1.43028265E-2,7.9796123E3,9.6611496E1,4.5375826E-4,2.9062273E-3,4.34805E1,4.21525E1,1.1218071E-3,9.8537994E1,8E0,1.4289045E6,7.5366977E-3,9.79E-1,4.4555668E-4,9.059906E-5,5.4711346E-3,8.1691745E-4,4.4975998E1,3.2768253E-4,9.462834E-4,2.5577545E-3,4.291003E0,4.7950746E-4,1.810837E-3,4.7950746E-4],"split_indices":[59,30,28,0,0,0,62,0,0,2,0,10,21,0,0,0,0,42,49,0,0,37,7,0,49,0,3,0,28,0,0,0,0,57,0,0,0,11,0,0,0],"split_type":[0,0,0,0,0,0,0,0,0,0,0,0,0,0,0,0,0,0,0,0,0,0,0,0,0,0,0,0,0,0,0,0,0,0,0,0,0,0,0,0,0],"sum_hessian":[5.1E1,3E0,4.8E1,2E0,1E0,3E0,4.5E1,1E0,1E0,2E0,1E0,4E0,4.1E1,1E0,1E0,3E0,1E0,2.8E1,1.3E1,2E0,1E0,2.1E1,7E0,3E0,1E1,5E0,1.6E1,2E0,5E0,8E0,2E0,3E0,2E0,8E0,8E0,3E0,2E0,6E0,2E0,5E0,1E0],"tree_param":{"num_deleted":"0","num_feature":"70","num_nodes":"41","size_leaf_vector":"0"}},{"base_weights":[1.2663915E-2,5.1555634E-2,9.230633E-3,1.2906392E-2,8.375168E-2,3.3629417E-2,6.908334E-3,1.5806198E-2,3.5533905E-3,7.259369E-3,5.636978E-2,2.0229721E-2,5.1579704E-3,1.6126633E-3,9.27639E-3,5.024433E-3,4.0525436E-2,1.0597774E-2,3.9569535E-3,1.2098948E-3,8.234024E-3,2.0097097E-2,2.7786256E-3,1.292928E-2,3.0488968E-3,3.30019E-3,3.4618378E-4,2.1761532E-3,6.759008E-3,3.0739307E-3,9.946823E-4,9.507497E-3,3.0078888E-3,1.723671E-3,4.5637405E-3,1.5251159E-3,6.2999723E-4,5.745888E-4,2.1340507E-3,5.0649643E-3,7.7819824E-4],"categories":[],"categories_nodes":[],"categories_segments":[],"categories_sizes":[],"default_left":[true,true,true,true,false,true,true,false,false,true,false,true,true,false,false,true,false,true,true,false,false,false,true,false,true,false,false,true,true,true,true,false,false,true,true,false,false,false,false,false,false],"id":29,"left_children":[1,3,5,7,-1,9,11,-1,-1,13,-1,15,17,-1,-1,19,-1,21,23,-1,-1,-1,25,-1,27,-1,-1,29,31,33,35,-1,-1,37,39,-1,-1,-1,-1,-1,-1],"loss_changes":[6.4674728E-3,3.8964786E-3,2.5440794E-3,2.5200075E-5,0E0,1.989449E-3,9.6825E-4,0E0,0E0,1.9208877E-5,0E0,1.3393937E-3,2.3246347E-4,0E0,0E0,3.901012E-5,0E0,4.64094E-4,2.5388575E-4,0E0,0E0,0E0,5.200902E-6,0E0,9.538251E-5,0E0,0E0,2.770267E-5,3.3261953E-5,2.4319685E-5,1.7473576E-6,0E0,0E0,3.4893965E-6,9.340278E-6,0E0,5.1517645E-7,1.3535555E-7,3.856985E-8,0E0,0E0],"parents":[2147483647,0,0,1,1,2,2,3,3,5,5,6,6,9,9,11,11,12,12,15,15,17,17,18,18,22,22,24,24,27,27,28,28,29,29,30,30,33,33,34,34],"right_children":[2,4,6,8,-1,10,12,-1,-1,14,-1,16,18,-1,-1,20,-1,22,24,-1,-1,-1,26,-1,28,-1,-1,30,32,34,36,-1,-1,38,40,-1,-1,-1,-1,-1,-1],"split_conditions":[9.5114E1,1.15E1,9.555E-1,9.5E0,2.5125505E-2,4E0,2.327915E2,4.7418596E-3,1.0660172E-3,2.326745E2,1.6910935E-2,6E0,4.19485E1,4.83799E-4,2.782917E-3,4E0,1.2157631E-2,9.7735504E1,9.64E-1,3.6296845E-4,2.4702074E-3,6.0291295E-3,5E0,3.8787841E-3,9.9059006E1,9.90057E-4,1.03855135E-4,9.7636505E1,9.61595E1,4.53845E1,4.23765E1,2.8522492E-3,9.0236665E-4,4.2432E1,1.15E1,4.575348E-4,1.8899918E-4,1.7237663E-4,6.4021524E-4,1.5194893E-3,2.3345948E-4],"split_indices":[59,30,28,0,0,0,62,0,0,2,0,10,7,0,0,0,0,29,68,0,0,0,0,0,69,0,0,69,29,27,47,0,0,17,0,0,0,0,0,0,0],"split_type":[0,0,0,0,0,0,0,0,0,0,0,0,0,0,0,0,0,0,0,0,0,0,0,0,0,0,0,0,0,0,0,0,0,0,0,0,0,0,0,0,0],"sum_hessian":[5.1E1,3E0,4.8E1,2E0,1E0,3E0,4.5E1,1E0,1E0,2E0,1E0,4E0,4.1E1,1E0,1E0,3E0,1E0,6E0,3.5E1,2E0,1E0,2E0,4E0,2E0,3.3E1,3E0,1E0,2.8E1,5E0,1.5E1,1.3E1,2E0,3E0,9E0,6E0,4E0,9E0,3E0,6E0,5E0,1E0],"tree_param":{"num_deleted":"0","num_feature":"70","num_nodes":"41","size_leaf_vector":"0"}},{"base_weights":[1.0481193E-2,4.382181E-2,7.5456076E-3,1.0970433E-2,7.118797E-2,2.8584957E-2,5.5520637E-3,1.3435364E-2,3.0202866E-3,6.170273E-3,4.7914505E-2,1.715889E-2,4.0381067E-3,1.37043E-3,7.884979E-3,4.225254E-3,3.4446716E-2,8.435113E-3,3.0709638E-3,9.682973E-4,6.998062E-3,1.6076406E-2,2.1633147E-3,1.0342916E-2,2.3389985E-3,3.698349E-3,8.54969E-4,1.6341703E-3,5.355835E-3,2.3123622E-3,7.4236735E-4,7.6052346E-3,2.3298264E-3,1.6492435E-3,4.636129E-3,8.69592E-4,-1.3987224E-5,4.4584274E-4,1.9369125E-3,2.0668984E-3,3.1852722E-4],"categories":[],"categories_nodes":[],"categories_segments":[],"categories_sizes":[],"default_left":[true,true,true,true,false,true,true,false,false,true,false,true,true,false,false,true,false,true,true,false,false,false,true,false,true,false,false,true,true,true,true,false,false,true,false,false,false,false,true,false,false],"id":30,"left_children":[1,3,5,7,-1,9,11,-1,-1,13,-1,15,17,-1,-1,19,-1,21,23,-1,-1,-1,25,-1,27,-1,-1,29,31,33,35,-1,-1,37,-1,-1,-1,-1,39,-1,-1],"loss_changes":[4.758797E-3,2.8151018E-3,1.8964948E-3,1.8211023E-5,0E0,1.4374175E-3,7.3903345E-4,0E0,0E0,1.38851465E-5,0E0,9.724259E-4,1.527025E-4,0E0,0E0,2.9347459E-5,0E0,3.006942E-4,1.6742933E-4,0E0,0E0,0E0,6.8798035E-6,0E0,6.35436E-5,0E0,0E0,1.5822967E-5,2.3121334E-5,1.7008824E-5,1.3593399E-6,0E0,0E0,3.9829793E-6,0E0,7.597009E-7,1.0319734E-9,2.0182142E-7,1.6556733E-6,0E0,0E0],"parents":[2147483647,0,0,1,1,2,2,3,3,5,5,6,6,9,9,11,11,12,12,15,15,17,17,18,18,22,22,24,24,27,27,28,28,29,29,30,30,33,33,38,38],"right_children":[2,4,6,8,-1,10,12,-1,-1,14,-1,16,18,-1,-1,20,-1,22,24,-1,-1,-1,26,-1,28,-1,-1,30,32,34,36,-1,-1,38,-1,-1,-1,-1,40,-1,-1],"split_conditions":[9.5114E1,1.15E1,9.555E-1,9.5E0,2.1356393E-2,4E0,2.327915E2,4.0306095E-3,9.06086E-4,2.326745E2,1.4374352E-2,6E0,4.19485E1,4.11129E-4,2.365494E-3,4E0,1.0334015E-2,9.7735504E1,9.64E-1,2.904892E-4,2.0994188E-3,4.822922E-3,2.325475E2,3.1028748E-3,9.9059006E1,1.1095047E-3,2.5649072E-4,9.7636505E1,9.61595E1,9.9138504E1,3.7300825E6,2.2815706E-3,6.9894793E-4,4.2432E1,1.3908388E-3,2.6087763E-4,-4.196167E-6,1.3375282E-4,1.8583491E0,6.2006956E-4,9.555817E-5],"split_indices":[59,30,28,0,0,0,62,0,0,2,0,10,7,0,0,0,0,29,68,0,0,0,2,0,69,0,0,69,29,49,23,0,0,17,0,0,0,0,61,0,0],"split_type":[0,0,0,0,0,0,0,0,0,0,0,0,0,0,0,0,0,0,0,0,0,0,0,0,0,0,0,0,0,0,0,0,0,0,0,0,0,0,0,0,0],"sum_hessian":[5.1E1,3E0,4.8E1,2E0,1E0,3E0,4.5E1,1E0,1E0,2E0,1E0,4E0,4.1E1,1E0,1E0,3E0,1E0,6E0,3.5E1,2E0,1E0,2E0,4E0,2E0,3.3E1,1E0,3E0,2.8E1,5E0,1.5E1,1.3E1,2E0,3E0,1.3E1,2E0,1.1E1,2E0,3E0,1E1,9E0,1E0],"tree_param":{"num_deleted":"0","num_feature":"70","num_nodes":"41","size_leaf_vector":"0"}},{"base_weights":[8.701122E-3,3.724861E-2,6.1931415E-3,9.324391E-3,6.0510635E-2,2.4297237E-2,4.484239E-3,1.1419296E-2,2.5672913E-3,5.244573E-3,4.0727615E-2,1.4556503E-2,3.178392E-3,1.1644363E-3,6.702423E-3,3.5557747E-3,2.9279709E-2,1.051712E-2,2.7428837E-3,7.7501935E-4,5.9490204E-3,6.789344E-3,1.8552236E-3,1.2861888E-2,1.7879487E-3,1.3151487E-3,4.2463937E-3,3.1433105E-3,6.632805E-4,1.8777847E-3,5.380086E-4,6.084442E-3,1.8062592E-3,9.2782977E-4,2.8305054E-3,9.5062255E-4,2.779007E-4,1.039611E-3,-3.9100647E-5,3.7189485E-3,1.0123253E-3],"categories":[],"categories_nodes":[],"categories_segments":[],"categories_sizes":[],"default_left":[true,true,true,true,false,true,true,false,false,true,false,true,true,false,false,true,false,false,true,false,false,true,true,false,true,true,true,false,false,true,true,false,false,true,true,false,false,false,false,false,false],"id":31,"left_children":[1,3,5,7,-1,9,11,-1,-1,13,-1,15,17,-1,-1,19,-1,-1,21,-1,-1,23,25,-1,27,29,31,-1,-1,33,35,-1,-1,37,39,-1,-1,-1,-1,-1,-1],"loss_changes":[3.4923353E-3,2.0340704E-3,1.4070141E-3,1.314978E-5,0E0,1.0385711E-3,5.58764E-4,0E0,0E0,1.0040138E-5,0E0,7.0571795E-4,1.05388055E-4,0E0,0E0,2.2009517E-5,0E0,0E0,1.3467137E-4,0E0,0E0,1.8960197E-4,3.9614737E-5,0E0,5.5367636E-6,1.2107146E-5,1.5920436E-5,0E0,8.904897E-8,1.2759483E-5,1.2383589E-6,0E0,0E0,1.1214961E-6,9.158008E-6,2.2482436E-7,2.254369E-7,4.252106E-7,0E0,0E0,0E0],"parents":[2147483647,0,0,1,1,2,2,3,3,5,5,6,6,9,9,11,11,12,12,15,15,18,18,21,21,22,22,24,24,25,25,26,26,29,29,30,30,33,33,34,34],"right_children":[2,4,6,8,-1,10,12,-1,-1,14,-1,16,18,-1,-1,20,-1,-1,22,-1,-1,24,26,-1,28,30,32,-1,-1,34,36,-1,-1,38,40,-1,-1,-1,-1,-1,-1],"split_conditions":[9.5114E1,1.15E1,9.555E-1,9.5E0,1.815319E-2,4E0,2.327915E2,3.425789E-3,7.701874E-4,2.326745E2,1.2218285E-2,6E0,3.9044E1,3.4933092E-4,2.010727E-3,4E0,8.783913E-3,3.1551362E-3,4.19485E1,2.3250582E-4,1.7847061E-3,9.7735504E1,9.9059006E1,3.8585665E-3,2.325475E2,9.7636505E1,9.61595E1,9.429932E-4,1.9898415E-4,4.53845E1,4.23765E1,1.8253328E-3,5.4187776E-4,1.1803703E4,4.7358498E1,2.8518678E-4,8.337021E-5,3.1188328E-4,-1.1730194E-5,1.1156846E-3,3.036976E-4],"split_indices":[59,30,28,0,0,0,62,0,0,2,0,10,67,0,0,0,0,0,7,0,0,29,69,0,2,69,29,0,0,27,47,0,0,2,7,0,0,0,0,0,0],"split_type":[0,0,0,0,0,0,0,0,0,0,0,0,0,0,0,0,0,0,0,0,0,0,0,0,0,0,0,0,0,0,0,0,0,0,0,0,0,0,0,0,0],"sum_hessian":[5.1E1,3E0,4.8E1,2E0,1E0,3E0,4.5E1,1E0,1E0,2E0,1E0,4E0,4.1E1,1E0,1E0,3E0,1E0,1E0,4E1,2E0,1E0,6E0,3.4E1,2E0,4E0,2.9E1,5E0,1E0,3E0,1.6E1,1.3E1,2E0,3E0,9E0,7E0,4E0,9E0,8E0,1E0,4E0,3E0],"tree_param":{"num_deleted":"0","num_feature":"70","num_nodes":"41","size_leaf_vector":"0"}},{"base_weights":[7.250786E-3,3.1661034E-2,5.110137E-3,7.92567E-3,5.1433563E-2,2.0652771E-2,3.647514E-3,9.706497E-3,2.1820068E-3,4.4581094E-3,3.4618378E-2,1.234932E-2,2.5247391E-3,9.899139E-4,5.6972504E-3,2.9931068E-3,2.4887085E-2,8.939743E-3,2.1502331E-3,6.198883E-4,5.056381E-3,6.2294006E-3,1.54088E-3,3.2424927E-4,7.624626E-3,1.183033E-3,7.211685E-3,1.5024772E-3,3.2043457E-4,2.2907257E-3,1.024882E-3,1.083692E-3,3.528595E-3,1.8949509E-3,7.245382E-4,9.815216E-4,1.7547607E-4],"categories":[],"categories_nodes":[],"categories_segments":[],"categories_sizes":[],"default_left":[true,true,true,true,false,true,true,false,false,true,false,true,true,false,false,true,false,false,true,false,false,true,true,false,false,true,false,true,false,true,true,false,false,false,true,false,false],"id":32,"left_children":[1,3,5,7,-1,9,11,-1,-1,13,-1,15,17,-1,-1,19,-1,-1,21,-1,-1,23,25,-1,-1,27,-1,29,-1,31,33,-1,-1,-1,35,-1,-1],"loss_changes":[2.5554034E-3,1.4695874E-3,1.0385866E-3,9.505777E-6,0E0,7.503405E-4,4.1824894E-4,0E0,0E0,7.252962E-6,0E0,5.120403E-4,8.168066E-5,0E0,0E0,1.6452013E-5,0E0,0E0,9.231304E-5,0E0,0E0,3.8722806E-5,6.6551715E-5,0E0,0E0,9.43843E-6,0E0,7.440329E-6,4.716785E-7,9.62344E-6,3.3307915E-6,8.988004E-7,0E0,0E0,1.944264E-6,8.5124975E-7,1.06819414E-7],"parents":[2147483647,0,0,1,1,2,2,3,3,5,5,6,6,9,9,11,11,12,12,15,15,18,18,21,21,22,22,25,25,27,27,29,29,30,30,34,34],"right_children":[2,4,6,8,-1,10,12,-1,-1,14,-1,16,18,-1,-1,20,-1,-1,22,-1,-1,24,26,-1,-1,28,-1,30,-1,32,34,-1,-1,-1,36,-1,-1],"split_conditions":[9.5114E1,1.15E1,9.555E-1,9.5E0,1.54300695E-2,4E0,2.327915E2,2.9119493E-3,6.546021E-4,2.326745E2,1.0385513E-2,6E0,3.9044E1,2.969742E-4,1.7091752E-3,4E0,7.466126E-3,2.681923E-3,9.6650004E-1,1.859665E-4,1.5169145E-3,9.385E-1,6.1813004E1,9.727479E-5,2.2873878E-3,2.2719213E-1,2.1635056E-3,9.6873E1,9.6130374E-5,9.5882996E1,1.0325945E3,3.251076E-4,1.0585785E-3,5.684853E-4,6.7414274E-3,2.944565E-4,5.2642823E-5],"split_indices":[59,30,28,0,0,0,62,0,0,2,0,10,67,0,0,0,0,0,8,0,0,8,57,0,0,21,0,39,0,39,12,0,0,0,61,0,0],"split_type":[0,0,0,0,0,0,0,0,0,0,0,0,0,0,0,0,0,0,0,0,0,0,0,0,0,0,0,0,0,0,0,0,0,0,0,0,0],"sum_hessian":[5.1E1,3E0,4.8E1,2E0,1E0,3E0,4.5E1,1E0,1E0,2E0,1E0,4E0,4.1E1,1E0,1E0,3E0,1E0,1E0,4E1,2E0,1E0,4E0,3.6E1,1E0,3E0,3.5E1,1E0,2.5E1,1E1,8E0,1.7E1,5E0,3E0,3E0,1.4E1,9E0,5E0],"tree_param":{"num_deleted":"0","num_feature":"70","num_nodes":"37","size_leaf_vector":"0"}},{"base_weights":[6.040738E-3,2.6912212E-2,4.213664E-3,6.737391E-3,4.3718338E-2,1.7555237E-2,2.961926E-3,8.25119E-3,1.8548965E-3,3.7892659E-3,2.9426575E-2,1.0477829E-2,1.9966534E-3,8.4114075E-4,4.842758E-3,2.5200844E-3,2.1154404E-2,7.598877E-3,1.6746754E-3,4.9527484E-4,4.2972565E-3,4.440035E-3,1.0737556E-3,8.804321E-3,9.334564E-4,7.3874794E-4,2.5698345E-3,1.3453165E-3,2.1044414E-4,1.1114794E-3,2.3337772E-4,3.3864975E-3,6.243388E-4,7.749557E-4,2.4236043E-3,9.059906E-4,1.1194669E-4,1.2029012E-3,4.406929E-4],"categories":[],"categories_nodes":[],"categories_segments":[],"categories_sizes":[],"default_left":[true,true,true,true,false,true,true,false,false,true,false,true,true,false,false,true,false,false,true,false,false,true,true,false,true,true,true,false,false,true,true,false,false,true,false,false,false,false,false],"id":33,"left_children":[1,3,5,7,-1,9,11,-1,-1,13,-1,15,17,-1,-1,19,-1,-1,21,-1,-1,23,25,-1,27,29,31,-1,-1,33,35,-1,-1,37,-1,-1,-1,-1,-1],"loss_changes":[1.8695551E-3,1.0616949E-3,7.663104E-4,6.868242E-6,0E0,5.421769E-4,3.128045E-4,0E0,0E0,5.244041E-6,0E0,3.7149637E-4,6.303364E-5,0E0,0E0,1.2265416E-5,0E0,0E0,6.336462E-5,0E0,0E0,9.8907534E-5,1.5643465E-5,0E0,1.2057862E-6,5.3916265E-6,7.4185627E-6,0E0,2.1377375E-8,5.6283534E-6,1.0420424E-6,0E0,0E0,1.6155846E-6,0E0,0E0,3.3761904E-7,0E0,4.1285693E-7],"parents":[2147483647,0,0,1,1,2,2,3,3,5,5,6,6,9,9,11,11,12,12,15,15,18,18,21,21,22,22,24,24,25,25,26,26,29,29,30,30,33,33],"right_children":[2,4,6,8,-1,10,12,-1,-1,14,-1,16,18,-1,-1,20,-1,-1,22,-1,-1,24,26,-1,28,30,32,-1,-1,34,36,-1,-1,38,-1,-1,-1,-1,-1],"split_conditions":[9.5114E1,1.15E1,9.555E-1,9.5E0,1.3115502E-2,4E0,2.327915E2,2.4753571E-3,5.5646896E-4,2.326745E2,8.827973E-3,6E0,3.9044E1,2.5234223E-4,1.4528275E-3,4E0,6.346321E-3,2.2796632E-3,4.19485E1,1.4858246E-4,1.289177E-3,9.7735504E1,9.9059006E1,2.6412965E-3,2.363995E2,9.7636505E1,4.4045E1,4.0359498E-4,6.3133244E-5,9.9138504E1,4.0197998E1,1.0159493E-3,1.8730164E-4,9.64115E1,7.270813E-4,2.7179718E-4,3.358401E-5,3.6087038E-4,1.3220788E-4],"split_indices":[59,30,28,0,0,0,62,0,0,2,0,10,67,0,0,0,0,0,7,0,0,29,69,0,2,69,17,0,0,49,37,0,0,59,0,0,0,0,0],"split_type":[0,0,0,0,0,0,0,0,0,0,0,0,0,0,0,0,0,0,0,0,0,0,0,0,0,0,0,0,0,0,0,0,0,0,0,0,0,0,0],"sum_hessian":[5.1E1,3E0,4.8E1,2E0,1E0,3E0,4.5E1,1E0,1E0,2E0,1E0,4E0,4.1E1,1E0,1E0,3E0,1E0,1E0,4E1,2E0,1E0,6E0,3.4E1,2E0,4E0,2.9E1,5E0,2E0,2E0,1.6E1,1.3E1,3E0,2E0,1.4E1,2E0,1E0,1.2E1,5E0,9E0],"tree_param":{"num_deleted":"0","num_feature":"70","num_nodes":"39","size_leaf_vector":"0"}},{"base_weights":[5.047101E-3,2.2875309E-2,3.4887353E-3,5.726496E-3,3.7160873E-2,1.4922142E-2,2.4186838E-3,7.013321E-3,1.5764236E-3,3.220876E-3,2.501297E-2,8.890915E-3,1.5905926E-3,7.1525574E-4,4.1160583E-3,2.1233559E-3,1.7980576E-2,6.4582825E-3,1.3143492E-3,3.9609274E-4,3.6525726E-3,3.5588401E-3,8.278983E-4,1.0275841E-3,5.200386E-3,5.6928745E-4,4.8103333E-3,8.90202E-4,1.9600813E-4,-1.5513103E-4,1.0305643E-3,1.2168884E-3,1.6736984E-4,1.5076532E-3,4.5013428E-4],"categories":[],"categories_nodes":[],"categories_segments":[],"categories_sizes":[],"default_left":[true,true,true,true,false,true,true,false,false,true,false,true,true,false,false,true,false,false,true,false,false,true,true,false,false,true,false,true,false,false,true,true,false,false,false],"id":34,"left_children":[1,3,5,7,-1,9,11,-1,-1,13,-1,15,17,-1,-1,19,-1,-1,21,-1,-1,23,25,-1,-1,27,-1,29,-1,-1,31,33,-1,-1,-1],"loss_changes":[1.3649035E-3,7.6712016E-4,5.633903E-4,4.965281E-6,0E0,3.9173814E-4,2.3239973E-4,0E0,0E0,3.7849277E-6,0E0,2.693949E-4,4.7987545E-5,0E0,0E0,9.118683E-6,0E0,0E0,4.1818865E-5,0E0,0E0,2.3742374E-5,3.3308068E-5,2.61251E-7,0E0,3.8984E-6,0E0,2.800929E-6,4.4792546E-7,0E0,2.369672E-6,2.21964E-6,1.2889205E-7,4.5569323E-7,4.87762E-9],"parents":[2147483647,0,0,1,1,2,2,3,3,5,5,6,6,9,9,11,11,12,12,15,15,18,18,21,21,22,22,25,25,27,27,30,30,31,31],"right_children":[2,4,6,8,-1,10,12,-1,-1,14,-1,16,18,-1,-1,20,-1,-1,22,-1,-1,24,26,-1,-1,28,-1,30,-1,-1,32,34,-1,-1,-1],"split_conditions":[9.5114E1,1.15E1,9.555E-1,9.5E0,1.1148263E-2,4E0,2.327915E2,2.1039965E-3,4.7292712E-4,2.326745E2,7.5038914E-3,6E0,3.9044E1,2.1457674E-4,1.2348176E-3,4E0,5.394173E-3,1.9374848E-3,9.63675E1,1.18827826E-4,1.0957718E-3,9.6382996E1,9.9978E1,3.0827522E-4,1.5601158E-3,4.3767E1,1.4431E-3,9.76145E1,5.880244E-5,-4.653931E-5,9.334685E-2,4.5152E1,5.0210954E-5,4.5229596E-4,1.3504029E-4],"split_indices":[59,30,28,0,0,0,62,0,0,2,0,10,67,0,0,0,0,0,19,0,0,9,59,0,0,57,0,9,0,0,11,67,0,0,0],"split_type":[0,0,0,0,0,0,0,0,0,0,0,0,0,0,0,0,0,0,0,0,0,0,0,0,0,0,0,0,0,0,0,0,0,0,0],"sum_hessian":[5.1E1,3E0,4.8E1,2E0,1E0,3E0,4.5E1,1E0,1E0,2E0,1E0,4E0,4.1E1,1E0,1E0,3E0,1E0,1E0,4E1,2E0,1E0,6E0,3.4E1,3E0,3E0,3.3E1,1E0,1.7E1,1.6E1,2E0,1.5E1,1.2E1,3E0,8E0,4E0],"tree_param":{"num_deleted":"0","num_feature":"70","num_nodes":"35","size_leaf_vector":"0"}},{"base_weights":[4.20972E-3,1.9443989E-2,2.8801938E-3,4.866918E-3,3.15876E-2,1.2683868E-2,1.9650874E-3,5.9604645E-3,1.3399124E-3,2.7376811E-3,2.1261215E-2,7.5458526E-3,1.2539228E-3,6.0749054E-4,3.499031E-3,1.7905235E-3,1.5283585E-2,5.4893494E-3,1.0167331E-3,3.1725565E-4,3.1051636E-3,3.0553E-3,5.7997025E-4,6.043752E-3,6.511688E-4,3.801469E-4,1.7028808E-3,-1.7038982E-4,4.925728E-4,2.4019878E-3,4.3614706E-4,6.817579E-4,1.7261505E-4,5.014964E-4,1.2957255E-3],"categories":[],"categories_nodes":[],"categories_segments":[],"categories_sizes":[],"default_left":[true,true,true,true,false,true,true,false,false,true,false,true,true,false,false,true,false,false,true,false,false,true,true,false,false,true,true,false,true,false,false,true,false,false,false],"id":35,"left_children":[1,3,5,7,-1,9,11,-1,-1,13,-1,15,17,-1,-1,19,-1,-1,21,-1,-1,23,25,-1,-1,27,29,-1,31,-1,-1,33,-1,-1,-1],"loss_changes":[9.972244E-4,5.543388E-4,4.1467394E-4,3.5843332E-6,0E0,2.8304115E-4,1.7310487E-4,0E0,0E0,2.7398328E-6,0E0,1.9530035E-4,3.661197E-5,0E0,0E0,6.7621377E-6,0E0,0E0,3.4733202E-5,0E0,0E0,4.6356916E-5,7.2060857E-6,0E0,8.3157806E-7,2.0026614E-6,3.3802926E-6,0E0,1.4561306E-6,0E0,0E0,1.120994E-6,9.668287E-7,7.6044444E-8,0E0],"parents":[2147483647,0,0,1,1,2,2,3,3,5,5,6,6,9,9,11,11,12,12,15,15,18,18,21,21,22,22,25,25,26,26,28,28,31,31],"right_children":[2,4,6,8,-1,10,12,-1,-1,14,-1,16,18,-1,-1,20,-1,-1,22,-1,-1,24,26,-1,-1,28,30,-1,32,-1,-1,34,-1,-1,-1],"split_conditions":[9.5114E1,1.15E1,9.555E-1,9.5E0,9.476281E-3,4E0,2.327915E2,1.7881395E-3,4.0197375E-4,2.326745E2,6.3783647E-3,6E0,3.9044E1,1.8224717E-4,1.0497094E-3,4E0,4.5850757E-3,1.6468049E-3,4.19485E1,9.51767E-5,9.315491E-4,9.7735504E1,9.90965E1,1.8131257E-3,1.9535066E-4,4.2475998E1,4.4045E1,-5.1116946E-5,6.7414274E-3,7.2059635E-4,1.3084413E-4,6.2611395E6,5.178452E-5,1.5044893E-4,3.8871766E-4],"split_indices":[59,30,28,0,0,0,62,0,0,2,0,10,67,0,0,0,0,0,7,0,0,29,69,0,0,27,17,0,61,0,0,33,0,0,0],"split_type":[0,0,0,0,0,0,0,0,0,0,0,0,0,0,0,0,0,0,0,0,0,0,0,0,0,0,0,0,0,0,0,0,0,0,0],"sum_hessian":[5.1E1,3E0,4.8E1,2E0,1E0,3E0,4.5E1,1E0,1E0,2E0,1E0,4E0,4.1E1,1E0,1E0,3E0,1E0,1E0,4E1,2E0,1E0,6E0,3.4E1,2E0,4E0,3E1,4E0,5E0,2.5E1,2E0,2E0,1.5E1,1E1,1.3E1,2E0],"tree_param":{"num_deleted":"0","num_feature":"70","num_nodes":"35","size_leaf_vector":"0"}},{"base_weights":[3.522818E-3,1.6527176E-2,2.3893435E-3,4.1364036E-3,2.6849747E-2,1.0781288E-2,1.6076668E-3,5.065918E-3,1.1386871E-3,2.3269653E-3,1.8072128E-2,6.4044953E-3,9.983381E-4,5.159378E-4,2.9745102E-3,1.5101433E-3,1.2990952E-2,4.6653748E-3,7.951085E-4,2.5367737E-4,2.6397705E-3,2.4264199E-3,4.4612883E-4,4.8357644E-3,4.9552915E-4,2.8391808E-4,1.3626099E-3,1.0738373E-3,8.249283E-5,1.09529494E-4,5.509059E-4,1.9213358E-3,3.4968057E-4],"categories":[],"categories_nodes":[],"categories_segments":[],"categories_sizes":[],"default_left":[true,true,true,true,false,true,true,false,false,true,false,true,true,false,false,true,false,false,true,false,false,true,true,false,true,true,true,false,false,false,false,false,false],"id":36,"left_children":[1,3,5,7,-1,9,11,-1,-1,13,-1,15,17,-1,-1,19,-1,-1,21,-1,-1,23,25,-1,27,29,31,-1,-1,-1,-1,-1,-1],"loss_changes":[7.269965E-4,4.0055718E-4,3.040968E-4,2.5907684E-6,0E0,2.0450325E-4,1.2805703E-4,0E0,0E0,1.9835024E-6,0E0,1.4156397E-4,2.7591028E-5,0E0,0E0,5.0077024E-6,0E0,0E0,2.2258579E-5,0E0,0E0,3.0169009E-5,4.816339E-6,0E0,1.1057275E-6,1.3830077E-6,2.1578953E-6,0E0,1.0654762E-7,7.5275585E-7,9.2364303E-7,0E0,0E0],"parents":[2147483647,0,0,1,1,2,2,3,3,5,5,6,6,9,9,11,11,12,12,15,15,18,18,21,21,22,22,24,24,25,25,26,26],"right_children":[2,4,6,8,-1,10,12,-1,-1,14,-1,16,18,-1,-1,20,-1,-1,22,-1,-1,24,26,-1,28,30,32,-1,-1,-1,-1,-1,-1],"split_conditions":[9.5114E1,1.15E1,9.555E-1,9.5E0,8.054924E-3,4E0,2.327915E2,1.5197755E-3,3.4160615E-4,2.326745E2,5.4216385E-3,6E0,3.9044E1,1.5478134E-4,8.9235307E-4,4E0,3.8972856E-3,1.3996125E-3,4.19485E1,7.610321E-5,7.919312E-4,9.7735504E1,9.90965E1,1.4507293E-3,2.325475E2,9.855E-1,4.4045E1,3.221512E-4,2.474785E-5,3.285885E-5,1.6527178E-4,5.764008E-4,1.04904175E-4],"split_indices":[59,30,28,0,0,0,62,0,0,2,0,10,67,0,0,0,0,0,7,0,0,29,69,0,2,48,17,0,0,0,0,0,0],"split_type":[0,0,0,0,0,0,0,0,0,0,0,0,0,0,0,0,0,0,0,0,0,0,0,0,0,0,0,0,0,0,0,0,0],"sum_hessian":[5.1E1,3E0,4.8E1,2E0,1E0,3E0,4.5E1,1E0,1E0,2E0,1E0,4E0,4.1E1,1E0,1E0,3E0,1E0,1E0,4E1,2E0,1E0,6E0,3.4E1,2E0,4E0,3E1,4E0,1E0,3E0,1.9E1,1.1E1,2E0,2E0],"tree_param":{"num_deleted":"0","num_feature":"70","num_nodes":"33","size_leaf_vector":"0"}},{"base_weights":[2.9512735E-3,1.40480995E-2,1.9851802E-3,3.516515E-3,2.2821426E-2,9.164333E-3,1.3177498E-3,4.306793E-3,9.6797943E-4,1.9779205E-3,1.5361786E-2,5.435562E-3,7.961591E-4,4.386902E-4,2.5281906E-3,1.273632E-3,1.1041641E-2,3.965378E-3,6.2214455E-4,2.0281474E-4,2.243042E-3,2.8394063E-3,4.3563353E-4,3.1769904E-4,2.4585724E-3,8.0066256E-4,1.6222E-4,1.3794899E-3,2.8133392E-4,-6.8151036E-5,3.1958686E-4,6.430149E-4,5.531311E-5],"categories":[],"categories_nodes":[],"categories_segments":[],"categories_sizes":[],"default_left":[true,true,true,true,false,true,true,false,false,true,false,true,true,false,false,true,false,false,true,false,false,false,true,true,false,true,true,false,false,false,true,false,false],"id":37,"left_children":[1,3,5,7,-1,9,11,-1,-1,13,-1,15,17,-1,-1,19,-1,-1,21,-1,-1,-1,23,25,-1,27,29,-1,-1,-1,31,-1,-1],"loss_changes":[5.295817E-4,2.8933625E-4,2.2271133E-4,1.873268E-6,0E0,1.4776542E-4,9.447181E-5,0E0,0E0,1.4318848E-6,0E0,1.0259755E-4,2.069555E-5,0E0,0E0,3.6973215E-6,0E0,0E0,1.5718355E-5,0E0,0E0,0E0,8.523311E-6,2.7235637E-6,0E0,2.317317E-6,1.1093632E-6,0E0,8.2354745E-8,1.4356254E-7,1.5029566E-6,8.318125E-7,4.111417E-7],"parents":[2147483647,0,0,1,1,2,2,3,3,5,5,6,6,9,9,11,11,12,12,15,15,18,18,22,22,23,23,25,25,26,26,30,30],"right_children":[2,4,6,8,-1,10,12,-1,-1,14,-1,16,18,-1,-1,20,-1,-1,22,-1,-1,-1,24,26,-1,28,30,-1,-1,-1,32,-1,-1],"split_conditions":[9.5114E1,1.15E1,9.555E-1,9.5E0,6.8464284E-3,4E0,2.327915E2,1.292038E-3,2.9039383E-4,2.326745E2,4.608536E-3,6E0,3.9044E1,1.3160706E-4,7.5845723E-4,4E0,3.3124925E-3,1.1896134E-3,9.57485E1,6.0844424E-5,6.7291263E-4,8.518219E-4,9.9978E1,4.26975E1,7.3757174E-4,7.5E0,9.815E-1,4.1384698E-4,8.440018E-5,-2.0445312E-5,9.7588E1,1.9290448E-4,1.6593935E-5],"split_indices":[59,30,28,0,0,0,62,0,0,2,0,10,67,0,0,0,0,0,19,0,0,0,59,37,0,60,28,0,0,0,69,0,0],"split_type":[0,0,0,0,0,0,0,0,0,0,0,0,0,0,0,0,0,0,0,0,0,0,0,0,0,0,0,0,0,0,0,0,0],"sum_hessian":[5.1E1,3E0,4.8E1,2E0,1E0,3E0,4.5E1,1E0,1E0,2E0,1E0,4E0,4.1E1,1E0,1E0,3E0,1E0,1E0,4E1,2E0,1E0,2E0,3.8E1,3.7E1,1E0,8E0,2.9E1,3E0,5E0,1.2E1,1.7E1,7E0,1E1],"tree_param":{"num_deleted":"0","num_feature":"70","num_nodes":"33","size_leaf_vector":"0"}},{"base_weights":[2.4783427E-3,1.1940479E-2,1.6553451E-3,2.9888153E-3,1.9397736E-2,7.789612E-3,1.0859448E-3,3.660202E-3,8.2302094E-4,1.6810099E-3,1.3057709E-2,4.614639E-3,6.4000627E-4,3.7288666E-4,2.1486282E-3,1.0752678E-3,9.386063E-3,3.370285E-3,4.9121206E-4,1.6212463E-4,1.9073486E-3,1.6111647E-3,2.531869E-4,3.3404033E-3,2.5138856E-4,1.3966714E-4,9.063721E-4],"categories":[],"categories_nodes":[],"categories_segments":[],"categories_sizes":[],"default_left":[true,true,true,true,false,true,true,false,false,true,false,true,true,false,false,true,false,false,true,false,false,true,true,false,false,false,false],"id":38,"left_children":[1,3,5,7,-1,9,11,-1,-1,13,-1,15,17,-1,-1,19,-1,-1,21,-1,-1,23,25,-1,-1,-1,-1],"loss_changes":[3.8517488E-4,2.090431E-4,1.626907E-4,1.3498338E-6,0E0,1.067727E-4,6.943132E-5,0E0,0E0,1.0339127E-6,0E0,7.434666E-5,1.5406966E-5,0E0,0E0,2.7300075E-6,0E0,0E0,1.0521727E-5,0E0,0E0,1.56199E-5,2.4686399E-6,0E0,2.7146706E-7,8.838928E-7,8.5986085E-7],"parents":[2147483647,0,0,1,1,2,2,3,3,5,5,6,6,9,9,11,11,12,12,15,15,18,18,21,21,22,22],"right_children":[2,4,6,8,-1,10,12,-1,-1,14,-1,16,18,-1,-1,20,-1,-1,22,-1,-1,24,26,-1,-1,-1,-1],"split_conditions":[9.5114E1,1.15E1,9.555E-1,9.5E0,5.8193207E-3,4E0,2.327915E2,1.0980606E-3,2.469063E-4,2.326745E2,3.9173127E-3,6E0,3.9044E1,1.11866E-4,6.445885E-4,4E0,2.8158189E-3,1.0110856E-3,4.19485E1,4.8637394E-5,5.722046E-4,9.7735504E1,9.90965E1,1.002121E-3,7.541657E-5,4.1900144E-5,2.7191165E-4],"split_indices":[59,30,28,0,0,0,62,0,0,2,0,10,67,0,0,0,0,0,7,0,0,29,69,0,0,0,0],"split_type":[0,0,0,0,0,0,0,0,0,0,0,0,0,0,0,0,0,0,0,0,0,0,0,0,0,0,0],"sum_hessian":[5.1E1,3E0,4.8E1,2E0,1E0,3E0,4.5E1,1E0,1E0,2E0,1E0,4E0,4.1E1,1E0,1E0,3E0,1E0,1E0,4E1,2E0,1E0,6E0,3.4E1,2E0,4E0,3E1,4E0],"tree_param":{"num_deleted":"0","num_feature":"70","num_nodes":"27","size_leaf_vector":"0"}},{"base_weights":[2.0746451E-3,1.0149002E-2,1.3731743E-3,2.5405884E-3,1.6487122E-2,6.620884E-3,8.8700006E-4,1.4286041E-3,1.1098862E-2,3.9173127E-3,5.051295E-4,9.074211E-4,7.978439E-3,2.8648376E-3,3.7770154E-4,1.2906392E-4,1.6212463E-3,1.3662066E-3,1.6920907E-4,3.3187866E-4,2.0589828E-3,8.0725724E-5,1.5888214E-3,2.4339888E-4,-9.626501E-5],"categories":[],"categories_nodes":[],"categories_segments":[],"categories_sizes":[],"default_left":[true,true,true,false,false,true,true,false,false,true,true,true,false,false,true,false,false,true,true,false,false,true,false,false,false],"id":39,"left_children":[1,3,5,-1,-1,7,9,-1,-1,11,13,15,-1,-1,17,-1,-1,19,21,-1,-1,23,-1,-1,-1],"loss_changes":[2.8058782E-4,1.5100517E-4,1.1914104E-4,9.714422E-7,0E0,7.714775E-5,5.125186E-5,7.4841046E-7,0E0,5.3877942E-5,1.1547042E-5,2.0131997E-6,0E0,0E0,8.218755E-6,0E0,0E0,4.3325726E-6,4.2681627E-6,8.27452E-8,0E0,1.0023466E-6,0E0,8.136535E-7,3.035328E-7],"parents":[2147483647,0,0,1,1,2,2,5,5,6,6,9,9,10,10,11,11,14,14,17,17,18,18,21,21],"right_children":[2,4,6,-1,-1,8,10,-1,-1,12,14,16,-1,-1,18,-1,-1,20,22,-1,-1,24,-1,-1,-1],"split_conditions":[9.5114E1,1.15E1,9.555E-1,7.621765E-4,4.946137E-3,4E0,2.327915E2,4.2858126E-4,3.3296586E-3,6E0,3.9044E1,4E0,2.3935318E-3,8.594513E-4,9.63675E1,3.8719176E-5,4.8637393E-4,9.6382996E1,9.9978E1,9.95636E-5,6.1769487E-4,4.3767E1,4.7664644E-4,7.301967E-5,-2.8879504E-5],"split_indices":[59,30,28,0,0,0,62,0,0,10,67,0,0,0,19,0,0,9,59,0,0,57,0,0,0],"split_type":[0,0,0,0,0,0,0,0,0,0,0,0,0,0,0,0,0,0,0,0,0,0,0,0,0],"sum_hessian":[5.1E1,3E0,4.8E1,2E0,1E0,3E0,4.5E1,2E0,1E0,4E0,4.1E1,3E0,1E0,1E0,4E1,2E0,1E0,6E0,3.4E1,3E0,3E0,3.3E1,1E0,1.7E1,1.6E1],"tree_param":{"num_deleted":"0","num_feature":"70","num_nodes":"25","size_leaf_vector":"0"}},{"base_weights":[1.7310656E-3,8.530617E-3,1.1406724E-3,2.0319622E-3,1.401329E-2,5.5737495E-3,7.3039014E-4,2.729416E-3,3.1852722E-4,1.1425018E-3,9.433746E-3,3.3260346E-3,4.039946E-4,1.0204315E-4,1.6117096E-3,7.662773E-4,6.7825317E-3,2.4356842E-3,2.9503426E-4,1.0363261E-4,1.3771057E-3,1.6733805E-3,1.8144265E-4,1.1514362E-4,1.3504028E-3,2.262409E-4,-1.1590811E-4],"categories":[],"categories_nodes":[],"categories_segments":[],"categories_sizes":[],"default_left":[true,true,true,true,false,true,true,false,false,true,false,true,true,false,false,true,false,false,true,false,false,false,true,true,false,false,false],"id":40,"left_children":[1,3,5,7,-1,9,11,-1,-1,13,-1,15,17,-1,-1,19,-1,-1,21,-1,-1,-1,23,25,-1,-1,-1],"loss_changes":[1.9901866E-4,1.1404554E-4,8.505081E-5,2.715732E-6,0E0,5.764034E-5,3.762781E-5,0E0,0E0,1.30011E-6,0E0,3.9041668E-5,8.57908E-6,0E0,0E0,1.4763359E-6,0E0,0E0,6.1156893E-6,0E0,0E0,8.204761E-7,2.8670456E-6,1.0016533E-6,0E0,9.762877E-7,1.5969165E-7],"parents":[2147483647,0,0,1,1,2,2,3,3,5,5,6,6,9,9,11,11,12,12,15,15,18,18,22,22,23,23],"right_children":[2,4,6,8,-1,10,12,-1,-1,14,-1,16,18,-1,-1,20,-1,-1,22,-1,-1,-1,24,26,-1,-1,-1],"split_conditions":[9.5114E1,1.15E1,9.555E-1,9.5E0,4.2039873E-3,4E0,2.327915E2,8.188248E-4,9.555817E-5,2.326745E2,2.830124E-3,6E0,3.9044E1,3.0612948E-5,4.835129E-4,4E0,2.0347596E-3,7.307053E-4,9.57485E1,3.1089785E-5,4.1313173E-4,5.020142E-4,9.9978E1,8.76953E-2,4.0512087E-4,6.787227E-5,-3.4772434E-5],"split_indices":[59,30,28,0,0,0,62,0,0,2,0,10,67,0,0,0,0,0,19,0,0,0,59,21,0,0,0],"split_type":[0,0,0,0,0,0,0,0,0,0,0,0,0,0,0,0,0,0,0,0,0,0,0,0,0,0,0],"sum_hessian":[5.1E1,3E0,4.8E1,2E0,1E0,3E0,4.5E1,1E0,1E0,2E0,1E0,4E0,4.1E1,1E0,1E0,3E0,1E0,1E0,4E1,2E0,1E0,2E0,3.8E1,3.7E1,1E0,2.5E1,1.2E1],"tree_param":{"num_deleted":"0","num_feature":"70","num_nodes":"27","size_leaf_vector":"0"}},{"base_weights":[1.4537665E-3,7.250786E-3,9.508717E-4,1.7267863E-3,1.1911392E-2,4.737377E-3,6.009392E-4,2.319336E-3,2.708435E-4,9.7084045E-4,8.018494E-3,2.8247833E-3,3.2188778E-4,6.480217E-4,5.765915E-3,2.0694733E-3,2.2878879E-4,8.328756E-5,1.1711121E-3,1.3376871E-3,1.3762254E-4,1.487732E-4,1.8577576E-3,8.081135E-5,1.1482239E-3],"categories":[],"categories_nodes":[],"categories_segments":[],"categories_sizes":[],"default_left":[true,true,true,true,false,true,true,false,false,false,false,true,true,true,false,false,true,false,false,true,true,false,false,false,false],"id":41,"left_children":[1,3,5,7,-1,9,11,-1,-1,-1,-1,13,15,17,-1,-1,19,-1,-1,21,23,-1,-1,-1,-1],"loss_changes":[1.4470055E-4,8.241233E-5,6.207916E-5,1.9599784E-6,0E0,4.164911E-5,2.7636812E-5,0E0,0E0,9.3840026E-7,0E0,2.8274273E-5,6.3598623E-6,1.0840888E-6,0E0,0E0,3.9607626E-6,0E0,0E0,1.5785722E-6,2.1463354E-6,0E0,0E0,8.43145E-7,0E0],"parents":[2147483647,0,0,1,1,2,2,3,3,5,5,6,6,11,11,12,12,13,13,16,16,19,19,20,20],"right_children":[2,4,6,8,-1,10,12,-1,-1,-1,-1,14,16,18,-1,-1,20,-1,-1,22,24,-1,-1,-1,-1],"split_conditions":[9.5114E1,1.15E1,9.555E-1,9.5E0,3.573418E-3,4E0,2.327915E2,6.958008E-4,8.1253056E-5,2.9125216E-4,2.4055482E-3,6E0,3.9044E1,4E0,1.7297745E-3,6.20842E-4,9.57485E1,2.498627E-5,3.5133364E-4,5E0,9.9978E1,4.463196E-5,5.573273E-4,2.4243405E-5,3.4446717E-4],"split_indices":[59,30,28,0,0,0,62,0,0,0,0,10,67,0,0,0,19,0,0,0,59,0,0,0,0],"split_type":[0,0,0,0,0,0,0,0,0,0,0,0,0,0,0,0,0,0,0,0,0,0,0,0,0],"sum_hessian":[5.1E1,3E0,4.8E1,2E0,1E0,3E0,4.5E1,1E0,1E0,2E0,1E0,4E0,4.1E1,3E0,1E0,1E0,4E1,2E0,1E0,2E0,3.8E1,1E0,1E0,3.7E1,1E0],"tree_param":{"num_deleted":"0","num_feature":"70","num_nodes":"25","size_leaf_vector":"0"}},{"base_weights":[1.2244994E-3,6.1631203E-3,7.96357E-4,1.4680227E-3,1.0124207E-2,3.9896965E-3,5.013632E-4,1.9721985E-3,2.2983551E-4,7.762909E-4,6.8149567E-3,2.3990632E-3,2.6350928E-4,-5.9127808E-5,1.2235641E-3,5.478859E-4,4.901886E-3,1.7585754E-3,1.8415219E-4,9.32312E-4,7.807242E-5,1.1444092E-4,1.4394125E-3,2.5987625E-5,9.765625E-4],"categories":[],"categories_nodes":[],"categories_segments":[],"categories_sizes":[],"default_left":[true,true,true,true,false,true,true,false,false,true,false,true,true,false,false,false,false,false,true,true,true,false,false,false,false],"id":42,"left_children":[1,3,5,7,-1,9,11,-1,-1,13,-1,15,17,-1,-1,-1,-1,-1,19,21,23,-1,-1,-1,-1],"loss_changes":[1.050425E-4,5.9528174E-5,4.4158467E-5,1.4195107E-6,0E0,3.1024436E-5,2.0131087E-5,0E0,0E0,1.193328E-6,0E0,2.0480169E-5,4.659208E-6,0E0,0E0,7.952358E-7,0E0,0E0,3.1811614E-6,1.9089862E-6,1.7061353E-6,0E0,0E0,7.1366156E-7,0E0],"parents":[2147483647,0,0,1,1,2,2,3,3,5,5,6,6,9,9,11,11,12,12,18,18,19,19,20,20],"right_children":[2,4,6,8,-1,10,12,-1,-1,14,-1,16,18,-1,-1,-1,-1,-1,20,22,24,-1,-1,-1,-1],"split_conditions":[9.5114E1,1.15E1,9.555E-1,9.5E0,3.037262E-3,4E0,2.327915E2,5.9165957E-4,6.8950656E-5,2.326745E2,2.044487E-3,6E0,3.9044E1,-1.7738343E-5,3.6706927E-4,1.6436577E-4,1.4705659E-3,5.2757264E-4,9.6650004E-1,3E0,6.1813004E1,3.4332275E-5,4.3182375E-4,7.796288E-6,2.9296876E-4],"split_indices":[59,30,28,0,0,0,62,0,0,2,0,10,67,0,0,0,0,0,8,0,57,0,0,0,0],"split_type":[0,0,0,0,0,0,0,0,0,0,0,0,0,0,0,0,0,0,0,0,0,0,0,0,0],"sum_hessian":[5.1E1,3E0,4.8E1,2E0,1E0,3E0,4.5E1,1E0,1E0,2E0,1E0,4E0,4.1E1,1E0,1E0,3E0,1E0,1E0,4E1,4E0,3.6E1,2E0,2E0,3.5E1,1E0],"tree_param":{"num_deleted":"0","num_feature":"70","num_nodes":"25","size_leaf_vector":"0"}},{"base_weights":[1.0307935E-3,5.23901E-3,6.662291E-4,1.2480417E-3,8.605957E-3,3.3912659E-3,4.1478613E-4,1.6765594E-3,1.9550323E-4,6.599426E-4,5.792618E-3,2.0061494E-3,2.1546228E-4,4.248619E-4,4.1656494E-3,1.4953613E-3,1.47773E-4,9.816488E-4,7.983966E-5,3.8272457E-5,8.2969666E-4],"categories":[],"categories_nodes":[],"categories_segments":[],"categories_sizes":[],"default_left":[true,true,true,true,false,true,true,false,false,false,false,true,true,false,false,false,true,false,true,false,false],"id":43,"left_children":[1,3,5,7,-1,9,11,-1,-1,-1,-1,13,15,-1,-1,-1,17,-1,19,-1,-1],"loss_changes":[7.6286255E-5,4.300892E-5,3.216772E-5,1.0253211E-6,0E0,2.2412678E-5,1.4158795E-5,0E0,0E0,8.6364525E-7,0E0,1.5304126E-5,3.4177144E-6,9.528161E-7,0E0,0E0,2.2441918E-6,8.523882E-7,1.1838542E-6,6.935014E-7,0E0],"parents":[2147483647,0,0,1,1,2,2,3,3,5,5,6,6,11,11,12,12,16,16,18,18],"right_children":[2,4,6,8,-1,10,12,-1,-1,-1,-1,14,16,-1,-1,-1,18,-1,20,-1,-1],"split_conditions":[9.5114E1,1.15E1,9.555E-1,9.5E0,2.5817873E-3,4E0,2.327915E2,5.0296786E-4,5.8650974E-5,1.979828E-4,1.7377854E-3,6E0,3.9044E1,1.2745858E-4,1.2496948E-3,4.4860842E-4,9.57485E1,2.9449465E-4,9.9978E1,1.1481738E-5,2.48909E-4],"split_indices":[59,30,28,0,0,0,62,0,0,0,0,10,67,0,0,0,19,0,59,0,0],"split_type":[0,0,0,0,0,0,0,0,0,0,0,0,0,0,0,0,0,0,0,0,0],"sum_hessian":[5.1E1,3E0,4.8E1,2E0,1E0,3E0,4.5E1,1E0,1E0,2E0,1E0,4E0,4.1E1,3E0,1E0,1E0,4E1,2E0,3.8E1,3.7E1,1E0],"tree_param":{"num_deleted":"0","num_feature":"70","num_nodes":"21","size_leaf_vector":"0"}},{"base_weights":[8.6496427E-4,4.4527054E-3,5.5443513E-4,1.0604858E-3,7.314682E-3,2.8572083E-3,3.4214102E-4,5.2769977E-4,4.922867E-3,1.6796112E-3,1.7477217E-4,-1.2779236E-4,2.9271443E-3,1.2702942E-3,1.17069336E-4,5.690711E-4,2.332415E-5,7.867813E-6,9.880066E-4],"categories":[],"categories_nodes":[],"categories_segments":[],"categories_sizes":[],"default_left":[true,true,true,false,false,true,true,false,false,true,true,false,false,false,true,true,false,false,false],"id":44,"left_children":[1,3,5,-1,-1,7,9,-1,-1,11,13,-1,-1,-1,15,17,-1,-1,-1],"loss_changes":[5.5464363E-5,3.10767E-5,2.2976823E-5,7.412309E-7,0E0,1.665008E-5,1.000359E-5,9.814382E-7,0E0,1.1648047E-5,2.506306E-6,0E0,8.0653444E-7,0E0,1.7240193E-6,1.6379822E-6,9.874537E-7,1.2917326E-8,0E0],"parents":[2147483647,0,0,1,1,2,2,5,5,6,6,9,9,10,10,14,14,15,15],"right_children":[2,4,6,-1,-1,8,10,-1,-1,12,14,-1,-1,-1,16,18,-1,-1,-1],"split_conditions":[9.5114E1,1.15E1,9.555E-1,3.1814576E-4,2.1944046E-3,4E0,2.327915E2,1.5830994E-4,1.4768601E-3,2.5E0,3.9044E1,-3.833771E-5,8.781433E-4,3.8108826E-4,9.63675E1,9.6382996E1,6.9972452E-6,2.360344E-6,2.96402E-4],"split_indices":[59,30,28,0,0,0,62,0,0,0,67,0,0,0,19,9,0,0,0],"split_type":[0,0,0,0,0,0,0,0,0,0,0,0,0,0,0,0,0,0,0],"sum_hessian":[5.1E1,3E0,4.8E1,2E0,1E0,3E0,4.5E1,2E0,1E0,4E0,4.1E1,2E0,2E0,1E0,4E1,6E0,3.4E1,3E0,3E0],"tree_param":{"num_deleted":"0","num_feature":"70","num_nodes":"19","size_leaf_vector":"0"}},{"base_weights":[7.1417366E-4,3.7455559E-3,4.5213895E-4,8.4877014E-4,6.2179565E-3,2.4089813E-3,2.7214963E-4,1.2664795E-3,6.67572E-6,4.2215982E-4,4.184723E-3,1.3439178E-3,1.3807842E-4,-2.2888184E-4,8.621216E-4,1.2922287E-4,3.1013489E-3,9.1552734E-4,7.631779E-5,2.9614393E-4,-8.2572304E-5,9.723663E-4,1.3278081E-5],"categories":[],"categories_nodes":[],"categories_segments":[],"categories_sizes":[],"default_left":[true,true,true,true,false,true,true,false,false,true,false,true,true,false,false,false,false,false,true,true,false,false,false],"id":45,"left_children":[1,3,5,7,-1,9,11,-1,-1,13,-1,15,17,-1,-1,-1,-1,-1,19,21,-1,-1,-1],"loss_changes":[3.9611514E-5,2.3370449E-5,1.660272E-5,1.0467975E-6,0E0,1.2345703E-5,6.424324E-6,0E0,0E0,1.0566243E-6,0E0,1.0272947E-5,1.9467898E-6,0E0,0E0,3.0410624E-7,0E0,0E0,1.421581E-6,3.2388527E-6,6.6806825E-7,8.664256E-7,3.0098045E-7],"parents":[2147483647,0,0,1,1,2,2,3,3,5,5,6,6,9,9,11,11,12,12,18,18,19,19],"right_children":[2,4,6,8,-1,10,12,-1,-1,14,-1,16,18,-1,-1,-1,-1,-1,20,22,-1,-1,-1],"split_conditions":[9.5114E1,1.15E1,9.555E-1,9.5E0,1.8653871E-3,4E0,2.327915E2,3.7994387E-4,2.0027162E-6,2.326745E2,1.2554169E-3,6E0,9.64E-1,-6.866455E-5,2.586365E-4,3.8766862E-5,9.304047E-4,2.746582E-4,9.75525E1,4.354E1,-2.4771693E-5,2.917099E-4,3.9834244E-6],"split_indices":[59,30,28,0,0,0,62,0,0,2,0,10,68,0,0,0,0,0,29,7,0,0,0],"split_type":[0,0,0,0,0,0,0,0,0,0,0,0,0,0,0,0,0,0,0,0,0,0,0],"sum_hessian":[5.1E1,3E0,4.8E1,2E0,1E0,3E0,4.5E1,1E0,1E0,2E0,1E0,4E0,4.1E1,1E0,1E0,3E0,1E0,2E0,3.9E1,1.6E1,2.3E1,4E0,1.2E1],"tree_param":{"num_deleted":"0","num_feature":"70","num_nodes":"23","size_leaf_vector":"0"}},{"base_weights":[5.998795E-4,3.1833649E-3,3.7674027E-4,7.209778E-4,5.285263E-3,2.0475388E-3,2.2326344E-4,3.5858154E-4,3.5572052E-3,1.1348724E-3,1.0942278E-4,1.0061264E-4,2.6359558E-3,9.422302E-4,6.612917E-5],"categories":[],"categories_nodes":[],"categories_segments":[],"categories_sizes":[],"default_left":[true,true,true,false,false,true,true,false,false,true,true,false,false,false,false],"id":46,"left_children":[1,3,5,-1,-1,7,9,-1,-1,11,13,-1,-1,-1,-1],"loss_changes":[2.8777495E-5,1.689219E-5,1.2107873E-5,7.550916E-7,0E0,8.9235E-6,4.6496157E-6,7.628405E-7,0E0,7.4973404E-6,1.4520109E-6,3.1726358E-7,0E0,0E0,9.094622E-7],"parents":[2147483647,0,0,1,1,2,2,5,5,6,6,9,9,10,10],"right_children":[2,4,6,-1,-1,8,10,-1,-1,12,14,-1,-1,-1,-1],"split_conditions":[9.5114E1,1.15E1,9.555E-1,2.1629334E-4,1.585579E-3,4E0,2.327915E2,1.07574466E-4,1.0671616E-3,6E0,3.9044E1,3.0183794E-5,7.9078675E-4,2.826691E-4,1.9838752E-5],"split_indices":[59,30,28,0,0,0,62,0,0,10,67,0,0,0,0],"split_type":[0,0,0,0,0,0,0,0,0,0,0,0,0,0,0],"sum_hessian":[5.1E1,3E0,4.8E1,2E0,1E0,3E0,4.5E1,2E0,1E0,4E0,4.1E1,3E0,1E0,1E0,4E1],"tree_param":{"num_deleted":"0","num_feature":"70","num_nodes":"15","size_leaf_vector":"0"}},{"base_weights":[4.9932185E-4,2.6783943E-3,3.1124815E-4,5.766551E-4,4.491806E-3,1.7271042E-3,1.8136398E-4,2.8737387E-4,3.0231476E-3,9.5863343E-4,8.451371E-5,7.772446E-5,2.2411346E-3,1.8556656E-4,-1.835823E-4,7.6734104E-5,6.2624615E-4,8.010864E-4,1.5716552E-5],"categories":[],"categories_nodes":[],"categories_segments":[],"categories_sizes":[],"default_left":[true,true,true,false,false,true,true,false,false,true,true,false,false,true,false,true,false,false,false],"id":47,"left_children":[1,3,5,-1,-1,7,9,-1,-1,11,13,-1,-1,15,-1,17,-1,-1,-1],"loss_changes":[2.047732E-5,1.2655051E-5,8.6977325E-6,8.9351E-7,0E0,6.595039E-6,3.3818046E-6,7.973382E-7,0E0,5.4746433E-6,1.1719252E-6,3.2691636E-7,0E0,1.4387131E-6,1.2091431E-7,1.136563E-6,6.675168E-7,0E0,5.687036E-7],"parents":[2147483647,0,0,1,1,2,2,5,5,6,6,9,9,10,10,13,13,15,15],"right_children":[2,4,6,-1,-1,8,10,-1,-1,12,14,-1,-1,16,-1,18,-1,-1,-1],"split_conditions":[9.5114E1,1.15E1,9.555E-1,1.7299653E-4,1.3475418E-3,4E0,2.327915E2,8.621217E-5,9.0694433E-4,6E0,1.3842277E-2,2.3317338E-5,6.723404E-4,7.968157E3,-5.5074695E-5,3.9044E1,1.8787385E-4,2.4032594E-4,4.714966E-6],"split_indices":[59,30,28,0,0,0,62,0,0,10,51,0,0,12,0,67,0,0,0],"split_type":[0,0,0,0,0,0,0,0,0,0,0,0,0,0,0,0,0,0,0],"sum_hessian":[5.1E1,3E0,4.8E1,2E0,1E0,3E0,4.5E1,2E0,1E0,4E0,4.1E1,3E0,1E0,3E1,1.1E1,2.5E1,5E0,1E0,2.4E1],"tree_param":{"num_deleted":"0","num_feature":"70","num_nodes":"19","size_leaf_vector":"0"}},{"base_weights":[4.191032E-4,2.2554398E-3,2.6064503E-4,4.6157837E-4,3.818512E-3,1.4572144E-3,1.5092932E-4,-2.9087067E-4,2.1368663E-3,8.1062317E-4,6.880079E-5,6.055832E-5,1.9054413E-3],"categories":[],"categories_nodes":[],"categories_segments":[],"categories_sizes":[],"default_left":[true,true,true,false,false,true,true,false,false,true,false,false,false],"id":48,"left_children":[1,3,5,-1,-1,7,9,-1,-1,11,-1,-1,-1],"loss_changes":[1.4543221E-5,9.453197E-6,6.2129034E-6,9.851574E-7,0E0,5.3739086E-6,2.436494E-6,0E0,3.1221953E-7,3.9905326E-6,8.855758E-7,3.3364662E-7,0E0],"parents":[2147483647,0,0,1,1,2,2,5,5,6,6,9,9],"right_children":[2,4,6,-1,-1,8,10,-1,-1,12,-1,-1,-1],"split_conditions":[9.5114E1,1.15E1,9.555E-1,1.3847352E-4,1.1455537E-3,2.326745E2,2.327915E2,-8.72612E-5,6.4105995E-4,6E0,2.0640238E-5,1.8167497E-5,5.716324E-4],"split_indices":[59,30,28,0,0,2,62,0,0,10,0,0,0],"split_type":[0,0,0,0,0,0,0,0,0,0,0,0,0],"sum_hessian":[5.1E1,3E0,4.8E1,2E0,1E0,3E0,4.5E1,1E0,2E0,4E0,4.1E1,3E0,1E0],"tree_param":{"num_deleted":"0","num_feature":"70","num_nodes":"13","size_leaf_vector":"0"}},{"base_weights":[3.4093857E-4,1.9001961E-3,2.0669431E-4,2.7058918E-3,-2.5844574E-4,9.326935E-4,8.3701554E-5,2.248764E-3,3.3855438E-4,5.3378515E-4,-3.7115974E-6,-1.6899109E-4,1.5271505E-3],"categories":[],"categories_nodes":[],"categories_segments":[],"categories_sizes":[],"default_left":[true,true,true,false,false,true,true,false,false,true,false,false,false],"id":49,"left_children":[1,3,5,-1,-1,7,9,-1,-1,11,-1,-1,-1],"loss_changes":[1.0491952E-5,7.656162E-6,4.2972715E-6,4.3188084E-7,0E0,4.712174E-6,1.6937399E-6,0E0,8.322996E-8,5.1448696E-6,8.503907E-7,6.4277444E-8,0E0],"parents":[2147483647,0,0,1,1,2,2,5,5,6,6,9,9],"right_children":[2,4,6,-1,-1,8,10,-1,-1,12,-1,-1,-1],"split_conditions":[9.5114E1,1.1507405E-2,9.655E-1,8.117676E-4,-7.7533725E-5,4.30495E1,4.0835E1,6.7462923E-4,1.0156632E-4,9.85E-1,-1.1134792E-6,-5.0697327E-5,4.5814516E-4],"split_indices":[59,21,18,0,0,47,67,0,0,48,0,0,0],"split_type":[0,0,0,0,0,0,0,0,0,0,0,0,0],"sum_hessian":[5.1E1,3E0,4.8E1,2E0,1E0,6E0,4.2E1,1E0,5E0,6E0,3.6E1,4E0,2E0],"tree_param":{"num_deleted":"0","num_feature":"70","num_nodes":"13","size_leaf_vector":"0"}},{"base_weights":[2.7537346E-4,1.5134811E-3,1.6868357E-4,1.2461345E-4,2.840042E-3,7.632119E-4,6.797702E-5,1.9111633E-3,2.5335947E-4,2.1211918E-4,-1.4400482E-4,2.1733737E-5,6.377697E-4,2.9680465E-4,-2.0530006E-4,1.1219978E-3,1.2283325E-4,8.3669025E-4,2.3024422E-5],"categories":[],"categories_nodes":[],"categories_segments":[],"categories_sizes":[],"default_left":[true,true,true,false,false,true,true,false,false,true,false,true,true,true,false,false,false,false,false],"id":50,"left_children":[1,3,5,-1,-1,7,9,-1,-1,11,-1,13,15,17,-1,-1,-1,-1,-1],"loss_changes":[6.6135663E-6,7.015764E-6,2.8818915E-6,3.7974192E-7,0E0,3.61279E-6,1.3444335E-6,0E0,1.1683309E-7,2.093118E-6,1.3815622E-7,1.2474915E-6,1.8569549E-6,1.3110257E-6,2.0477569E-7,0E0,3.0407756E-7,0E0,1.230559E-7],"parents":[2147483647,0,0,1,1,2,2,5,5,6,6,9,9,11,11,12,12,13,13],"right_children":[2,4,6,-1,-1,8,10,-1,-1,12,-1,14,16,18,-1,-1,-1,-1,-1],"split_conditions":[9.5114E1,1.15E1,9.655E-1,3.7384038E-5,8.5201266E-4,4.30495E1,4.5377E1,5.73349E-4,7.600784E-5,9.8300004E-1,-4.320145E-5,9.78475E1,9.7834E1,4.21525E1,-6.159002E-5,3.3659936E-4,3.684998E-5,2.510071E-4,6.907327E-6],"split_indices":[59,30,18,0,0,47,7,0,0,8,0,39,69,7,0,0,0,0,0],"split_type":[0,0,0,0,0,0,0,0,0,0,0,0,0,0,0,0,0,0,0],"sum_hessian":[5.1E1,3E0,4.8E1,2E0,1E0,6E0,4.2E1,1E0,5E0,2.5E1,1.7E1,1.8E1,7E0,8E0,1E1,3E0,4E0,2E0,6E0],"tree_param":{"num_deleted":"0","num_feature":"70","num_nodes":"19","size_leaf_vector":"0"}},{"base_weights":[2.3218301E-4,6.6280365E-4,4.0871755E-6,4.1770935E-4,2.4147034E-3,-4.916721E-5,8.381738E-4,1.6174316E-3,1.7897288E-4],"categories":[],"categories_nodes":[],"categories_segments":[],"categories_sizes":[],"default_left":[true,true,false,true,false,false,true,false,false],"id":51,"left_children":[1,3,-1,5,-1,-1,7,-1,-1],"loss_changes":[5.1048755E-6,6.7202072E-6,9.666136E-7,3.3783954E-6,0E0,2.0623904E-7,4.3337113E-6,6.478049E-7,4.994514E-7],"parents":[2147483647,0,0,1,1,3,3,6,6],"right_children":[2,4,-1,6,-1,-1,8,-1,-1],"split_conditions":[9.6873E1,1.15E1,1.2261527E-6,9.67955E1,7.2441105E-4,-1.4750164E-5,9.7511505E1,4.852295E-4,5.3691867E-5],"split_indices":[39,30,0,49,0,0,59,0,0],"split_type":[0,0,0,0,0,0,0,0,0],"sum_hessian":[5.1E1,1.7E1,3.4E1,1.6E1,1E0,8E0,8E0,3E0,5E0],"tree_param":{"num_deleted":"0","num_feature":"70","num_nodes":"9","size_leaf_vector":"0"}},{"base_weights":[1.8686515E-4,5.336867E-4,3.1607492E-6,3.2363218E-4,2.0523071E-3,7.694789E-4,1.04904175E-5,-2.5749207E-5,1.3723373E-3],"categories":[],"categories_nodes":[],"categories_segments":[],"categories_sizes":[],"default_left":[true,true,false,true,false,true,false,false,false],"id":52,"left_children":[1,3,-1,5,-1,7,-1,-1,-1],"loss_changes":[3.311371E-6,5.077684E-6,9.708925E-7,2.3653529E-6,0E0,3.3912065E-6,2.9294415E-7,1.6208287E-7,2.0411608E-7],"parents":[2147483647,0,0,1,1,3,3,5,5],"right_children":[2,4,-1,6,-1,8,-1,-1,-1],"split_conditions":[9.6873E1,1.15E1,9.482248E-7,4.2279746E3,6.156922E-4,2.9476914E3,3.1471254E-6,-7.724762E-6,4.117012E-4],"split_indices":[39,30,0,22,0,52,0,0,0],"split_type":[0,0,0,0,0,0,0,0,0],"sum_hessian":[5.1E1,1.7E1,3.4E1,1.6E1,1E0,6E0,1E1,3E0,3E0],"tree_param":{"num_deleted":"0","num_feature":"70","num_nodes":"9","size_leaf_vector":"0"}},{"base_weights":[1.5101067E-4,4.3010712E-4,3.1607492E-6,2.5008706E-4,1.745224E-3,9.206136E-4,9.930928E-5,7.7438354E-4,-4.2234146E-6],"categories":[],"categories_nodes":[],"categories_segments":[],"categories_sizes":[],"default_left":[true,true,false,true,false,false,true,false,false],"id":53,"left_children":[1,3,-1,5,-1,-1,7,-1,-1],"loss_changes":[2.1443886E-6,3.8249955E-6,9.708925E-7,1.6272829E-6,0E0,3.105913E-7,1.0516545E-6,0E0,2.9094903E-7],"parents":[2147483647,0,0,1,1,3,3,6,6],"right_children":[2,4,-1,6,-1,-1,8,-1,-1],"split_conditions":[9.6873E1,1.15E1,9.482248E-7,9.67E-1,5.235672E-4,2.761841E-4,1E0,2.3231507E-4,-1.2670245E-6],"split_indices":[39,30,0,18,0,0,20,0,0],"split_type":[0,0,0,0,0,0,0,0,0],"sum_hessian":[5.1E1,1.7E1,3.4E1,1.6E1,1E0,2E0,1.4E1,1E0,1.3E1],"tree_param":{"num_deleted":"0","num_feature":"70","num_nodes":"9","size_leaf_vector":"0"}},{"base_weights":[1.2612343E-4,3.5821067E-4,3.1607492E-6,2.0470339E-4,1.4839172E-3,7.368724E-4,8.46227E-5],"categories":[],"categories_nodes":[],"categories_segments":[],"categories_sizes":[],"default_left":[true,true,false,true,false,false,false],"id":54,"left_children":[1,3,-1,5,-1,-1,-1],"loss_changes":[1.4828474E-6,2.8067118E-6,9.708925E-7,1.0239986E-6,0E0,5.408589E-7,8.774643E-7],"parents":[2147483647,0,0,1,1,3,3],"right_children":[2,4,-1,6,-1,-1,-1],"split_conditions":[9.6873E1,1.15E1,9.482248E-7,9.67E-1,4.451752E-4,2.2106172E-4,2.5386811E-5],"split_indices":[39,30,0,18,0,0,0],"split_type":[0,0,0,0,0,0,0],"sum_hessian":[5.1E1,1.7E1,3.4E1,1.6E1,1E0,2E0,1.4E1],"tree_param":{"num_deleted":"0","num_feature":"70","num_nodes":"7","size_leaf_vector":"0"}},{"base_weights":[1.0207983E-4,2.5629997E-4,-2.9070625E-5,5.0014918E-5,7.5013295E-4,1.115799E-3,-1.0935465E-4,-4.4822693E-5,1.41716E-3],"categories":[],"categories_nodes":[],"categories_segments":[],"categories_sizes":[],"default_left":[true,true,false,false,true,true,false,false,false],"id":55,"left_children":[1,3,-1,-1,5,7,-1,-1,-1],"loss_changes":[1.059205E-6,2.407371E-6,3.474347E-7,8.8698715E-7,2.3220155E-6,1.8123519E-6,9.616876E-8,0E0,0E0],"parents":[2147483647,0,0,1,1,4,4,5,5],"right_children":[2,4,-1,-1,6,8,-1,-1,-1],"split_conditions":[9.76925E1,9.7466995E1,-8.721187E-6,1.5004476E-5,1.1507405E-2,2E0,-3.2806398E-5,-1.3446808E-5,4.2514803E-4],"split_indices":[19,19,0,0,21,0,0,0,0],"split_type":[0,0,0,0,0,0,0,0,0],"sum_hessian":[5.1E1,2.3E1,2.8E1,1.7E1,6E0,4E0,2E0,1E0,3E0],"tree_param":{"num_deleted":"0","num_feature":"70","num_nodes":"9","size_leaf_vector":"0"}},{"base_weights":[7.882485E-5],"categories":[],"categories_nodes":[],"categories_segments":[],"categories_sizes":[],"default_left":[false],"id":56,"left_children":[-1],"loss_changes":[7.944209E-7],"parents":[2147483647],"right_children":[-1],"split_conditions":[2.3647457E-5],"split_indices":[0],"split_type":[0],"sum_hessian":[5.1E1],"tree_param":{"num_deleted":"0","num_feature":"70","num_nodes":"1","size_leaf_vector":"0"}},{"base_weights":[5.6358484E-5],"categories":[],"categories_nodes":[],"categories_segments":[],"categories_sizes":[],"default_left":[false],"id":57,"left_children":[-1],"loss_changes":[7.929077E-7],"parents":[2147483647],"right_children":[-1],"split_conditions":[1.6907547E-5],"split_indices":[0],"split_type":[0],"sum_hessian":[5.1E1],"tree_param":{"num_deleted":"0","num_feature":"70","num_nodes":"1","size_leaf_vector":"0"}},{"base_weights":[4.0476138E-5],"categories":[],"categories_nodes":[],"categories_segments":[],"categories_sizes":[],"default_left":[false],"id":58,"left_children":[-1],"loss_changes":[7.9674334E-7],"parents":[2147483647],"right_children":[-1],"split_conditions":[1.2142842E-5],"split_indices":[0],"split_type":[0],"sum_hessian":[5.1E1],"tree_param":{"num_deleted":"0","num_feature":"70","num_nodes":"1","size_leaf_vector":"0"}},{"base_weights":[2.9233786E-5],"categories":[],"categories_nodes":[],"categories_segments":[],"categories_sizes":[],"default_left":[false],"id":59,"left_children":[-1],"loss_changes":[7.954451E-7],"parents":[2147483647],"right_children":[-1],"split_conditions":[8.770136E-6],"split_indices":[0],"split_type":[0],"sum_hessian":[5.1E1],"tree_param":{"num_deleted":"0","num_feature":"70","num_nodes":"1","size_leaf_vector":"0"}},{"base_weights":[2.0852456E-5],"categories":[],